digraph Tree {
0 [label="X[0] <= 99.5000\nentropy = 0.981795291446\nsamples = 2498", shape="box"] ;
1 [label="X[0] <= 82.5000\nentropy = 0.471184642466\nsamples = 1301", shape="box"] ;
0 -> 1 ;
2 [label="X[0] <= 23.5000\nentropy = 0.170638056984\nsamples = 867", shape="box"] ;
1 -> 2 ;
3 [label="X[1] <= 0.0000\nentropy = 0.060035176449\nsamples = 573", shape="box"] ;
2 -> 3 ;
4 [label="entropy = 0.0000\nsamples = 325\nvalue = [   0.  325.]", shape="box"] ;
3 -> 4 ;
5 [label="X[1] <= 4.0000\nentropy = 0.119116026656\nsamples = 248", shape="box"] ;
3 -> 5 ;
6 [label="X[0] <= 2.5000\nentropy = 0.532835063034\nsamples = 33", shape="box"] ;
5 -> 6 ;
7 [label="entropy = 0.5917\nsamples = 28\nvalue = [  4.  24.]", shape="box"] ;
6 -> 7 ;
8 [label="entropy = 0.0000\nsamples = 5\nvalue = [ 0.  5.]", shape="box"] ;
6 -> 8 ;
9 [label="entropy = 0.0000\nsamples = 215\nvalue = [   0.  215.]", shape="box"] ;
5 -> 9 ;
10 [label="X[1] <= 8.5000\nentropy = 0.332286630222\nsamples = 294", shape="box"] ;
2 -> 10 ;
11 [label="X[1] <= 6.0000\nentropy = 0.952265625437\nsamples = 43", shape="box"] ;
10 -> 11 ;
12 [label="X[0] <= 42.5000\nentropy = 0.909736122531\nsamples = 40", shape="box"] ;
11 -> 12 ;
13 [label="entropy = 0.0000\nsamples = 3\nvalue = [ 0.  3.]", shape="box"] ;
12 -> 13 ;
14 [label="X[0] <= 55.0000\nentropy = 0.935269139868\nsamples = 37", shape="box"] ;
12 -> 14 ;
15 [label="X[0] <= 53.0000\nentropy = 0.811278124459\nsamples = 4", shape="box"] ;
14 -> 15 ;
16 [label="X[0] <= 50.0000\nentropy = 1.0\nsamples = 2", shape="box"] ;
15 -> 16 ;
17 [label="entropy = 0.0000\nsamples = 1\nvalue = [ 1.  0.]", shape="box"] ;
16 -> 17 ;
18 [label="entropy = 0.0000\nsamples = 1\nvalue = [ 0.  1.]", shape="box"] ;
16 -> 18 ;
19 [label="entropy = 0.0000\nsamples = 2\nvalue = [ 2.  0.]", shape="box"] ;
15 -> 19 ;
20 [label="X[0] <= 73.5000\nentropy = 0.884963636383\nsamples = 33", shape="box"] ;
14 -> 20 ;
21 [label="X[1] <= 3.5000\nentropy = 0.70246655129\nsamples = 21", shape="box"] ;
20 -> 21 ;
22 [label="X[1] <= 1.5000\nentropy = 0.609840304716\nsamples = 20", shape="box"] ;
21 -> 22 ;
23 [label="X[0] <= 59.5000\nentropy = 0.672294817076\nsamples = 17", shape="box"] ;
22 -> 23 ;
24 [label="X[0] <= 58.0000\nentropy = 0.918295834054\nsamples = 3", shape="box"] ;
23 -> 24 ;
25 [label="entropy = 0.0000\nsamples = 1\nvalue = [ 0.  1.]", shape="box"] ;
24 -> 25 ;
26 [label="entropy = 1.0000\nsamples = 2\nvalue = [ 1.  1.]", shape="box"] ;
24 -> 26 ;
27 [label="X[0] <= 65.5000\nentropy = 0.591672778582\nsamples = 14", shape="box"] ;
23 -> 27 ;
28 [label="entropy = 0.0000\nsamples = 5\nvalue = [ 0.  5.]", shape="box"] ;
27 -> 28 ;
29 [label="X[0] <= 66.5000\nentropy = 0.764204506509\nsamples = 9", shape="box"] ;
27 -> 29 ;
30 [label="entropy = 0.0000\nsamples = 1\nvalue = [ 1.  0.]", shape="box"] ;
29 -> 30 ;
31 [label="X[0] <= 71.5000\nentropy = 0.5435644432\nsamples = 8", shape="box"] ;
29 -> 31 ;
32 [label="entropy = 0.0000\nsamples = 4\nvalue = [ 0.  4.]", shape="box"] ;
31 -> 32 ;
33 [label="entropy = 0.8113\nsamples = 4\nvalue = [ 1.  3.]", shape="box"] ;
31 -> 33 ;
34 [label="entropy = 0.0000\nsamples = 3\nvalue = [ 0.  3.]", shape="box"] ;
22 -> 34 ;
35 [label="entropy = 0.0000\nsamples = 1\nvalue = [ 1.  0.]", shape="box"] ;
21 -> 35 ;
36 [label="X[1] <= 1.5000\nentropy = 1.0\nsamples = 12", shape="box"] ;
20 -> 36 ;
37 [label="X[0] <= 78.0000\nentropy = 0.970950594455\nsamples = 10", shape="box"] ;
36 -> 37 ;
38 [label="X[0] <= 76.5000\nentropy = 1.0\nsamples = 6", shape="box"] ;
37 -> 38 ;
39 [label="X[0] <= 75.0000\nentropy = 0.970950594455\nsamples = 5", shape="box"] ;
38 -> 39 ;
40 [label="entropy = 0.9183\nsamples = 3\nvalue = [ 1.  2.]", shape="box"] ;
39 -> 40 ;
41 [label="entropy = 1.0000\nsamples = 2\nvalue = [ 1.  1.]", shape="box"] ;
39 -> 41 ;
42 [label="entropy = 0.0000\nsamples = 1\nvalue = [ 1.  0.]", shape="box"] ;
38 -> 42 ;
43 [label="X[0] <= 79.5000\nentropy = 0.811278124459\nsamples = 4", shape="box"] ;
37 -> 43 ;
44 [label="entropy = 0.0000\nsamples = 2\nvalue = [ 0.  2.]", shape="box"] ;
43 -> 44 ;
45 [label="entropy = 1.0000\nsamples = 2\nvalue = [ 1.  1.]", shape="box"] ;
43 -> 45 ;
46 [label="entropy = 0.0000\nsamples = 2\nvalue = [ 2.  0.]", shape="box"] ;
36 -> 46 ;
47 [label="entropy = 0.0000\nsamples = 3\nvalue = [ 3.  0.]", shape="box"] ;
11 -> 47 ;
48 [label="X[0] <= 26.5000\nentropy = 0.0669998046083\nsamples = 251", shape="box"] ;
10 -> 48 ;
49 [label="X[1] <= 57.5000\nentropy = 0.650022421648\nsamples = 6", shape="box"] ;
48 -> 49 ;
50 [label="entropy = 0.0000\nsamples = 1\nvalue = [ 1.  0.]", shape="box"] ;
49 -> 50 ;
51 [label="entropy = 0.0000\nsamples = 5\nvalue = [ 0.  5.]", shape="box"] ;
49 -> 51 ;
52 [label="X[1] <= 80.5000\nentropy = 0.0382709579195\nsamples = 245", shape="box"] ;
48 -> 52 ;
53 [label="entropy = 0.0000\nsamples = 200\nvalue = [   0.  200.]", shape="box"] ;
52 -> 53 ;
54 [label="X[1] <= 81.5000\nentropy = 0.153742180329\nsamples = 45", shape="box"] ;
52 -> 54 ;
55 [label="X[0] <= 62.5000\nentropy = 0.811278124459\nsamples = 4", shape="box"] ;
54 -> 55 ;
56 [label="entropy = 0.0000\nsamples = 3\nvalue = [ 0.  3.]", shape="box"] ;
55 -> 56 ;
57 [label="entropy = 0.0000\nsamples = 1\nvalue = [ 1.  0.]", shape="box"] ;
55 -> 57 ;
58 [label="entropy = 0.0000\nsamples = 41\nvalue = [  0.  41.]", shape="box"] ;
54 -> 58 ;
59 [label="X[1] <= 10.5000\nentropy = 0.813099017068\nsamples = 434", shape="box"] ;
1 -> 59 ;
60 [label="X[0] <= 96.5000\nentropy = 0.967988492247\nsamples = 162", shape="box"] ;
59 -> 60 ;
61 [label="X[0] <= 93.5000\nentropy = 0.9081783473\nsamples = 102", shape="box"] ;
60 -> 61 ;
62 [label="X[1] <= 4.5000\nentropy = 0.99453868165\nsamples = 46", shape="box"] ;
61 -> 62 ;
63 [label="X[0] <= 85.5000\nentropy = 0.998195879043\nsamples = 40", shape="box"] ;
62 -> 63 ;
64 [label="X[0] <= 83.5000\nentropy = 0.650022421648\nsamples = 6", shape="box"] ;
63 -> 64 ;
65 [label="entropy = 0.0000\nsamples = 1\nvalue = [ 1.  0.]", shape="box"] ;
64 -> 65 ;
66 [label="entropy = 0.0000\nsamples = 5\nvalue = [ 0.  5.]", shape="box"] ;
64 -> 66 ;
67 [label="X[1] <= 3.5000\nentropy = 0.997502546369\nsamples = 34", shape="box"] ;
63 -> 67 ;
68 [label="X[0] <= 87.5000\nentropy = 0.987137774372\nsamples = 30", shape="box"] ;
67 -> 68 ;
69 [label="entropy = 0.0000\nsamples = 2\nvalue = [ 2.  0.]", shape="box"] ;
68 -> 69 ;
70 [label="X[0] <= 92.5000\nentropy = 0.996316519559\nsamples = 28", shape="box"] ;
68 -> 70 ;
71 [label="X[0] <= 88.5000\nentropy = 1.0\nsamples = 22", shape="box"] ;
70 -> 71 ;
72 [label="entropy = 0.9852\nsamples = 7\nvalue = [ 4.  3.]", shape="box"] ;
71 -> 72 ;
73 [label="X[0] <= 89.5000\nentropy = 0.996791631982\nsamples = 15", shape="box"] ;
71 -> 73 ;
74 [label="entropy = 0.0000\nsamples = 2\nvalue = [ 0.  2.]", shape="box"] ;
73 -> 74 ;
75 [label="X[0] <= 90.5000\nentropy = 0.995727452085\nsamples = 13", shape="box"] ;
73 -> 75 ;
76 [label="X[1] <= 2.0000\nentropy = 0.811278124459\nsamples = 4", shape="box"] ;
75 -> 76 ;
77 [label="entropy = 0.9183\nsamples = 3\nvalue = [ 2.  1.]", shape="box"] ;
76 -> 77 ;
78 [label="entropy = 0.0000\nsamples = 1\nvalue = [ 1.  0.]", shape="box"] ;
76 -> 78 ;
79 [label="X[1] <= 2.0000\nentropy = 0.991076059838\nsamples = 9", shape="box"] ;
75 -> 79 ;
80 [label="X[0] <= 91.5000\nentropy = 1.0\nsamples = 8", shape="box"] ;
79 -> 80 ;
81 [label="entropy = 0.9710\nsamples = 5\nvalue = [ 2.  3.]", shape="box"] ;
80 -> 81 ;
82 [label="entropy = 0.9183\nsamples = 3\nvalue = [ 2.  1.]", shape="box"] ;
80 -> 82 ;
83 [label="entropy = 0.0000\nsamples = 1\nvalue = [ 0.  1.]", shape="box"] ;
79 -> 83 ;
84 [label="entropy = 0.9183\nsamples = 6\nvalue = [ 4.  2.]", shape="box"] ;
70 -> 84 ;
85 [label="X[0] <= 88.0000\nentropy = 0.811278124459\nsamples = 4", shape="box"] ;
67 -> 85 ;
86 [label="entropy = 0.0000\nsamples = 1\nvalue = [ 0.  1.]", shape="box"] ;
85 -> 86 ;
87 [label="X[0] <= 91.5000\nentropy = 0.918295834054\nsamples = 3", shape="box"] ;
85 -> 87 ;
88 [label="entropy = 1.0000\nsamples = 2\nvalue = [ 1.  1.]", shape="box"] ;
87 -> 88 ;
89 [label="entropy = 0.0000\nsamples = 1\nvalue = [ 0.  1.]", shape="box"] ;
87 -> 89 ;
90 [label="entropy = 0.0000\nsamples = 6\nvalue = [ 6.  0.]", shape="box"] ;
62 -> 90 ;
91 [label="X[0] <= 94.5000\nentropy = 0.749595257259\nsamples = 56", shape="box"] ;
61 -> 91 ;
92 [label="X[1] <= 3.0000\nentropy = 0.666578357995\nsamples = 46", shape="box"] ;
91 -> 92 ;
93 [label="X[1] <= 1.5000\nentropy = 0.693127415328\nsamples = 43", shape="box"] ;
92 -> 93 ;
94 [label="entropy = 0.6790\nsamples = 39\nvalue = [ 32.   7.]", shape="box"] ;
93 -> 94 ;
95 [label="entropy = 0.8113\nsamples = 4\nvalue = [ 3.  1.]", shape="box"] ;
93 -> 95 ;
96 [label="entropy = 0.0000\nsamples = 3\nvalue = [ 3.  0.]", shape="box"] ;
92 -> 96 ;
97 [label="X[1] <= 5.0000\nentropy = 0.970950594455\nsamples = 10", shape="box"] ;
91 -> 97 ;
98 [label="X[0] <= 95.5000\nentropy = 0.991076059838\nsamples = 9", shape="box"] ;
97 -> 98 ;
99 [label="entropy = 1.0000\nsamples = 4\nvalue = [ 2.  2.]", shape="box"] ;
98 -> 99 ;
100 [label="entropy = 0.9710\nsamples = 5\nvalue = [ 3.  2.]", shape="box"] ;
98 -> 100 ;
101 [label="entropy = 0.0000\nsamples = 1\nvalue = [ 1.  0.]", shape="box"] ;
97 -> 101 ;
102 [label="X[1] <= 1.5000\nentropy = 0.999198354264\nsamples = 60", shape="box"] ;
60 -> 102 ;
103 [label="X[0] <= 97.5000\nentropy = 0.991820797422\nsamples = 47", shape="box"] ;
102 -> 103 ;
104 [label="entropy = 1.0000\nsamples = 8\nvalue = [ 4.  4.]", shape="box"] ;
103 -> 104 ;
105 [label="X[0] <= 98.5000\nentropy = 0.988110836522\nsamples = 39", shape="box"] ;
103 -> 105 ;
106 [label="entropy = 0.9911\nsamples = 18\nvalue = [ 10.   8.]", shape="box"] ;
105 -> 106 ;
107 [label="entropy = 0.9852\nsamples = 21\nvalue = [ 12.   9.]", shape="box"] ;
105 -> 107 ;
108 [label="X[1] <= 8.5000\nentropy = 0.779349837292\nsamples = 13", shape="box"] ;
102 -> 108 ;
109 [label="X[1] <= 5.5000\nentropy = 0.439496986922\nsamples = 11", shape="box"] ;
108 -> 109 ;
110 [label="X[1] <= 4.0000\nentropy = 0.650022421648\nsamples = 6", shape="box"] ;
109 -> 110 ;
111 [label="entropy = 0.0000\nsamples = 4\nvalue = [ 0.  4.]", shape="box"] ;
110 -> 111 ;
112 [label="entropy = 1.0000\nsamples = 2\nvalue = [ 1.  1.]", shape="box"] ;
110 -> 112 ;
113 [label="entropy = 0.0000\nsamples = 5\nvalue = [ 0.  5.]", shape="box"] ;
109 -> 113 ;
114 [label="entropy = 0.0000\nsamples = 2\nvalue = [ 2.  0.]", shape="box"] ;
108 -> 114 ;
115 [label="X[1] <= 41.5000\nentropy = 0.2443113232\nsamples = 272", shape="box"] ;
59 -> 115 ;
116 [label="X[0] <= 85.5000\nentropy = 0.492915779616\nsamples = 65", shape="box"] ;
115 -> 116 ;
117 [label="X[0] <= 83.5000\nentropy = 0.845350936622\nsamples = 11", shape="box"] ;
116 -> 117 ;
118 [label="entropy = 0.0000\nsamples = 4\nvalue = [ 0.  4.]", shape="box"] ;
117 -> 118 ;
119 [label="X[1] <= 17.0000\nentropy = 0.985228136034\nsamples = 7", shape="box"] ;
117 -> 119 ;
120 [label="entropy = 0.0000\nsamples = 1\nvalue = [ 0.  1.]", shape="box"] ;
119 -> 120 ;
121 [label="X[1] <= 26.0000\nentropy = 1.0\nsamples = 6", shape="box"] ;
119 -> 121 ;
122 [label="entropy = 0.0000\nsamples = 1\nvalue = [ 1.  0.]", shape="box"] ;
121 -> 122 ;
123 [label="X[1] <= 36.5000\nentropy = 0.970950594455\nsamples = 5", shape="box"] ;
121 -> 123 ;
124 [label="X[1] <= 35.5000\nentropy = 1.0\nsamples = 4", shape="box"] ;
123 -> 124 ;
125 [label="X[1] <= 34.0000\nentropy = 0.918295834054\nsamples = 3", shape="box"] ;
124 -> 125 ;
126 [label="X[0] <= 84.5000\nentropy = 1.0\nsamples = 2", shape="box"] ;
125 -> 126 ;
127 [label="entropy = 0.0000\nsamples = 1\nvalue = [ 1.  0.]", shape="box"] ;
126 -> 127 ;
128 [label="entropy = 0.0000\nsamples = 1\nvalue = [ 0.  1.]", shape="box"] ;
126 -> 128 ;
129 [label="entropy = 0.0000\nsamples = 1\nvalue = [ 0.  1.]", shape="box"] ;
125 -> 129 ;
130 [label="entropy = 0.0000\nsamples = 1\nvalue = [ 1.  0.]", shape="box"] ;
124 -> 130 ;
131 [label="entropy = 0.0000\nsamples = 1\nvalue = [ 0.  1.]", shape="box"] ;
123 -> 131 ;
132 [label="X[1] <= 40.5000\nentropy = 0.380946585705\nsamples = 54", shape="box"] ;
116 -> 132 ;
133 [label="X[1] <= 31.5000\nentropy = 0.318215297683\nsamples = 52", shape="box"] ;
132 -> 133 ;
134 [label="X[1] <= 30.5000\nentropy = 0.439496986922\nsamples = 33", shape="box"] ;
133 -> 134 ;
135 [label="X[1] <= 23.5000\nentropy = 0.345117314945\nsamples = 31", shape="box"] ;
134 -> 135 ;
136 [label="X[1] <= 22.5000\nentropy = 0.619382194679\nsamples = 13", shape="box"] ;
135 -> 136 ;
137 [label="X[1] <= 15.0000\nentropy = 0.413816850304\nsamples = 12", shape="box"] ;
136 -> 137 ;
138 [label="X[1] <= 12.5000\nentropy = 0.721928094887\nsamples = 5", shape="box"] ;
137 -> 138 ;
139 [label="entropy = 0.0000\nsamples = 4\nvalue = [ 0.  4.]", shape="box"] ;
138 -> 139 ;
140 [label="entropy = 0.0000\nsamples = 1\nvalue = [ 1.  0.]", shape="box"] ;
138 -> 140 ;
141 [label="entropy = 0.0000\nsamples = 7\nvalue = [ 0.  7.]", shape="box"] ;
137 -> 141 ;
142 [label="entropy = 0.0000\nsamples = 1\nvalue = [ 1.  0.]", shape="box"] ;
136 -> 142 ;
143 [label="entropy = 0.0000\nsamples = 18\nvalue = [  0.  18.]", shape="box"] ;
135 -> 143 ;
144 [label="X[0] <= 93.0000\nentropy = 1.0\nsamples = 2", shape="box"] ;
134 -> 144 ;
145 [label="entropy = 0.0000\nsamples = 1\nvalue = [ 1.  0.]", shape="box"] ;
144 -> 145 ;
146 [label="entropy = 0.0000\nsamples = 1\nvalue = [ 0.  1.]", shape="box"] ;
144 -> 146 ;
147 [label="entropy = 0.0000\nsamples = 19\nvalue = [  0.  19.]", shape="box"] ;
133 -> 147 ;
148 [label="X[0] <= 94.0000\nentropy = 1.0\nsamples = 2", shape="box"] ;
132 -> 148 ;
149 [label="entropy = 0.0000\nsamples = 1\nvalue = [ 0.  1.]", shape="box"] ;
148 -> 149 ;
150 [label="entropy = 0.0000\nsamples = 1\nvalue = [ 1.  0.]", shape="box"] ;
148 -> 150 ;
151 [label="X[1] <= 96.0000\nentropy = 0.137626130501\nsamples = 207", shape="box"] ;
115 -> 151 ;
152 [label="X[1] <= 53.5000\nentropy = 0.079811828875\nsamples = 203", shape="box"] ;
151 -> 152 ;
153 [label="X[1] <= 52.5000\nentropy = 0.228538143954\nsamples = 54", shape="box"] ;
152 -> 153 ;
154 [label="entropy = 0.0000\nsamples = 44\nvalue = [  0.  44.]", shape="box"] ;
153 -> 154 ;
155 [label="X[0] <= 88.5000\nentropy = 0.721928094887\nsamples = 10", shape="box"] ;
153 -> 155 ;
156 [label="entropy = 0.0000\nsamples = 3\nvalue = [ 0.  3.]", shape="box"] ;
155 -> 156 ;
157 [label="X[0] <= 90.0000\nentropy = 0.863120568567\nsamples = 7", shape="box"] ;
155 -> 157 ;
158 [label="entropy = 0.0000\nsamples = 1\nvalue = [ 1.  0.]", shape="box"] ;
157 -> 158 ;
159 [label="X[0] <= 96.0000\nentropy = 0.650022421648\nsamples = 6", shape="box"] ;
157 -> 159 ;
160 [label="entropy = 0.0000\nsamples = 4\nvalue = [ 0.  4.]", shape="box"] ;
159 -> 160 ;
161 [label="entropy = 1.0000\nsamples = 2\nvalue = [ 1.  1.]", shape="box"] ;
159 -> 161 ;
162 [label="entropy = 0.0000\nsamples = 149\nvalue = [   0.  149.]", shape="box"] ;
152 -> 162 ;
163 [label="X[0] <= 92.0000\nentropy = 1.0\nsamples = 4", shape="box"] ;
151 -> 163 ;
164 [label="entropy = 0.0000\nsamples = 2\nvalue = [ 0.  2.]", shape="box"] ;
163 -> 164 ;
165 [label="entropy = 0.0000\nsamples = 2\nvalue = [ 2.  0.]", shape="box"] ;
163 -> 165 ;
166 [label="X[1] <= 19.0000\nentropy = 0.780464390273\nsamples = 1197", shape="box"] ;
0 -> 166 ;
167 [label="X[1] <= 10.5000\nentropy = 0.352253575592\nsamples = 919", shape="box"] ;
166 -> 167 ;
168 [label="X[1] <= 7.5000\nentropy = 0.329846070207\nsamples = 891", shape="box"] ;
167 -> 168 ;
169 [label="X[1] <= 5.5000\nentropy = 0.340719732641\nsamples = 852", shape="box"] ;
168 -> 169 ;
170 [label="X[1] <= 1.5000\nentropy = 0.328688660544\nsamples = 829", shape="box"] ;
169 -> 170 ;
171 [label="entropy = 0.3580\nsamples = 707\nvalue = [ 659.   48.]", shape="box"] ;
170 -> 171 ;
172 [label="X[1] <= 2.5000\nentropy = 0.120681014014\nsamples = 122", shape="box"] ;
170 -> 172 ;
173 [label="entropy = 0.0000\nsamples = 42\nvalue = [ 42.   0.]", shape="box"] ;
172 -> 173 ;
174 [label="X[1] <= 3.5000\nentropy = 0.168660931497\nsamples = 80", shape="box"] ;
172 -> 174 ;
175 [label="entropy = 0.2285\nsamples = 27\nvalue = [ 26.   1.]", shape="box"] ;
174 -> 175 ;
176 [label="X[1] <= 4.5000\nentropy = 0.135036202802\nsamples = 53", shape="box"] ;
174 -> 176 ;
177 [label="entropy = 0.0000\nsamples = 21\nvalue = [ 21.   0.]", shape="box"] ;
176 -> 177 ;
178 [label="entropy = 0.2006\nsamples = 32\nvalue = [ 31.   1.]", shape="box"] ;
176 -> 178 ;
179 [label="X[1] <= 6.5000\nentropy = 0.666578357995\nsamples = 23", shape="box"] ;
169 -> 179 ;
180 [label="entropy = 0.5917\nsamples = 7\nvalue = [ 6.  1.]", shape="box"] ;
179 -> 180 ;
181 [label="entropy = 0.6962\nsamples = 16\nvalue = [ 13.   3.]", shape="box"] ;
179 -> 181 ;
182 [label="entropy = 0.0000\nsamples = 39\nvalue = [ 39.   0.]", shape="box"] ;
168 -> 182 ;
183 [label="X[1] <= 11.5000\nentropy = 0.811278124459\nsamples = 28", shape="box"] ;
167 -> 183 ;
184 [label="entropy = 0.9183\nsamples = 3\nvalue = [ 1.  2.]", shape="box"] ;
183 -> 184 ;
185 [label="X[1] <= 16.5000\nentropy = 0.721928094887\nsamples = 25", shape="box"] ;
183 -> 185 ;
186 [label="X[1] <= 14.5000\nentropy = 0.791858352567\nsamples = 21", shape="box"] ;
185 -> 186 ;
187 [label="X[1] <= 13.5000\nentropy = 0.684038435639\nsamples = 11", shape="box"] ;
186 -> 187 ;
188 [label="X[1] <= 12.5000\nentropy = 0.863120568567\nsamples = 7", shape="box"] ;
187 -> 188 ;
189 [label="entropy = 0.8113\nsamples = 4\nvalue = [ 3.  1.]", shape="box"] ;
188 -> 189 ;
190 [label="entropy = 0.9183\nsamples = 3\nvalue = [ 2.  1.]", shape="box"] ;
188 -> 190 ;
191 [label="entropy = 0.0000\nsamples = 4\nvalue = [ 4.  0.]", shape="box"] ;
187 -> 191 ;
192 [label="X[1] <= 15.5000\nentropy = 0.881290899231\nsamples = 10", shape="box"] ;
186 -> 192 ;
193 [label="entropy = 0.8631\nsamples = 7\nvalue = [ 5.  2.]", shape="box"] ;
192 -> 193 ;
194 [label="entropy = 0.9183\nsamples = 3\nvalue = [ 2.  1.]", shape="box"] ;
192 -> 194 ;
195 [label="entropy = 0.0000\nsamples = 4\nvalue = [ 4.  0.]", shape="box"] ;
185 -> 195 ;
196 [label="X[1] <= 99.0000\nentropy = 0.765646570165\nsamples = 278", shape="box"] ;
166 -> 196 ;
197 [label="X[1] <= 30.5000\nentropy = 0.286396957116\nsamples = 220", shape="box"] ;
196 -> 197 ;
198 [label="X[1] <= 29.5000\nentropy = 0.779349837292\nsamples = 26", shape="box"] ;
197 -> 198 ;
199 [label="X[1] <= 22.5000\nentropy = 0.650022421648\nsamples = 24", shape="box"] ;
198 -> 199 ;
200 [label="entropy = 0.0000\nsamples = 8\nvalue = [ 0.  8.]", shape="box"] ;
199 -> 200 ;
201 [label="X[1] <= 27.5000\nentropy = 0.811278124459\nsamples = 16", shape="box"] ;
199 -> 201 ;
202 [label="X[1] <= 24.5000\nentropy = 0.970950594455\nsamples = 10", shape="box"] ;
201 -> 202 ;
203 [label="X[1] <= 23.5000\nentropy = 0.918295834054\nsamples = 3", shape="box"] ;
202 -> 203 ;
204 [label="entropy = 1.0000\nsamples = 2\nvalue = [ 1.  1.]", shape="box"] ;
203 -> 204 ;
205 [label="entropy = 0.0000\nsamples = 1\nvalue = [ 1.  0.]", shape="box"] ;
203 -> 205 ;
206 [label="X[1] <= 25.5000\nentropy = 0.863120568567\nsamples = 7", shape="box"] ;
202 -> 206 ;
207 [label="entropy = 0.0000\nsamples = 3\nvalue = [ 0.  3.]", shape="box"] ;
206 -> 207 ;
208 [label="X[1] <= 26.5000\nentropy = 1.0\nsamples = 4", shape="box"] ;
206 -> 208 ;
209 [label="entropy = 0.0000\nsamples = 1\nvalue = [ 1.  0.]", shape="box"] ;
208 -> 209 ;
210 [label="entropy = 0.9183\nsamples = 3\nvalue = [ 1.  2.]", shape="box"] ;
208 -> 210 ;
211 [label="entropy = 0.0000\nsamples = 6\nvalue = [ 0.  6.]", shape="box"] ;
201 -> 211 ;
212 [label="entropy = 0.0000\nsamples = 2\nvalue = [ 2.  0.]", shape="box"] ;
198 -> 212 ;
213 [label="X[1] <= 88.5000\nentropy = 0.172730065629\nsamples = 194", shape="box"] ;
197 -> 213 ;
214 [label="X[1] <= 56.5000\nentropy = 0.122838948313\nsamples = 179", shape="box"] ;
213 -> 214 ;
215 [label="X[1] <= 55.5000\nentropy = 0.249882292833\nsamples = 72", shape="box"] ;
214 -> 215 ;
216 [label="X[1] <= 36.5000\nentropy = 0.11058084477\nsamples = 68", shape="box"] ;
215 -> 216 ;
217 [label="X[1] <= 35.5000\nentropy = 0.391243563629\nsamples = 13", shape="box"] ;
216 -> 217 ;
218 [label="entropy = 0.0000\nsamples = 8\nvalue = [ 0.  8.]", shape="box"] ;
217 -> 218 ;
219 [label="entropy = 0.7219\nsamples = 5\nvalue = [ 1.  4.]", shape="box"] ;
217 -> 219 ;
220 [label="entropy = 0.0000\nsamples = 55\nvalue = [  0.  55.]", shape="box"] ;
216 -> 220 ;
221 [label="entropy = 1.0000\nsamples = 4\nvalue = [ 2.  2.]", shape="box"] ;
215 -> 221 ;
222 [label="entropy = 0.0000\nsamples = 107\nvalue = [   0.  107.]", shape="box"] ;
214 -> 222 ;
223 [label="X[1] <= 91.5000\nentropy = 0.566509506553\nsamples = 15", shape="box"] ;
213 -> 223 ;
224 [label="X[1] <= 89.5000\nentropy = 0.811278124459\nsamples = 8", shape="box"] ;
223 -> 224 ;
225 [label="entropy = 0.9183\nsamples = 3\nvalue = [ 1.  2.]", shape="box"] ;
224 -> 225 ;
226 [label="X[1] <= 90.5000\nentropy = 0.721928094887\nsamples = 5", shape="box"] ;
224 -> 226 ;
227 [label="entropy = 0.0000\nsamples = 1\nvalue = [ 0.  1.]", shape="box"] ;
226 -> 227 ;
228 [label="entropy = 0.8113\nsamples = 4\nvalue = [ 1.  3.]", shape="box"] ;
226 -> 228 ;
229 [label="entropy = 0.0000\nsamples = 7\nvalue = [ 0.  7.]", shape="box"] ;
223 -> 229 ;
230 [label="entropy = 0.5313\nsamples = 58\nvalue = [ 51.   7.]", shape="box"] ;
196 -> 230 ;
}