digraph Tree {
0 [label="X[0] <= 99.5000\ngini = 0.486077744423\nsamples = 2499", shape="box"] ;
1 [label="X[0] <= 93.5000\ngini = 0.17386399394\nsamples = 1310", shape="box"] ;
0 -> 1 ;
2 [label="X[0] <= 82.5000\ngini = 0.0872392932724\nsamples = 1072", shape="box"] ;
1 -> 2 ;
3 [label="X[1] <= 8.5000\ngini = 0.0528826237128\nsamples = 883", shape="box"] ;
2 -> 3 ;
4 [label="X[0] <= 0.0000\ngini = 0.0999488179241\nsamples = 417", shape="box"] ;
3 -> 4 ;
5 [label="gini = 0.0000\nsamples = 331\nvalue = [   0.  331.]", shape="box"] ;
4 -> 5 ;
6 [label="X[0] <= 23.0000\ngini = 0.380746349378\nsamples = 86", shape="box"] ;
4 -> 6 ;
7 [label="X[0] <= 2.5000\ngini = 0.265927977839\nsamples = 38", shape="box"] ;
6 -> 7 ;
8 [label="X[1] <= 4.0000\ngini = 0.297520661157\nsamples = 33", shape="box"] ;
7 -> 8 ;
9 [label="gini = 0.3122\nsamples = 31\nvalue = [  6.  25.]", shape="box"] ;
8 -> 9 ;
10 [label="gini = 0.0000\nsamples = 2\nvalue = [ 0.  2.]", shape="box"] ;
8 -> 10 ;
11 [label="gini = 0.0000\nsamples = 5\nvalue = [ 0.  5.]", shape="box"] ;
7 -> 11 ;
12 [label="X[1] <= 6.0000\ngini = 0.444444444444\nsamples = 48", shape="box"] ;
6 -> 12 ;
13 [label="X[1] <= 1.5000\ngini = 0.410864197531\nsamples = 45", shape="box"] ;
12 -> 13 ;
14 [label="X[0] <= 49.5000\ngini = 0.43875\nsamples = 40", shape="box"] ;
13 -> 14 ;
15 [label="X[0] <= 42.5000\ngini = 0.48\nsamples = 5", shape="box"] ;
14 -> 15 ;
16 [label="X[0] <= 27.5000\ngini = 0.444444444444\nsamples = 3", shape="box"] ;
15 -> 16 ;
17 [label="gini = 0.0000\nsamples = 1\nvalue = [ 0.  1.]", shape="box"] ;
16 -> 17 ;
18 [label="X[0] <= 33.0000\ngini = 0.5\nsamples = 2", shape="box"] ;
16 -> 18 ;
19 [label="gini = 0.0000\nsamples = 1\nvalue = [ 1.  0.]", shape="box"] ;
18 -> 19 ;
20 [label="gini = 0.0000\nsamples = 1\nvalue = [ 0.  1.]", shape="box"] ;
18 -> 20 ;
21 [label="gini = 0.0000\nsamples = 2\nvalue = [ 2.  0.]", shape="box"] ;
15 -> 21 ;
22 [label="X[0] <= 73.5000\ngini = 0.408163265306\nsamples = 35", shape="box"] ;
14 -> 22 ;
23 [label="X[0] <= 59.5000\ngini = 0.340264650284\nsamples = 23", shape="box"] ;
22 -> 23 ;
24 [label="X[0] <= 53.5000\ngini = 0.46875\nsamples = 8", shape="box"] ;
23 -> 24 ;
25 [label="gini = 0.0000\nsamples = 3\nvalue = [ 0.  3.]", shape="box"] ;
24 -> 25 ;
26 [label="X[0] <= 55.5000\ngini = 0.48\nsamples = 5", shape="box"] ;
24 -> 26 ;
27 [label="gini = 0.0000\nsamples = 2\nvalue = [ 2.  0.]", shape="box"] ;
26 -> 27 ;
28 [label="X[0] <= 58.0000\ngini = 0.444444444444\nsamples = 3", shape="box"] ;
26 -> 28 ;
29 [label="gini = 0.0000\nsamples = 1\nvalue = [ 0.  1.]", shape="box"] ;
28 -> 29 ;
30 [label="gini = 0.5000\nsamples = 2\nvalue = [ 1.  1.]", shape="box"] ;
28 -> 30 ;
31 [label="X[0] <= 65.5000\ngini = 0.231111111111\nsamples = 15", shape="box"] ;
23 -> 31 ;
32 [label="gini = 0.0000\nsamples = 6\nvalue = [ 0.  6.]", shape="box"] ;
31 -> 32 ;
33 [label="X[0] <= 66.5000\ngini = 0.345679012346\nsamples = 9", shape="box"] ;
31 -> 33 ;
34 [label="gini = 0.0000\nsamples = 1\nvalue = [ 1.  0.]", shape="box"] ;
33 -> 34 ;
35 [label="X[0] <= 71.5000\ngini = 0.21875\nsamples = 8", shape="box"] ;
33 -> 35 ;
36 [label="gini = 0.0000\nsamples = 4\nvalue = [ 0.  4.]", shape="box"] ;
35 -> 36 ;
37 [label="gini = 0.3750\nsamples = 4\nvalue = [ 1.  3.]", shape="box"] ;
35 -> 37 ;
38 [label="X[0] <= 78.0000\ngini = 0.486111111111\nsamples = 12", shape="box"] ;
22 -> 38 ;
39 [label="X[0] <= 74.5000\ngini = 0.5\nsamples = 8", shape="box"] ;
38 -> 39 ;
40 [label="gini = 0.4444\nsamples = 3\nvalue = [ 1.  2.]", shape="box"] ;
39 -> 40 ;
41 [label="X[0] <= 75.5000\ngini = 0.48\nsamples = 5", shape="box"] ;
39 -> 41 ;
42 [label="gini = 0.0000\nsamples = 1\nvalue = [ 1.  0.]", shape="box"] ;
41 -> 42 ;
43 [label="X[0] <= 76.5000\ngini = 0.5\nsamples = 4", shape="box"] ;
41 -> 43 ;
44 [label="gini = 0.5000\nsamples = 2\nvalue = [ 1.  1.]", shape="box"] ;
43 -> 44 ;
45 [label="gini = 0.5000\nsamples = 2\nvalue = [ 1.  1.]", shape="box"] ;
43 -> 45 ;
46 [label="X[0] <= 79.5000\ngini = 0.375\nsamples = 4", shape="box"] ;
38 -> 46 ;
47 [label="gini = 0.0000\nsamples = 2\nvalue = [ 0.  2.]", shape="box"] ;
46 -> 47 ;
48 [label="gini = 0.5000\nsamples = 2\nvalue = [ 1.  1.]", shape="box"] ;
46 -> 48 ;
49 [label="gini = 0.0000\nsamples = 5\nvalue = [ 0.  5.]", shape="box"] ;
13 -> 49 ;
50 [label="gini = 0.0000\nsamples = 3\nvalue = [ 3.  0.]", shape="box"] ;
12 -> 50 ;
51 [label="X[0] <= 25.5000\ngini = 0.00854685111164\nsamples = 466", shape="box"] ;
3 -> 51 ;
52 [label="gini = 0.0000\nsamples = 212\nvalue = [   0.  212.]", shape="box"] ;
51 -> 52 ;
53 [label="X[0] <= 26.5000\ngini = 0.0156240312481\nsamples = 254", shape="box"] ;
51 -> 53 ;
54 [label="X[1] <= 61.0000\ngini = 0.5\nsamples = 2", shape="box"] ;
53 -> 54 ;
55 [label="gini = 0.0000\nsamples = 1\nvalue = [ 1.  0.]", shape="box"] ;
54 -> 55 ;
56 [label="gini = 0.0000\nsamples = 1\nvalue = [ 0.  1.]", shape="box"] ;
54 -> 56 ;
57 [label="X[1] <= 80.5000\ngini = 0.00790501385739\nsamples = 252", shape="box"] ;
53 -> 57 ;
58 [label="gini = 0.0000\nsamples = 201\nvalue = [   0.  201.]", shape="box"] ;
57 -> 58 ;
59 [label="X[1] <= 81.5000\ngini = 0.0384467512495\nsamples = 51", shape="box"] ;
57 -> 59 ;
60 [label="X[0] <= 62.5000\ngini = 0.244897959184\nsamples = 7", shape="box"] ;
59 -> 60 ;
61 [label="gini = 0.0000\nsamples = 5\nvalue = [ 0.  5.]", shape="box"] ;
60 -> 61 ;
62 [label="X[0] <= 71.5000\ngini = 0.5\nsamples = 2", shape="box"] ;
60 -> 62 ;
63 [label="gini = 0.0000\nsamples = 1\nvalue = [ 1.  0.]", shape="box"] ;
62 -> 63 ;
64 [label="gini = 0.0000\nsamples = 1\nvalue = [ 0.  1.]", shape="box"] ;
62 -> 64 ;
65 [label="gini = 0.0000\nsamples = 44\nvalue = [  0.  44.]", shape="box"] ;
59 -> 65 ;
66 [label="X[1] <= 9.5000\ngini = 0.229556843313\nsamples = 189", shape="box"] ;
2 -> 66 ;
67 [label="X[1] <= 4.5000\ngini = 0.499634769905\nsamples = 37", shape="box"] ;
66 -> 67 ;
68 [label="X[0] <= 85.5000\ngini = 0.495867768595\nsamples = 33", shape="box"] ;
67 -> 68 ;
69 [label="gini = 0.0000\nsamples = 5\nvalue = [ 0.  5.]", shape="box"] ;
68 -> 69 ;
70 [label="X[0] <= 89.5000\ngini = 0.497448979592\nsamples = 28", shape="box"] ;
68 -> 70 ;
71 [label="X[0] <= 88.5000\ngini = 0.48\nsamples = 10", shape="box"] ;
70 -> 71 ;
72 [label="X[1] <= 2.5000\ngini = 0.5\nsamples = 8", shape="box"] ;
71 -> 72 ;
73 [label="X[0] <= 87.5000\ngini = 0.489795918367\nsamples = 7", shape="box"] ;
72 -> 73 ;
74 [label="gini = 0.0000\nsamples = 2\nvalue = [ 2.  0.]", shape="box"] ;
73 -> 74 ;
75 [label="gini = 0.4800\nsamples = 5\nvalue = [ 2.  3.]", shape="box"] ;
73 -> 75 ;
76 [label="gini = 0.0000\nsamples = 1\nvalue = [ 0.  1.]", shape="box"] ;
72 -> 76 ;
77 [label="gini = 0.0000\nsamples = 2\nvalue = [ 0.  2.]", shape="box"] ;
71 -> 77 ;
78 [label="X[0] <= 92.5000\ngini = 0.475308641975\nsamples = 18", shape="box"] ;
70 -> 78 ;
79 [label="X[0] <= 90.5000\ngini = 0.489795918367\nsamples = 14", shape="box"] ;
78 -> 79 ;
80 [label="X[1] <= 3.5000\ngini = 0.444444444444\nsamples = 6", shape="box"] ;
79 -> 80 ;
81 [label="X[1] <= 2.0000\ngini = 0.375\nsamples = 4", shape="box"] ;
80 -> 81 ;
82 [label="gini = 0.4444\nsamples = 3\nvalue = [ 2.  1.]", shape="box"] ;
81 -> 82 ;
83 [label="gini = 0.0000\nsamples = 1\nvalue = [ 1.  0.]", shape="box"] ;
81 -> 83 ;
84 [label="gini = 0.5000\nsamples = 2\nvalue = [ 1.  1.]", shape="box"] ;
80 -> 84 ;
85 [label="X[1] <= 2.0000\ngini = 0.5\nsamples = 8", shape="box"] ;
79 -> 85 ;
86 [label="X[0] <= 91.5000\ngini = 0.489795918367\nsamples = 7", shape="box"] ;
85 -> 86 ;
87 [label="gini = 0.5000\nsamples = 4\nvalue = [ 2.  2.]", shape="box"] ;
86 -> 87 ;
88 [label="gini = 0.4444\nsamples = 3\nvalue = [ 2.  1.]", shape="box"] ;
86 -> 88 ;
89 [label="gini = 0.0000\nsamples = 1\nvalue = [ 0.  1.]", shape="box"] ;
85 -> 89 ;
90 [label="gini = 0.3750\nsamples = 4\nvalue = [ 3.  1.]", shape="box"] ;
78 -> 90 ;
91 [label="gini = 0.0000\nsamples = 4\nvalue = [ 4.  0.]", shape="box"] ;
67 -> 91 ;
92 [label="X[1] <= 36.5000\ngini = 0.0758310249307\nsamples = 152", shape="box"] ;
66 -> 92 ;
93 [label="X[0] <= 85.5000\ngini = 0.233747260774\nsamples = 37", shape="box"] ;
92 -> 93 ;
94 [label="X[0] <= 83.5000\ngini = 0.444444444444\nsamples = 9", shape="box"] ;
93 -> 94 ;
95 [label="gini = 0.0000\nsamples = 3\nvalue = [ 0.  3.]", shape="box"] ;
94 -> 95 ;
96 [label="X[1] <= 17.0000\ngini = 0.5\nsamples = 6", shape="box"] ;
94 -> 96 ;
97 [label="gini = 0.0000\nsamples = 1\nvalue = [ 0.  1.]", shape="box"] ;
96 -> 97 ;
98 [label="X[1] <= 26.0000\ngini = 0.48\nsamples = 5", shape="box"] ;
96 -> 98 ;
99 [label="gini = 0.0000\nsamples = 1\nvalue = [ 1.  0.]", shape="box"] ;
98 -> 99 ;
100 [label="X[1] <= 35.5000\ngini = 0.5\nsamples = 4", shape="box"] ;
98 -> 100 ;
101 [label="X[1] <= 34.0000\ngini = 0.444444444444\nsamples = 3", shape="box"] ;
100 -> 101 ;
102 [label="X[0] <= 84.5000\ngini = 0.5\nsamples = 2", shape="box"] ;
101 -> 102 ;
103 [label="gini = 0.0000\nsamples = 1\nvalue = [ 1.  0.]", shape="box"] ;
102 -> 103 ;
104 [label="gini = 0.0000\nsamples = 1\nvalue = [ 0.  1.]", shape="box"] ;
102 -> 104 ;
105 [label="gini = 0.0000\nsamples = 1\nvalue = [ 0.  1.]", shape="box"] ;
101 -> 105 ;
106 [label="gini = 0.0000\nsamples = 1\nvalue = [ 1.  0.]", shape="box"] ;
100 -> 106 ;
107 [label="X[1] <= 17.5000\ngini = 0.132653061224\nsamples = 28", shape="box"] ;
93 -> 107 ;
108 [label="X[1] <= 15.0000\ngini = 0.32\nsamples = 5", shape="box"] ;
107 -> 108 ;
109 [label="gini = 0.0000\nsamples = 3\nvalue = [ 0.  3.]", shape="box"] ;
108 -> 109 ;
110 [label="X[0] <= 91.0000\ngini = 0.5\nsamples = 2", shape="box"] ;
108 -> 110 ;
111 [label="gini = 0.0000\nsamples = 1\nvalue = [ 0.  1.]", shape="box"] ;
110 -> 111 ;
112 [label="gini = 0.0000\nsamples = 1\nvalue = [ 1.  0.]", shape="box"] ;
110 -> 112 ;
113 [label="X[1] <= 30.5000\ngini = 0.0831758034026\nsamples = 23", shape="box"] ;
107 -> 113 ;
114 [label="gini = 0.0000\nsamples = 14\nvalue = [  0.  14.]", shape="box"] ;
113 -> 114 ;
115 [label="X[1] <= 31.5000\ngini = 0.197530864198\nsamples = 9", shape="box"] ;
113 -> 115 ;
116 [label="X[0] <= 87.5000\ngini = 0.5\nsamples = 2", shape="box"] ;
115 -> 116 ;
117 [label="gini = 0.0000\nsamples = 1\nvalue = [ 0.  1.]", shape="box"] ;
116 -> 117 ;
118 [label="gini = 0.0000\nsamples = 1\nvalue = [ 1.  0.]", shape="box"] ;
116 -> 118 ;
119 [label="gini = 0.0000\nsamples = 7\nvalue = [ 0.  7.]", shape="box"] ;
115 -> 119 ;
120 [label="X[1] <= 53.5000\ngini = 0.0172400756144\nsamples = 115", shape="box"] ;
92 -> 120 ;
121 [label="X[1] <= 52.5000\ngini = 0.0525931336742\nsamples = 37", shape="box"] ;
120 -> 121 ;
122 [label="gini = 0.0000\nsamples = 30\nvalue = [  0.  30.]", shape="box"] ;
121 -> 122 ;
123 [label="X[0] <= 88.5000\ngini = 0.244897959184\nsamples = 7", shape="box"] ;
121 -> 123 ;
124 [label="gini = 0.0000\nsamples = 3\nvalue = [ 0.  3.]", shape="box"] ;
123 -> 124 ;
125 [label="X[0] <= 90.0000\ngini = 0.375\nsamples = 4", shape="box"] ;
123 -> 125 ;
126 [label="gini = 0.0000\nsamples = 1\nvalue = [ 1.  0.]", shape="box"] ;
125 -> 126 ;
127 [label="gini = 0.0000\nsamples = 3\nvalue = [ 0.  3.]", shape="box"] ;
125 -> 127 ;
128 [label="gini = 0.0000\nsamples = 78\nvalue = [  0.  78.]", shape="box"] ;
120 -> 128 ;
129 [label="X[1] <= 16.5000\ngini = 0.437716262976\nsamples = 238", shape="box"] ;
1 -> 129 ;
130 [label="X[0] <= 94.5000\ngini = 0.46820415879\nsamples = 115", shape="box"] ;
129 -> 130 ;
131 [label="X[1] <= 8.5000\ngini = 0.287334593573\nsamples = 46", shape="box"] ;
130 -> 131 ;
132 [label="X[1] <= 3.0000\ngini = 0.27257977285\nsamples = 43", shape="box"] ;
131 -> 132 ;
133 [label="X[1] <= 1.5000\ngini = 0.28875\nsamples = 40", shape="box"] ;
132 -> 133 ;
134 [label="gini = 0.2717\nsamples = 37\nvalue = [ 31.   6.]", shape="box"] ;
133 -> 134 ;
135 [label="gini = 0.4444\nsamples = 3\nvalue = [ 2.  1.]", shape="box"] ;
133 -> 135 ;
136 [label="gini = 0.0000\nsamples = 3\nvalue = [ 3.  0.]", shape="box"] ;
132 -> 136 ;
137 [label="X[1] <= 12.5000\ngini = 0.444444444444\nsamples = 3", shape="box"] ;
131 -> 137 ;
138 [label="gini = 0.0000\nsamples = 1\nvalue = [ 0.  1.]", shape="box"] ;
137 -> 138 ;
139 [label="gini = 0.0000\nsamples = 2\nvalue = [ 2.  0.]", shape="box"] ;
137 -> 139 ;
140 [label="X[1] <= 1.5000\ngini = 0.499894980046\nsamples = 69", shape="box"] ;
130 -> 140 ;
141 [label="X[0] <= 95.5000\ngini = 0.491278034888\nsamples = 53", shape="box"] ;
140 -> 141 ;
142 [label="gini = 0.5000\nsamples = 4\nvalue = [ 2.  2.]", shape="box"] ;
141 -> 142 ;
143 [label="X[0] <= 98.5000\ngini = 0.489795918367\nsamples = 49", shape="box"] ;
141 -> 143 ;
144 [label="X[0] <= 96.5000\ngini = 0.4921875\nsamples = 32", shape="box"] ;
143 -> 144 ;
145 [label="gini = 0.4800\nsamples = 5\nvalue = [ 3.  2.]", shape="box"] ;
144 -> 145 ;
146 [label="X[0] <= 97.5000\ngini = 0.493827160494\nsamples = 27", shape="box"] ;
144 -> 146 ;
147 [label="gini = 0.4938\nsamples = 9\nvalue = [ 5.  4.]", shape="box"] ;
146 -> 147 ;
148 [label="gini = 0.4938\nsamples = 18\nvalue = [ 10.   8.]", shape="box"] ;
146 -> 148 ;
149 [label="gini = 0.4844\nsamples = 17\nvalue = [ 10.   7.]", shape="box"] ;
143 -> 149 ;
150 [label="X[1] <= 8.5000\ngini = 0.375\nsamples = 16", shape="box"] ;
140 -> 150 ;
151 [label="X[0] <= 98.5000\ngini = 0.165289256198\nsamples = 11", shape="box"] ;
150 -> 151 ;
152 [label="X[1] <= 4.0000\ngini = 0.32\nsamples = 5", shape="box"] ;
151 -> 152 ;
153 [label="gini = 0.0000\nsamples = 2\nvalue = [ 0.  2.]", shape="box"] ;
152 -> 153 ;
154 [label="X[1] <= 6.0000\ngini = 0.444444444444\nsamples = 3", shape="box"] ;
152 -> 154 ;
155 [label="gini = 0.0000\nsamples = 1\nvalue = [ 1.  0.]", shape="box"] ;
154 -> 155 ;
156 [label="gini = 0.0000\nsamples = 2\nvalue = [ 0.  2.]", shape="box"] ;
154 -> 156 ;
157 [label="gini = 0.0000\nsamples = 6\nvalue = [ 0.  6.]", shape="box"] ;
151 -> 157 ;
158 [label="X[1] <= 10.5000\ngini = 0.48\nsamples = 5", shape="box"] ;
150 -> 158 ;
159 [label="gini = 0.0000\nsamples = 3\nvalue = [ 3.  0.]", shape="box"] ;
158 -> 159 ;
160 [label="gini = 0.0000\nsamples = 2\nvalue = [ 0.  2.]", shape="box"] ;
158 -> 160 ;
161 [label="X[1] <= 96.0000\ngini = 0.0779959019102\nsamples = 123", shape="box"] ;
129 -> 161 ;
162 [label="X[1] <= 23.5000\ngini = 0.0483573526398\nsamples = 121", shape="box"] ;
161 -> 162 ;
163 [label="X[1] <= 22.5000\ngini = 0.277777777778\nsamples = 6", shape="box"] ;
162 -> 163 ;
164 [label="gini = 0.0000\nsamples = 5\nvalue = [ 0.  5.]", shape="box"] ;
163 -> 164 ;
165 [label="gini = 0.0000\nsamples = 1\nvalue = [ 1.  0.]", shape="box"] ;
163 -> 165 ;
166 [label="X[0] <= 98.5000\ngini = 0.0341776937618\nsamples = 115", shape="box"] ;
162 -> 166 ;
167 [label="gini = 0.0000\nsamples = 85\nvalue = [  0.  85.]", shape="box"] ;
166 -> 167 ;
168 [label="X[1] <= 55.0000\ngini = 0.124444444444\nsamples = 30", shape="box"] ;
166 -> 168 ;
169 [label="X[1] <= 52.5000\ngini = 0.277777777778\nsamples = 12", shape="box"] ;
168 -> 169 ;
170 [label="X[1] <= 42.5000\ngini = 0.18\nsamples = 10", shape="box"] ;
169 -> 170 ;
171 [label="X[1] <= 40.5000\ngini = 0.32\nsamples = 5", shape="box"] ;
170 -> 171 ;
172 [label="gini = 0.0000\nsamples = 4\nvalue = [ 0.  4.]", shape="box"] ;
171 -> 172 ;
173 [label="gini = 0.0000\nsamples = 1\nvalue = [ 1.  0.]", shape="box"] ;
171 -> 173 ;
174 [label="gini = 0.0000\nsamples = 5\nvalue = [ 0.  5.]", shape="box"] ;
170 -> 174 ;
175 [label="gini = 0.5000\nsamples = 2\nvalue = [ 1.  1.]", shape="box"] ;
169 -> 175 ;
176 [label="gini = 0.0000\nsamples = 18\nvalue = [  0.  18.]", shape="box"] ;
168 -> 176 ;
177 [label="gini = 0.0000\nsamples = 2\nvalue = [ 2.  0.]", shape="box"] ;
161 -> 177 ;
178 [label="X[1] <= 19.5000\ngini = 0.354681015561\nsamples = 1189", shape="box"] ;
0 -> 178 ;
179 [label="X[1] <= 10.5000\ngini = 0.132518637316\nsamples = 911", shape="box"] ;
178 -> 179 ;
180 [label="X[1] <= 7.5000\ngini = 0.119173553719\nsamples = 880", shape="box"] ;
179 -> 180 ;
181 [label="X[1] <= 5.5000\ngini = 0.124169915539\nsamples = 842", shape="box"] ;
180 -> 181 ;
182 [label="X[1] <= 1.5000\ngini = 0.1171875\nsamples = 816", shape="box"] ;
181 -> 182 ;
183 [label="gini = 0.1312\nsamples = 694\nvalue = [ 645.   49.]", shape="box"] ;
182 -> 183 ;
184 [label="X[1] <= 2.5000\ngini = 0.0322493953238\nsamples = 122", shape="box"] ;
182 -> 184 ;
185 [label="gini = 0.0000\nsamples = 42\nvalue = [ 42.   0.]", shape="box"] ;
184 -> 185 ;
186 [label="X[1] <= 3.5000\ngini = 0.04875\nsamples = 80", shape="box"] ;
184 -> 186 ;
187 [label="gini = 0.0689\nsamples = 28\nvalue = [ 27.   1.]", shape="box"] ;
186 -> 187 ;
188 [label="X[1] <= 4.5000\ngini = 0.0377218934911\nsamples = 52", shape="box"] ;
186 -> 188 ;
189 [label="gini = 0.0000\nsamples = 16\nvalue = [ 16.   0.]", shape="box"] ;
188 -> 189 ;
190 [label="gini = 0.0540\nsamples = 36\nvalue = [ 35.   1.]", shape="box"] ;
188 -> 190 ;
191 [label="X[1] <= 6.5000\ngini = 0.310650887574\nsamples = 26", shape="box"] ;
181 -> 191 ;
192 [label="gini = 0.3457\nsamples = 9\nvalue = [ 7.  2.]", shape="box"] ;
191 -> 192 ;
193 [label="gini = 0.2907\nsamples = 17\nvalue = [ 14.   3.]", shape="box"] ;
191 -> 193 ;
194 [label="gini = 0.0000\nsamples = 38\nvalue = [ 38.   0.]", shape="box"] ;
180 -> 194 ;
195 [label="X[1] <= 11.5000\ngini = 0.412070759625\nsamples = 31", shape="box"] ;
179 -> 195 ;
196 [label="gini = 0.5000\nsamples = 4\nvalue = [ 2.  2.]", shape="box"] ;
195 -> 196 ;
197 [label="X[1] <= 18.5000\ngini = 0.384087791495\nsamples = 27", shape="box"] ;
195 -> 197 ;
198 [label="X[1] <= 16.5000\ngini = 0.39349112426\nsamples = 26", shape="box"] ;
197 -> 198 ;
199 [label="X[1] <= 15.5000\ngini = 0.408163265306\nsamples = 21", shape="box"] ;
198 -> 199 ;
200 [label="X[1] <= 12.5000\ngini = 0.401234567901\nsamples = 18", shape="box"] ;
199 -> 200 ;
201 [label="gini = 0.3750\nsamples = 4\nvalue = [ 3.  1.]", shape="box"] ;
200 -> 201 ;
202 [label="X[1] <= 13.5000\ngini = 0.408163265306\nsamples = 14", shape="box"] ;
200 -> 202 ;
203 [label="gini = 0.4444\nsamples = 3\nvalue = [ 2.  1.]", shape="box"] ;
202 -> 203 ;
204 [label="X[1] <= 14.5000\ngini = 0.396694214876\nsamples = 11", shape="box"] ;
202 -> 204 ;
205 [label="gini = 0.3750\nsamples = 4\nvalue = [ 3.  1.]", shape="box"] ;
204 -> 205 ;
206 [label="gini = 0.4082\nsamples = 7\nvalue = [ 5.  2.]", shape="box"] ;
204 -> 206 ;
207 [label="gini = 0.4444\nsamples = 3\nvalue = [ 2.  1.]", shape="box"] ;
199 -> 207 ;
208 [label="X[1] <= 17.5000\ngini = 0.32\nsamples = 5", shape="box"] ;
198 -> 208 ;
209 [label="gini = 0.0000\nsamples = 2\nvalue = [ 2.  0.]", shape="box"] ;
208 -> 209 ;
210 [label="gini = 0.4444\nsamples = 3\nvalue = [ 2.  1.]", shape="box"] ;
208 -> 210 ;
211 [label="gini = 0.0000\nsamples = 1\nvalue = [ 1.  0.]", shape="box"] ;
197 -> 211 ;
212 [label="X[1] <= 98.5000\ngini = 0.373194969204\nsamples = 278", shape="box"] ;
178 -> 212 ;
213 [label="X[1] <= 30.5000\ngini = 0.114114769849\nsamples = 214", shape="box"] ;
212 -> 213 ;
214 [label="X[1] <= 29.5000\ngini = 0.391111111111\nsamples = 30", shape="box"] ;
213 -> 214 ;
215 [label="X[1] <= 27.5000\ngini = 0.336734693878\nsamples = 28", shape="box"] ;
214 -> 215 ;
216 [label="X[1] <= 22.5000\ngini = 0.42\nsamples = 20", shape="box"] ;
215 -> 216 ;
217 [label="X[1] <= 20.5000\ngini = 0.197530864198\nsamples = 9", shape="box"] ;
216 -> 217 ;
218 [label="gini = 0.3750\nsamples = 4\nvalue = [ 1.  3.]", shape="box"] ;
217 -> 218 ;
219 [label="gini = 0.0000\nsamples = 5\nvalue = [ 0.  5.]", shape="box"] ;
217 -> 219 ;
220 [label="X[1] <= 24.5000\ngini = 0.495867768595\nsamples = 11", shape="box"] ;
216 -> 220 ;
221 [label="X[1] <= 23.5000\ngini = 0.375\nsamples = 4", shape="box"] ;
220 -> 221 ;
222 [label="gini = 0.4444\nsamples = 3\nvalue = [ 2.  1.]", shape="box"] ;
221 -> 222 ;
223 [label="gini = 0.0000\nsamples = 1\nvalue = [ 1.  0.]", shape="box"] ;
221 -> 223 ;
224 [label="X[1] <= 25.5000\ngini = 0.408163265306\nsamples = 7", shape="box"] ;
220 -> 224 ;
225 [label="gini = 0.0000\nsamples = 3\nvalue = [ 0.  3.]", shape="box"] ;
224 -> 225 ;
226 [label="X[1] <= 26.5000\ngini = 0.5\nsamples = 4", shape="box"] ;
224 -> 226 ;
227 [label="gini = 0.0000\nsamples = 1\nvalue = [ 1.  0.]", shape="box"] ;
226 -> 227 ;
228 [label="gini = 0.4444\nsamples = 3\nvalue = [ 1.  2.]", shape="box"] ;
226 -> 228 ;
229 [label="gini = 0.0000\nsamples = 8\nvalue = [ 0.  8.]", shape="box"] ;
215 -> 229 ;
230 [label="gini = 0.0000\nsamples = 2\nvalue = [ 2.  0.]", shape="box"] ;
214 -> 230 ;
231 [label="X[1] <= 88.5000\ngini = 0.0528709829868\nsamples = 184", shape="box"] ;
213 -> 231 ;
232 [label="X[1] <= 56.5000\ngini = 0.0344721452755\nsamples = 171", shape="box"] ;
231 -> 232 ;
233 [label="X[1] <= 55.5000\ngini = 0.0777940102264\nsamples = 74", shape="box"] ;
232 -> 233 ;
234 [label="X[1] <= 36.5000\ngini = 0.0281632653061\nsamples = 70", shape="box"] ;
233 -> 234 ;
235 [label="X[1] <= 35.5000\ngini = 0.132653061224\nsamples = 14", shape="box"] ;
234 -> 235 ;
236 [label="gini = 0.0000\nsamples = 9\nvalue = [ 0.  9.]", shape="box"] ;
235 -> 236 ;
237 [label="gini = 0.3200\nsamples = 5\nvalue = [ 1.  4.]", shape="box"] ;
235 -> 237 ;
238 [label="gini = 0.0000\nsamples = 56\nvalue = [  0.  56.]", shape="box"] ;
234 -> 238 ;
239 [label="gini = 0.5000\nsamples = 4\nvalue = [ 2.  2.]", shape="box"] ;
233 -> 239 ;
240 [label="gini = 0.0000\nsamples = 97\nvalue = [  0.  97.]", shape="box"] ;
232 -> 240 ;
241 [label="X[1] <= 91.5000\ngini = 0.260355029586\nsamples = 13", shape="box"] ;
231 -> 241 ;
242 [label="X[1] <= 90.0000\ngini = 0.444444444444\nsamples = 6", shape="box"] ;
241 -> 242 ;
243 [label="gini = 0.4444\nsamples = 3\nvalue = [ 1.  2.]", shape="box"] ;
242 -> 243 ;
244 [label="gini = 0.4444\nsamples = 3\nvalue = [ 1.  2.]", shape="box"] ;
242 -> 244 ;
245 [label="gini = 0.0000\nsamples = 7\nvalue = [ 0.  7.]", shape="box"] ;
241 -> 245 ;
246 [label="X[1] <= 99.5000\ngini = 0.21875\nsamples = 64", shape="box"] ;
212 -> 246 ;
247 [label="gini = 0.0000\nsamples = 1\nvalue = [ 1.  0.]", shape="box"] ;
246 -> 247 ;
248 [label="gini = 0.2217\nsamples = 63\nvalue = [ 55.   8.]", shape="box"] ;
246 -> 248 ;
}