digraph Tree {
0 [label="X[0] <= 99.5000\nentropy = 0.981424056555\nsamples = 2498", shape="box"] ;
1 [label="X[1] <= 19.5000\nentropy = 0.468508472738\nsamples = 1302", shape="box"] ;
0 -> 1 ;
2 [label="X[0] <= 23.0000\nentropy = 0.725276731302\nsamples = 595", shape="box"] ;
1 -> 2 ;
3 [label="X[0] <= 0.0000\nentropy = 0.103049551051\nsamples = 371", shape="box"] ;
2 -> 3 ;
4 [label="entropy = 0.0000\nsamples = 326\nvalue = [   0.  326.]", shape="box"] ;
3 -> 4 ;
5 [label="X[1] <= 4.0000\nentropy = 0.503258334776\nsamples = 45", shape="box"] ;
3 -> 5 ;
6 [label="X[0] <= 2.5000\nentropy = 0.581321498764\nsamples = 36", shape="box"] ;
5 -> 6 ;
7 [label="entropy = 0.6374\nsamples = 31\nvalue = [  5.  26.]", shape="box"] ;
6 -> 7 ;
8 [label="entropy = 0.0000\nsamples = 5\nvalue = [ 0.  5.]", shape="box"] ;
6 -> 8 ;
9 [label="entropy = 0.0000\nsamples = 9\nvalue = [ 0.  9.]", shape="box"] ;
5 -> 9 ;
10 [label="X[1] <= 10.5000\nentropy = 0.99948238965\nsamples = 224", shape="box"] ;
2 -> 10 ;
11 [label="X[0] <= 86.5000\nentropy = 0.99125400717\nsamples = 200", shape="box"] ;
10 -> 11 ;
12 [label="X[0] <= 49.5000\nentropy = 0.970950594455\nsamples = 55", shape="box"] ;
11 -> 12 ;
13 [label="X[0] <= 28.0000\nentropy = 0.863120568567\nsamples = 7", shape="box"] ;
12 -> 13 ;
14 [label="X[1] <= 5.5000\nentropy = 0.918295834054\nsamples = 3", shape="box"] ;
13 -> 14 ;
15 [label="entropy = 0.0000\nsamples = 2\nvalue = [ 0.  2.]", shape="box"] ;
14 -> 15 ;
16 [label="entropy = 0.0000\nsamples = 1\nvalue = [ 1.  0.]", shape="box"] ;
14 -> 16 ;
17 [label="entropy = 0.0000\nsamples = 4\nvalue = [ 4.  0.]", shape="box"] ;
13 -> 17 ;
18 [label="X[0] <= 53.5000\nentropy = 0.937734293987\nsamples = 48", shape="box"] ;
12 -> 18 ;
19 [label="entropy = 0.0000\nsamples = 4\nvalue = [ 0.  4.]", shape="box"] ;
18 -> 19 ;
20 [label="X[0] <= 55.5000\nentropy = 0.962412735463\nsamples = 44", shape="box"] ;
18 -> 20 ;
21 [label="entropy = 0.0000\nsamples = 2\nvalue = [ 2.  0.]", shape="box"] ;
20 -> 21 ;
22 [label="X[0] <= 65.5000\nentropy = 0.940285958671\nsamples = 42", shape="box"] ;
20 -> 22 ;
23 [label="X[1] <= 5.5000\nentropy = 0.721928094887\nsamples = 10", shape="box"] ;
22 -> 23 ;
24 [label="X[0] <= 59.5000\nentropy = 0.503258334776\nsamples = 9", shape="box"] ;
23 -> 24 ;
25 [label="X[0] <= 58.0000\nentropy = 0.918295834054\nsamples = 3", shape="box"] ;
24 -> 25 ;
26 [label="entropy = 0.0000\nsamples = 1\nvalue = [ 0.  1.]", shape="box"] ;
25 -> 26 ;
27 [label="entropy = 1.0000\nsamples = 2\nvalue = [ 1.  1.]", shape="box"] ;
25 -> 27 ;
28 [label="entropy = 0.0000\nsamples = 6\nvalue = [ 0.  6.]", shape="box"] ;
24 -> 28 ;
29 [label="entropy = 0.0000\nsamples = 1\nvalue = [ 1.  0.]", shape="box"] ;
23 -> 29 ;
30 [label="X[0] <= 83.5000\nentropy = 0.974489403398\nsamples = 32", shape="box"] ;
22 -> 30 ;
31 [label="X[0] <= 82.5000\nentropy = 0.995727452085\nsamples = 26", shape="box"] ;
30 -> 31 ;
32 [label="X[0] <= 66.5000\nentropy = 0.979868756651\nsamples = 24", shape="box"] ;
31 -> 32 ;
33 [label="entropy = 0.0000\nsamples = 1\nvalue = [ 1.  0.]", shape="box"] ;
32 -> 33 ;
34 [label="X[1] <= 2.5000\nentropy = 0.965636133371\nsamples = 23", shape="box"] ;
32 -> 34 ;
35 [label="X[0] <= 71.5000\nentropy = 0.934068055375\nsamples = 20", shape="box"] ;
34 -> 35 ;
36 [label="entropy = 0.0000\nsamples = 3\nvalue = [ 0.  3.]", shape="box"] ;
35 -> 36 ;
37 [label="X[0] <= 79.5000\nentropy = 0.977417817528\nsamples = 17", shape="box"] ;
35 -> 37 ;
38 [label="X[0] <= 78.0000\nentropy = 0.954434002925\nsamples = 16", shape="box"] ;
37 -> 38 ;
39 [label="X[1] <= 1.5000\nentropy = 0.995727452085\nsamples = 13", shape="box"] ;
38 -> 39 ;
40 [label="X[0] <= 74.5000\nentropy = 0.979868756651\nsamples = 12", shape="box"] ;
39 -> 40 ;
41 [label="X[0] <= 73.5000\nentropy = 0.863120568567\nsamples = 7", shape="box"] ;
40 -> 41 ;
42 [label="entropy = 0.8113\nsamples = 4\nvalue = [ 1.  3.]", shape="box"] ;
41 -> 42 ;
43 [label="entropy = 0.9183\nsamples = 3\nvalue = [ 1.  2.]", shape="box"] ;
41 -> 43 ;
44 [label="X[0] <= 75.5000\nentropy = 0.970950594455\nsamples = 5", shape="box"] ;
40 -> 44 ;
45 [label="entropy = 0.0000\nsamples = 1\nvalue = [ 1.  0.]", shape="box"] ;
44 -> 45 ;
46 [label="X[0] <= 76.5000\nentropy = 1.0\nsamples = 4", shape="box"] ;
44 -> 46 ;
47 [label="entropy = 1.0000\nsamples = 2\nvalue = [ 1.  1.]", shape="box"] ;
46 -> 47 ;
48 [label="entropy = 1.0000\nsamples = 2\nvalue = [ 1.  1.]", shape="box"] ;
46 -> 48 ;
49 [label="entropy = 0.0000\nsamples = 1\nvalue = [ 1.  0.]", shape="box"] ;
39 -> 49 ;
50 [label="entropy = 0.0000\nsamples = 3\nvalue = [ 0.  3.]", shape="box"] ;
38 -> 50 ;
51 [label="entropy = 0.0000\nsamples = 1\nvalue = [ 1.  0.]", shape="box"] ;
37 -> 51 ;
52 [label="X[1] <= 6.5000\nentropy = 0.918295834054\nsamples = 3", shape="box"] ;
34 -> 52 ;
53 [label="entropy = 0.0000\nsamples = 2\nvalue = [ 2.  0.]", shape="box"] ;
52 -> 53 ;
54 [label="entropy = 0.0000\nsamples = 1\nvalue = [ 0.  1.]", shape="box"] ;
52 -> 54 ;
55 [label="entropy = 0.0000\nsamples = 2\nvalue = [ 2.  0.]", shape="box"] ;
31 -> 55 ;
56 [label="X[0] <= 85.5000\nentropy = 0.650022421648\nsamples = 6", shape="box"] ;
30 -> 56 ;
57 [label="entropy = 0.0000\nsamples = 4\nvalue = [ 0.  4.]", shape="box"] ;
56 -> 57 ;
58 [label="X[1] <= 2.5000\nentropy = 1.0\nsamples = 2", shape="box"] ;
56 -> 58 ;
59 [label="entropy = 0.0000\nsamples = 1\nvalue = [ 1.  0.]", shape="box"] ;
58 -> 59 ;
60 [label="entropy = 0.0000\nsamples = 1\nvalue = [ 0.  1.]", shape="box"] ;
58 -> 60 ;
61 [label="X[0] <= 94.5000\nentropy = 0.962308048696\nsamples = 145", shape="box"] ;
11 -> 61 ;
62 [label="X[0] <= 93.5000\nentropy = 0.863120568567\nsamples = 77", shape="box"] ;
61 -> 62 ;
63 [label="X[1] <= 4.5000\nentropy = 0.985228136034\nsamples = 35", shape="box"] ;
62 -> 63 ;
64 [label="X[0] <= 87.5000\nentropy = 1.0\nsamples = 30", shape="box"] ;
63 -> 64 ;
65 [label="entropy = 0.0000\nsamples = 1\nvalue = [ 1.  0.]", shape="box"] ;
64 -> 65 ;
66 [label="X[0] <= 92.5000\nentropy = 0.999142103992\nsamples = 29", shape="box"] ;
64 -> 66 ;
67 [label="X[0] <= 90.5000\nentropy = 0.994984828186\nsamples = 24", shape="box"] ;
66 -> 67 ;
68 [label="X[0] <= 89.5000\nentropy = 0.996791631982\nsamples = 15", shape="box"] ;
67 -> 68 ;
69 [label="X[0] <= 88.5000\nentropy = 0.991076059838\nsamples = 9", shape="box"] ;
68 -> 69 ;
70 [label="entropy = 0.9852\nsamples = 7\nvalue = [ 4.  3.]", shape="box"] ;
69 -> 70 ;
71 [label="entropy = 0.0000\nsamples = 2\nvalue = [ 0.  2.]", shape="box"] ;
69 -> 71 ;
72 [label="X[1] <= 3.5000\nentropy = 0.918295834054\nsamples = 6", shape="box"] ;
68 -> 72 ;
73 [label="X[1] <= 2.0000\nentropy = 0.811278124459\nsamples = 4", shape="box"] ;
72 -> 73 ;
74 [label="entropy = 0.9183\nsamples = 3\nvalue = [ 2.  1.]", shape="box"] ;
73 -> 74 ;
75 [label="entropy = 0.0000\nsamples = 1\nvalue = [ 1.  0.]", shape="box"] ;
73 -> 75 ;
76 [label="entropy = 1.0000\nsamples = 2\nvalue = [ 1.  1.]", shape="box"] ;
72 -> 76 ;
77 [label="X[1] <= 2.0000\nentropy = 0.918295834054\nsamples = 9", shape="box"] ;
67 -> 77 ;
78 [label="X[0] <= 91.5000\nentropy = 0.954434002925\nsamples = 8", shape="box"] ;
77 -> 78 ;
79 [label="entropy = 0.8113\nsamples = 4\nvalue = [ 1.  3.]", shape="box"] ;
78 -> 79 ;
80 [label="entropy = 1.0000\nsamples = 4\nvalue = [ 2.  2.]", shape="box"] ;
78 -> 80 ;
81 [label="entropy = 0.0000\nsamples = 1\nvalue = [ 0.  1.]", shape="box"] ;
77 -> 81 ;
82 [label="X[1] <= 2.5000\nentropy = 0.970950594455\nsamples = 5", shape="box"] ;
66 -> 82 ;
83 [label="entropy = 0.8113\nsamples = 4\nvalue = [ 3.  1.]", shape="box"] ;
82 -> 83 ;
84 [label="entropy = 0.0000\nsamples = 1\nvalue = [ 0.  1.]", shape="box"] ;
82 -> 84 ;
85 [label="entropy = 0.0000\nsamples = 5\nvalue = [ 5.  0.]", shape="box"] ;
63 -> 85 ;
86 [label="X[1] <= 3.0000\nentropy = 0.650022421648\nsamples = 42", shape="box"] ;
62 -> 86 ;
87 [label="X[1] <= 1.5000\nentropy = 0.669015835057\nsamples = 40", shape="box"] ;
86 -> 87 ;
88 [label="entropy = 0.6395\nsamples = 37\nvalue = [ 31.   6.]", shape="box"] ;
87 -> 88 ;
89 [label="entropy = 0.9183\nsamples = 3\nvalue = [ 2.  1.]", shape="box"] ;
87 -> 89 ;
90 [label="entropy = 0.0000\nsamples = 2\nvalue = [ 2.  0.]", shape="box"] ;
86 -> 90 ;
91 [label="X[1] <= 1.5000\nentropy = 1.0\nsamples = 68", shape="box"] ;
61 -> 91 ;
92 [label="X[0] <= 96.5000\nentropy = 0.987380023288\nsamples = 53", shape="box"] ;
91 -> 92 ;
93 [label="X[0] <= 95.5000\nentropy = 1.0\nsamples = 8", shape="box"] ;
92 -> 93 ;
94 [label="entropy = 1.0000\nsamples = 4\nvalue = [ 2.  2.]", shape="box"] ;
93 -> 94 ;
95 [label="entropy = 1.0000\nsamples = 4\nvalue = [ 2.  2.]", shape="box"] ;
93 -> 95 ;
96 [label="X[0] <= 97.5000\nentropy = 0.982474086839\nsamples = 45", shape="box"] ;
92 -> 96 ;
97 [label="entropy = 0.9911\nsamples = 9\nvalue = [ 5.  4.]", shape="box"] ;
96 -> 97 ;
98 [label="X[0] <= 98.5000\nentropy = 0.979868756651\nsamples = 36", shape="box"] ;
96 -> 98 ;
99 [label="entropy = 0.9774\nsamples = 17\nvalue = [ 10.   7.]", shape="box"] ;
98 -> 99 ;
100 [label="entropy = 0.9819\nsamples = 19\nvalue = [ 11.   8.]", shape="box"] ;
98 -> 100 ;
101 [label="X[1] <= 8.5000\nentropy = 0.836640741941\nsamples = 15", shape="box"] ;
91 -> 101 ;
102 [label="X[0] <= 98.5000\nentropy = 0.413816850304\nsamples = 12", shape="box"] ;
101 -> 102 ;
103 [label="X[1] <= 4.0000\nentropy = 0.650022421648\nsamples = 6", shape="box"] ;
102 -> 103 ;
104 [label="entropy = 0.0000\nsamples = 2\nvalue = [ 0.  2.]", shape="box"] ;
103 -> 104 ;
105 [label="X[1] <= 6.0000\nentropy = 0.811278124459\nsamples = 4", shape="box"] ;
103 -> 105 ;
106 [label="entropy = 1.0000\nsamples = 2\nvalue = [ 1.  1.]", shape="box"] ;
105 -> 106 ;
107 [label="entropy = 0.0000\nsamples = 2\nvalue = [ 0.  2.]", shape="box"] ;
105 -> 107 ;
108 [label="entropy = 0.0000\nsamples = 6\nvalue = [ 0.  6.]", shape="box"] ;
102 -> 108 ;
109 [label="entropy = 0.0000\nsamples = 3\nvalue = [ 3.  0.]", shape="box"] ;
101 -> 109 ;
110 [label="X[0] <= 84.5000\nentropy = 0.650022421648\nsamples = 24", shape="box"] ;
10 -> 110 ;
111 [label="entropy = 0.0000\nsamples = 9\nvalue = [ 0.  9.]", shape="box"] ;
110 -> 111 ;
112 [label="X[1] <= 12.5000\nentropy = 0.836640741941\nsamples = 15", shape="box"] ;
110 -> 112 ;
113 [label="entropy = 0.0000\nsamples = 4\nvalue = [ 0.  4.]", shape="box"] ;
112 -> 113 ;
114 [label="X[0] <= 96.0000\nentropy = 0.945660304601\nsamples = 11", shape="box"] ;
112 -> 114 ;
115 [label="X[0] <= 86.5000\nentropy = 1.0\nsamples = 8", shape="box"] ;
114 -> 115 ;
116 [label="entropy = 0.0000\nsamples = 1\nvalue = [ 1.  0.]", shape="box"] ;
115 -> 116 ;
117 [label="X[0] <= 91.0000\nentropy = 0.985228136034\nsamples = 7", shape="box"] ;
115 -> 117 ;
118 [label="entropy = 0.0000\nsamples = 2\nvalue = [ 0.  2.]", shape="box"] ;
117 -> 118 ;
119 [label="X[1] <= 16.5000\nentropy = 0.970950594455\nsamples = 5", shape="box"] ;
117 -> 119 ;
120 [label="X[0] <= 93.5000\nentropy = 0.811278124459\nsamples = 4", shape="box"] ;
119 -> 120 ;
121 [label="X[1] <= 15.0000\nentropy = 1.0\nsamples = 2", shape="box"] ;
120 -> 121 ;
122 [label="entropy = 0.0000\nsamples = 1\nvalue = [ 0.  1.]", shape="box"] ;
121 -> 122 ;
123 [label="entropy = 0.0000\nsamples = 1\nvalue = [ 1.  0.]", shape="box"] ;
121 -> 123 ;
124 [label="entropy = 0.0000\nsamples = 2\nvalue = [ 2.  0.]", shape="box"] ;
120 -> 124 ;
125 [label="entropy = 0.0000\nsamples = 1\nvalue = [ 0.  1.]", shape="box"] ;
119 -> 125 ;
126 [label="entropy = 0.0000\nsamples = 3\nvalue = [ 0.  3.]", shape="box"] ;
114 -> 126 ;
127 [label="X[0] <= 83.5000\nentropy = 0.107158160794\nsamples = 707", shape="box"] ;
1 -> 127 ;
128 [label="X[0] <= 25.5000\nentropy = 0.0407439224686\nsamples = 455", shape="box"] ;
127 -> 128 ;
129 [label="entropy = 0.0000\nsamples = 204\nvalue = [   0.  204.]", shape="box"] ;
128 -> 129 ;
130 [label="X[0] <= 26.5000\nentropy = 0.0669998046083\nsamples = 251", shape="box"] ;
128 -> 130 ;
131 [label="X[1] <= 61.0000\nentropy = 1.0\nsamples = 2", shape="box"] ;
130 -> 131 ;
132 [label="entropy = 0.0000\nsamples = 1\nvalue = [ 1.  0.]", shape="box"] ;
131 -> 132 ;
133 [label="entropy = 0.0000\nsamples = 1\nvalue = [ 0.  1.]", shape="box"] ;
131 -> 133 ;
134 [label="X[1] <= 80.5000\nentropy = 0.0377501851767\nsamples = 249", shape="box"] ;
130 -> 134 ;
135 [label="entropy = 0.0000\nsamples = 202\nvalue = [   0.  202.]", shape="box"] ;
134 -> 135 ;
136 [label="X[1] <= 81.5000\nentropy = 0.14854949043\nsamples = 47", shape="box"] ;
134 -> 136 ;
137 [label="X[0] <= 62.5000\nentropy = 0.591672778582\nsamples = 7", shape="box"] ;
136 -> 137 ;
138 [label="entropy = 0.0000\nsamples = 5\nvalue = [ 0.  5.]", shape="box"] ;
137 -> 138 ;
139 [label="X[0] <= 71.5000\nentropy = 1.0\nsamples = 2", shape="box"] ;
137 -> 139 ;
140 [label="entropy = 0.0000\nsamples = 1\nvalue = [ 1.  0.]", shape="box"] ;
139 -> 140 ;
141 [label="entropy = 0.0000\nsamples = 1\nvalue = [ 0.  1.]", shape="box"] ;
139 -> 141 ;
142 [label="entropy = 0.0000\nsamples = 40\nvalue = [  0.  40.]", shape="box"] ;
136 -> 142 ;
143 [label="X[1] <= 96.0000\nentropy = 0.203073929987\nsamples = 252", shape="box"] ;
127 -> 143 ;
144 [label="X[1] <= 53.5000\nentropy = 0.163860512869\nsamples = 249", shape="box"] ;
143 -> 144 ;
145 [label="X[1] <= 52.5000\nentropy = 0.305400570879\nsamples = 110", shape="box"] ;
144 -> 145 ;
146 [label="X[1] <= 41.5000\nentropy = 0.242292189082\nsamples = 100", shape="box"] ;
145 -> 146 ;
147 [label="X[0] <= 85.5000\nentropy = 0.380946585705\nsamples = 54", shape="box"] ;
146 -> 147 ;
148 [label="X[1] <= 36.5000\nentropy = 0.970950594455\nsamples = 5", shape="box"] ;
147 -> 148 ;
149 [label="X[1] <= 35.5000\nentropy = 1.0\nsamples = 4", shape="box"] ;
148 -> 149 ;
150 [label="X[1] <= 34.0000\nentropy = 0.918295834054\nsamples = 3", shape="box"] ;
149 -> 150 ;
151 [label="X[0] <= 84.5000\nentropy = 1.0\nsamples = 2", shape="box"] ;
150 -> 151 ;
152 [label="entropy = 0.0000\nsamples = 1\nvalue = [ 1.  0.]", shape="box"] ;
151 -> 152 ;
153 [label="entropy = 0.0000\nsamples = 1\nvalue = [ 0.  1.]", shape="box"] ;
151 -> 153 ;
154 [label="entropy = 0.0000\nsamples = 1\nvalue = [ 0.  1.]", shape="box"] ;
150 -> 154 ;
155 [label="entropy = 0.0000\nsamples = 1\nvalue = [ 1.  0.]", shape="box"] ;
149 -> 155 ;
156 [label="entropy = 0.0000\nsamples = 1\nvalue = [ 0.  1.]", shape="box"] ;
148 -> 156 ;
157 [label="X[1] <= 40.5000\nentropy = 0.24602257822\nsamples = 49", shape="box"] ;
147 -> 157 ;
158 [label="X[0] <= 88.5000\nentropy = 0.14854949043\nsamples = 47", shape="box"] ;
157 -> 158 ;
159 [label="X[1] <= 30.5000\nentropy = 0.413816850304\nsamples = 12", shape="box"] ;
158 -> 159 ;
160 [label="entropy = 0.0000\nsamples = 7\nvalue = [ 0.  7.]", shape="box"] ;
159 -> 160 ;
161 [label="X[1] <= 33.5000\nentropy = 0.721928094887\nsamples = 5", shape="box"] ;
159 -> 161 ;
162 [label="X[0] <= 87.5000\nentropy = 1.0\nsamples = 2", shape="box"] ;
161 -> 162 ;
163 [label="entropy = 0.0000\nsamples = 1\nvalue = [ 0.  1.]", shape="box"] ;
162 -> 163 ;
164 [label="entropy = 0.0000\nsamples = 1\nvalue = [ 1.  0.]", shape="box"] ;
162 -> 164 ;
165 [label="entropy = 0.0000\nsamples = 3\nvalue = [ 0.  3.]", shape="box"] ;
161 -> 165 ;
166 [label="entropy = 0.0000\nsamples = 35\nvalue = [  0.  35.]", shape="box"] ;
158 -> 166 ;
167 [label="X[0] <= 94.0000\nentropy = 1.0\nsamples = 2", shape="box"] ;
157 -> 167 ;
168 [label="entropy = 0.0000\nsamples = 1\nvalue = [ 0.  1.]", shape="box"] ;
167 -> 168 ;
169 [label="entropy = 0.0000\nsamples = 1\nvalue = [ 1.  0.]", shape="box"] ;
167 -> 169 ;
170 [label="entropy = 0.0000\nsamples = 46\nvalue = [  0.  46.]", shape="box"] ;
146 -> 170 ;
171 [label="X[0] <= 88.5000\nentropy = 0.721928094887\nsamples = 10", shape="box"] ;
145 -> 171 ;
172 [label="entropy = 0.0000\nsamples = 3\nvalue = [ 0.  3.]", shape="box"] ;
171 -> 172 ;
173 [label="X[0] <= 90.0000\nentropy = 0.863120568567\nsamples = 7", shape="box"] ;
171 -> 173 ;
174 [label="entropy = 0.0000\nsamples = 1\nvalue = [ 1.  0.]", shape="box"] ;
173 -> 174 ;
175 [label="X[0] <= 96.0000\nentropy = 0.650022421648\nsamples = 6", shape="box"] ;
173 -> 175 ;
176 [label="entropy = 0.0000\nsamples = 4\nvalue = [ 0.  4.]", shape="box"] ;
175 -> 176 ;
177 [label="entropy = 1.0000\nsamples = 2\nvalue = [ 1.  1.]", shape="box"] ;
175 -> 177 ;
178 [label="entropy = 0.0000\nsamples = 139\nvalue = [   0.  139.]", shape="box"] ;
144 -> 178 ;
179 [label="X[0] <= 90.0000\nentropy = 0.918295834054\nsamples = 3", shape="box"] ;
143 -> 179 ;
180 [label="entropy = 0.0000\nsamples = 1\nvalue = [ 0.  1.]", shape="box"] ;
179 -> 180 ;
181 [label="entropy = 0.0000\nsamples = 2\nvalue = [ 2.  0.]", shape="box"] ;
179 -> 181 ;
182 [label="X[1] <= 19.5000\nentropy = 0.780799311213\nsamples = 1196", shape="box"] ;
0 -> 182 ;
183 [label="X[1] <= 10.5000\nentropy = 0.358067753162\nsamples = 913", shape="box"] ;
182 -> 183 ;
184 [label="X[1] <= 7.5000\nentropy = 0.331740826483\nsamples = 884", shape="box"] ;
183 -> 184 ;
185 [label="X[1] <= 5.5000\nentropy = 0.342463772482\nsamples = 846", shape="box"] ;
184 -> 185 ;
186 [label="X[1] <= 1.5000\nentropy = 0.326475955791\nsamples = 820", shape="box"] ;
185 -> 186 ;
187 [label="entropy = 0.3548\nsamples = 701\nvalue = [ 654.   47.]", shape="box"] ;
186 -> 187 ;
188 [label="X[1] <= 2.5000\nentropy = 0.12311463565\nsamples = 119", shape="box"] ;
186 -> 188 ;
189 [label="entropy = 0.0000\nsamples = 39\nvalue = [ 39.   0.]", shape="box"] ;
188 -> 189 ;
190 [label="X[1] <= 3.5000\nentropy = 0.168660931497\nsamples = 80", shape="box"] ;
188 -> 190 ;
191 [label="entropy = 0.2164\nsamples = 29\nvalue = [ 28.   1.]", shape="box"] ;
190 -> 191 ;
192 [label="X[1] <= 4.5000\nentropy = 0.139232999055\nsamples = 51", shape="box"] ;
190 -> 192 ;
193 [label="entropy = 0.0000\nsamples = 18\nvalue = [ 18.   0.]", shape="box"] ;
192 -> 193 ;
194 [label="entropy = 0.1959\nsamples = 33\nvalue = [ 32.   1.]", shape="box"] ;
192 -> 194 ;
195 [label="X[1] <= 6.5000\nentropy = 0.706274089188\nsamples = 26", shape="box"] ;
185 -> 195 ;
196 [label="entropy = 0.8113\nsamples = 8\nvalue = [ 6.  2.]", shape="box"] ;
195 -> 196 ;
197 [label="entropy = 0.6500\nsamples = 18\nvalue = [ 15.   3.]", shape="box"] ;
195 -> 197 ;
198 [label="entropy = 0.0000\nsamples = 38\nvalue = [ 38.   0.]", shape="box"] ;
184 -> 198 ;
199 [label="X[1] <= 18.5000\nentropy = 0.849751137253\nsamples = 29", shape="box"] ;
183 -> 199 ;
200 [label="X[1] <= 16.5000\nentropy = 0.863120568567\nsamples = 28", shape="box"] ;
199 -> 200 ;
201 [label="X[1] <= 15.5000\nentropy = 0.886540892822\nsamples = 23", shape="box"] ;
200 -> 201 ;
202 [label="X[1] <= 11.5000\nentropy = 0.863120568567\nsamples = 21", shape="box"] ;
201 -> 202 ;
203 [label="entropy = 0.9183\nsamples = 3\nvalue = [ 2.  1.]", shape="box"] ;
202 -> 203 ;
204 [label="X[1] <= 12.5000\nentropy = 0.852405178649\nsamples = 18", shape="box"] ;
202 -> 204 ;
205 [label="entropy = 0.8113\nsamples = 4\nvalue = [ 3.  1.]", shape="box"] ;
204 -> 205 ;
206 [label="X[1] <= 13.5000\nentropy = 0.863120568567\nsamples = 14", shape="box"] ;
204 -> 206 ;
207 [label="entropy = 0.9183\nsamples = 3\nvalue = [ 2.  1.]", shape="box"] ;
206 -> 207 ;
208 [label="X[1] <= 14.5000\nentropy = 0.845350936622\nsamples = 11", shape="box"] ;
206 -> 208 ;
209 [label="entropy = 0.8113\nsamples = 4\nvalue = [ 3.  1.]", shape="box"] ;
208 -> 209 ;
210 [label="entropy = 0.8631\nsamples = 7\nvalue = [ 5.  2.]", shape="box"] ;
208 -> 210 ;
211 [label="entropy = 1.0000\nsamples = 2\nvalue = [ 1.  1.]", shape="box"] ;
201 -> 211 ;
212 [label="X[1] <= 17.5000\nentropy = 0.721928094887\nsamples = 5", shape="box"] ;
200 -> 212 ;
213 [label="entropy = 0.0000\nsamples = 2\nvalue = [ 2.  0.]", shape="box"] ;
212 -> 213 ;
214 [label="entropy = 0.9183\nsamples = 3\nvalue = [ 2.  1.]", shape="box"] ;
212 -> 214 ;
215 [label="entropy = 0.0000\nsamples = 1\nvalue = [ 1.  0.]", shape="box"] ;
199 -> 215 ;
216 [label="X[1] <= 98.5000\nentropy = 0.795510059557\nsamples = 283", shape="box"] ;
182 -> 216 ;
217 [label="X[1] <= 30.5000\nentropy = 0.323825547442\nsamples = 220", shape="box"] ;
216 -> 217 ;
218 [label="X[1] <= 29.5000\nentropy = 0.836640741941\nsamples = 30", shape="box"] ;
217 -> 218 ;
219 [label="X[1] <= 27.5000\nentropy = 0.749595257259\nsamples = 28", shape="box"] ;
218 -> 219 ;
220 [label="X[1] <= 22.5000\nentropy = 0.881290899231\nsamples = 20", shape="box"] ;
219 -> 220 ;
221 [label="X[1] <= 20.5000\nentropy = 0.468995593589\nsamples = 10", shape="box"] ;
220 -> 221 ;
222 [label="entropy = 0.7219\nsamples = 5\nvalue = [ 1.  4.]", shape="box"] ;
221 -> 222 ;
223 [label="entropy = 0.0000\nsamples = 5\nvalue = [ 0.  5.]", shape="box"] ;
221 -> 223 ;
224 [label="X[1] <= 24.5000\nentropy = 1.0\nsamples = 10", shape="box"] ;
220 -> 224 ;
225 [label="X[1] <= 23.5000\nentropy = 0.811278124459\nsamples = 4", shape="box"] ;
224 -> 225 ;
226 [label="entropy = 0.9183\nsamples = 3\nvalue = [ 2.  1.]", shape="box"] ;
225 -> 226 ;
227 [label="entropy = 0.0000\nsamples = 1\nvalue = [ 1.  0.]", shape="box"] ;
225 -> 227 ;
228 [label="X[1] <= 25.5000\nentropy = 0.918295834054\nsamples = 6", shape="box"] ;
224 -> 228 ;
229 [label="entropy = 0.0000\nsamples = 2\nvalue = [ 0.  2.]", shape="box"] ;
228 -> 229 ;
230 [label="X[1] <= 26.5000\nentropy = 1.0\nsamples = 4", shape="box"] ;
228 -> 230 ;
231 [label="entropy = 0.0000\nsamples = 1\nvalue = [ 1.  0.]", shape="box"] ;
230 -> 231 ;
232 [label="entropy = 0.9183\nsamples = 3\nvalue = [ 1.  2.]", shape="box"] ;
230 -> 232 ;
233 [label="entropy = 0.0000\nsamples = 8\nvalue = [ 0.  8.]", shape="box"] ;
219 -> 233 ;
234 [label="entropy = 0.0000\nsamples = 2\nvalue = [ 2.  0.]", shape="box"] ;
218 -> 234 ;
235 [label="X[1] <= 88.5000\nentropy = 0.175565025858\nsamples = 190", shape="box"] ;
217 -> 235 ;
236 [label="X[1] <= 56.5000\nentropy = 0.125658050173\nsamples = 174", shape="box"] ;
235 -> 236 ;
237 [label="X[1] <= 55.5000\nentropy = 0.23987382528\nsamples = 76", shape="box"] ;
236 -> 237 ;
238 [label="X[1] <= 36.5000\nentropy = 0.104419078005\nsamples = 73", shape="box"] ;
237 -> 238 ;
239 [label="X[1] <= 35.5000\nentropy = 0.391243563629\nsamples = 13", shape="box"] ;
238 -> 239 ;
240 [label="entropy = 0.0000\nsamples = 8\nvalue = [ 0.  8.]", shape="box"] ;
239 -> 240 ;
241 [label="entropy = 0.7219\nsamples = 5\nvalue = [ 1.  4.]", shape="box"] ;
239 -> 241 ;
242 [label="entropy = 0.0000\nsamples = 60\nvalue = [  0.  60.]", shape="box"] ;
238 -> 242 ;
243 [label="entropy = 0.9183\nsamples = 3\nvalue = [ 2.  1.]", shape="box"] ;
237 -> 243 ;
244 [label="entropy = 0.0000\nsamples = 98\nvalue = [  0.  98.]", shape="box"] ;
236 -> 244 ;
245 [label="X[1] <= 91.5000\nentropy = 0.5435644432\nsamples = 16", shape="box"] ;
235 -> 245 ;
246 [label="X[1] <= 89.5000\nentropy = 0.811278124459\nsamples = 8", shape="box"] ;
245 -> 246 ;
247 [label="entropy = 0.9183\nsamples = 3\nvalue = [ 1.  2.]", shape="box"] ;
246 -> 247 ;
248 [label="X[1] <= 90.5000\nentropy = 0.721928094887\nsamples = 5", shape="box"] ;
246 -> 248 ;
249 [label="entropy = 0.0000\nsamples = 1\nvalue = [ 0.  1.]", shape="box"] ;
248 -> 249 ;
250 [label="entropy = 0.8113\nsamples = 4\nvalue = [ 1.  3.]", shape="box"] ;
248 -> 250 ;
251 [label="entropy = 0.0000\nsamples = 8\nvalue = [ 0.  8.]", shape="box"] ;
245 -> 251 ;
252 [label="X[1] <= 99.5000\nentropy = 0.549108745026\nsamples = 63", shape="box"] ;
216 -> 252 ;
253 [label="entropy = 0.0000\nsamples = 1\nvalue = [ 1.  0.]", shape="box"] ;
252 -> 253 ;
254 [label="entropy = 0.5548\nsamples = 62\nvalue = [ 54.   8.]", shape="box"] ;
252 -> 254 ;
}