digraph Tree {
0 [label="X[0] <= 99.5000\ngini = 0.486530457352\nsamples = 2498", shape="box"] ;
1 [label="X[0] <= 93.5000\ngini = 0.172984149266\nsamples = 1307", shape="box"] ;
0 -> 1 ;
2 [label="X[1] <= 16.5000\ngini = 0.0866237997257\nsamples = 1080", shape="box"] ;
1 -> 2 ;
3 [label="X[0] <= 23.0000\ngini = 0.170682611228\nsamples = 467", shape="box"] ;
2 -> 3 ;
4 [label="X[0] <= 0.0000\ngini = 0.031737773153\nsamples = 372", shape="box"] ;
3 -> 4 ;
5 [label="gini = 0.0000\nsamples = 333\nvalue = [   0.  333.]", shape="box"] ;
4 -> 5 ;
6 [label="X[0] <= 2.5000\ngini = 0.260355029586\nsamples = 39", shape="box"] ;
4 -> 6 ;
7 [label="X[1] <= 4.0000\ngini = 0.297520661157\nsamples = 33", shape="box"] ;
6 -> 7 ;
8 [label="gini = 0.3200\nsamples = 30\nvalue = [  6.  24.]", shape="box"] ;
7 -> 8 ;
9 [label="gini = 0.0000\nsamples = 3\nvalue = [ 0.  3.]", shape="box"] ;
7 -> 9 ;
10 [label="gini = 0.0000\nsamples = 6\nvalue = [ 0.  6.]", shape="box"] ;
6 -> 10 ;
11 [label="X[1] <= 9.0000\ngini = 0.48\nsamples = 95", shape="box"] ;
3 -> 11 ;
12 [label="X[1] <= 4.5000\ngini = 0.491626297578\nsamples = 85", shape="box"] ;
11 -> 12 ;
13 [label="X[0] <= 85.5000\ngini = 0.471952908587\nsamples = 76", shape="box"] ;
12 -> 13 ;
14 [label="X[0] <= 75.5000\ngini = 0.428641975309\nsamples = 45", shape="box"] ;
13 -> 14 ;
15 [label="X[0] <= 73.5000\ngini = 0.46693877551\nsamples = 35", shape="box"] ;
14 -> 15 ;
16 [label="X[1] <= 3.5000\ngini = 0.42\nsamples = 30", shape="box"] ;
15 -> 16 ;
17 [label="X[0] <= 55.0000\ngini = 0.399524375743\nsamples = 29", shape="box"] ;
16 -> 17 ;
18 [label="X[0] <= 53.5000\ngini = 0.495867768595\nsamples = 11", shape="box"] ;
17 -> 18 ;
19 [label="X[0] <= 49.5000\ngini = 0.444444444444\nsamples = 9", shape="box"] ;
18 -> 19 ;
20 [label="X[0] <= 28.0000\ngini = 0.5\nsamples = 6", shape="box"] ;
19 -> 20 ;
21 [label="gini = 0.0000\nsamples = 2\nvalue = [ 0.  2.]", shape="box"] ;
20 -> 21 ;
22 [label="X[0] <= 42.5000\ngini = 0.375\nsamples = 4", shape="box"] ;
20 -> 22 ;
23 [label="X[0] <= 33.0000\ngini = 0.5\nsamples = 2", shape="box"] ;
22 -> 23 ;
24 [label="gini = 0.0000\nsamples = 1\nvalue = [ 1.  0.]", shape="box"] ;
23 -> 24 ;
25 [label="gini = 0.0000\nsamples = 1\nvalue = [ 0.  1.]", shape="box"] ;
23 -> 25 ;
26 [label="gini = 0.0000\nsamples = 2\nvalue = [ 2.  0.]", shape="box"] ;
22 -> 26 ;
27 [label="gini = 0.0000\nsamples = 3\nvalue = [ 0.  3.]", shape="box"] ;
19 -> 27 ;
28 [label="gini = 0.0000\nsamples = 2\nvalue = [ 2.  0.]", shape="box"] ;
18 -> 28 ;
29 [label="X[1] <= 1.5000\ngini = 0.277777777778\nsamples = 18", shape="box"] ;
17 -> 29 ;
30 [label="X[0] <= 59.5000\ngini = 0.32\nsamples = 15", shape="box"] ;
29 -> 30 ;
31 [label="X[0] <= 58.0000\ngini = 0.444444444444\nsamples = 3", shape="box"] ;
30 -> 31 ;
32 [label="gini = 0.0000\nsamples = 1\nvalue = [ 0.  1.]", shape="box"] ;
31 -> 32 ;
33 [label="gini = 0.5000\nsamples = 2\nvalue = [ 1.  1.]", shape="box"] ;
31 -> 33 ;
34 [label="X[0] <= 65.5000\ngini = 0.277777777778\nsamples = 12", shape="box"] ;
30 -> 34 ;
35 [label="gini = 0.0000\nsamples = 4\nvalue = [ 0.  4.]", shape="box"] ;
34 -> 35 ;
36 [label="X[0] <= 66.5000\ngini = 0.375\nsamples = 8", shape="box"] ;
34 -> 36 ;
37 [label="gini = 0.0000\nsamples = 1\nvalue = [ 1.  0.]", shape="box"] ;
36 -> 37 ;
38 [label="X[0] <= 71.5000\ngini = 0.244897959184\nsamples = 7", shape="box"] ;
36 -> 38 ;
39 [label="gini = 0.0000\nsamples = 4\nvalue = [ 0.  4.]", shape="box"] ;
38 -> 39 ;
40 [label="gini = 0.4444\nsamples = 3\nvalue = [ 1.  2.]", shape="box"] ;
38 -> 40 ;
41 [label="gini = 0.0000\nsamples = 3\nvalue = [ 0.  3.]", shape="box"] ;
29 -> 41 ;
42 [label="gini = 0.0000\nsamples = 1\nvalue = [ 1.  0.]", shape="box"] ;
16 -> 42 ;
43 [label="X[1] <= 1.5000\ngini = 0.32\nsamples = 5", shape="box"] ;
15 -> 43 ;
44 [label="X[0] <= 74.5000\ngini = 0.444444444444\nsamples = 3", shape="box"] ;
43 -> 44 ;
45 [label="gini = 0.5000\nsamples = 2\nvalue = [ 1.  1.]", shape="box"] ;
44 -> 45 ;
46 [label="gini = 0.0000\nsamples = 1\nvalue = [ 1.  0.]", shape="box"] ;
44 -> 46 ;
47 [label="gini = 0.0000\nsamples = 2\nvalue = [ 2.  0.]", shape="box"] ;
43 -> 47 ;
48 [label="X[0] <= 81.5000\ngini = 0.18\nsamples = 10", shape="box"] ;
14 -> 48 ;
49 [label="gini = 0.0000\nsamples = 5\nvalue = [ 0.  5.]", shape="box"] ;
48 -> 49 ;
50 [label="X[0] <= 83.5000\ngini = 0.32\nsamples = 5", shape="box"] ;
48 -> 50 ;
51 [label="gini = 0.0000\nsamples = 1\nvalue = [ 1.  0.]", shape="box"] ;
50 -> 51 ;
52 [label="gini = 0.0000\nsamples = 4\nvalue = [ 0.  4.]", shape="box"] ;
50 -> 52 ;
53 [label="X[1] <= 2.0000\ngini = 0.499479708637\nsamples = 31", shape="box"] ;
13 -> 53 ;
54 [label="X[0] <= 87.5000\ngini = 0.497041420118\nsamples = 26", shape="box"] ;
53 -> 54 ;
55 [label="gini = 0.0000\nsamples = 2\nvalue = [ 2.  0.]", shape="box"] ;
54 -> 55 ;
56 [label="X[0] <= 92.5000\ngini = 0.5\nsamples = 24", shape="box"] ;
54 -> 56 ;
57 [label="X[0] <= 90.5000\ngini = 0.493827160494\nsamples = 18", shape="box"] ;
56 -> 57 ;
58 [label="X[0] <= 89.5000\ngini = 0.5\nsamples = 10", shape="box"] ;
57 -> 58 ;
59 [label="X[0] <= 88.5000\ngini = 0.489795918367\nsamples = 7", shape="box"] ;
58 -> 59 ;
60 [label="gini = 0.5000\nsamples = 6\nvalue = [ 3.  3.]", shape="box"] ;
59 -> 60 ;
61 [label="gini = 0.0000\nsamples = 1\nvalue = [ 0.  1.]", shape="box"] ;
59 -> 61 ;
62 [label="gini = 0.4444\nsamples = 3\nvalue = [ 2.  1.]", shape="box"] ;
58 -> 62 ;
63 [label="X[0] <= 91.5000\ngini = 0.46875\nsamples = 8", shape="box"] ;
57 -> 63 ;
64 [label="gini = 0.4800\nsamples = 5\nvalue = [ 2.  3.]", shape="box"] ;
63 -> 64 ;
65 [label="gini = 0.4444\nsamples = 3\nvalue = [ 1.  2.]", shape="box"] ;
63 -> 65 ;
66 [label="gini = 0.4444\nsamples = 6\nvalue = [ 4.  2.]", shape="box"] ;
56 -> 66 ;
67 [label="X[0] <= 91.0000\ngini = 0.32\nsamples = 5", shape="box"] ;
53 -> 67 ;
68 [label="X[0] <= 88.0000\ngini = 0.444444444444\nsamples = 3", shape="box"] ;
67 -> 68 ;
69 [label="gini = 0.0000\nsamples = 1\nvalue = [ 0.  1.]", shape="box"] ;
68 -> 69 ;
70 [label="gini = 0.5000\nsamples = 2\nvalue = [ 1.  1.]", shape="box"] ;
68 -> 70 ;
71 [label="gini = 0.0000\nsamples = 2\nvalue = [ 0.  2.]", shape="box"] ;
67 -> 71 ;
72 [label="X[0] <= 49.0000\ngini = 0.197530864198\nsamples = 9", shape="box"] ;
12 -> 72 ;
73 [label="X[0] <= 33.5000\ngini = 0.444444444444\nsamples = 3", shape="box"] ;
72 -> 73 ;
74 [label="gini = 0.0000\nsamples = 2\nvalue = [ 2.  0.]", shape="box"] ;
73 -> 74 ;
75 [label="gini = 0.0000\nsamples = 1\nvalue = [ 0.  1.]", shape="box"] ;
73 -> 75 ;
76 [label="gini = 0.0000\nsamples = 6\nvalue = [ 6.  0.]", shape="box"] ;
72 -> 76 ;
77 [label="X[1] <= 15.5000\ngini = 0.18\nsamples = 10", shape="box"] ;
11 -> 77 ;
78 [label="gini = 0.0000\nsamples = 9\nvalue = [ 0.  9.]", shape="box"] ;
77 -> 78 ;
79 [label="gini = 0.0000\nsamples = 1\nvalue = [ 1.  0.]", shape="box"] ;
77 -> 79 ;
80 [label="X[1] <= 53.5000\ngini = 0.0161801532324\nsamples = 613", shape="box"] ;
2 -> 80 ;
81 [label="X[1] <= 52.5000\ngini = 0.0382629387269\nsamples = 205", shape="box"] ;
80 -> 81 ;
82 [label="X[0] <= 83.5000\ngini = 0.0206163194444\nsamples = 192", shape="box"] ;
81 -> 82 ;
83 [label="gini = 0.0000\nsamples = 138\nvalue = [   0.  138.]", shape="box"] ;
82 -> 83 ;
84 [label="X[0] <= 85.5000\ngini = 0.0713305898491\nsamples = 54", shape="box"] ;
82 -> 84 ;
85 [label="X[1] <= 36.5000\ngini = 0.345679012346\nsamples = 9", shape="box"] ;
84 -> 85 ;
86 [label="X[1] <= 35.5000\ngini = 0.5\nsamples = 4", shape="box"] ;
85 -> 86 ;
87 [label="X[0] <= 84.5000\ngini = 0.444444444444\nsamples = 3", shape="box"] ;
86 -> 87 ;
88 [label="X[1] <= 34.0000\ngini = 0.5\nsamples = 2", shape="box"] ;
87 -> 88 ;
89 [label="gini = 0.0000\nsamples = 1\nvalue = [ 1.  0.]", shape="box"] ;
88 -> 89 ;
90 [label="gini = 0.0000\nsamples = 1\nvalue = [ 0.  1.]", shape="box"] ;
88 -> 90 ;
91 [label="gini = 0.0000\nsamples = 1\nvalue = [ 0.  1.]", shape="box"] ;
87 -> 91 ;
92 [label="gini = 0.0000\nsamples = 1\nvalue = [ 1.  0.]", shape="box"] ;
86 -> 92 ;
93 [label="gini = 0.0000\nsamples = 5\nvalue = [ 0.  5.]", shape="box"] ;
85 -> 93 ;
94 [label="gini = 0.0000\nsamples = 45\nvalue = [  0.  45.]", shape="box"] ;
84 -> 94 ;
95 [label="X[0] <= 44.5000\ngini = 0.260355029586\nsamples = 13", shape="box"] ;
81 -> 95 ;
96 [label="X[0] <= 13.5000\ngini = 0.5\nsamples = 2", shape="box"] ;
95 -> 96 ;
97 [label="gini = 0.0000\nsamples = 1\nvalue = [ 0.  1.]", shape="box"] ;
96 -> 97 ;
98 [label="gini = 0.0000\nsamples = 1\nvalue = [ 1.  0.]", shape="box"] ;
96 -> 98 ;
99 [label="X[0] <= 88.5000\ngini = 0.165289256198\nsamples = 11", shape="box"] ;
95 -> 99 ;
100 [label="gini = 0.0000\nsamples = 6\nvalue = [ 0.  6.]", shape="box"] ;
99 -> 100 ;
101 [label="X[0] <= 90.0000\ngini = 0.32\nsamples = 5", shape="box"] ;
99 -> 101 ;
102 [label="gini = 0.0000\nsamples = 1\nvalue = [ 1.  0.]", shape="box"] ;
101 -> 102 ;
103 [label="gini = 0.0000\nsamples = 4\nvalue = [ 0.  4.]", shape="box"] ;
101 -> 103 ;
104 [label="X[1] <= 80.5000\ngini = 0.00488994617455\nsamples = 408", shape="box"] ;
80 -> 104 ;
105 [label="gini = 0.0000\nsamples = 280\nvalue = [   0.  280.]", shape="box"] ;
104 -> 105 ;
106 [label="X[1] <= 81.5000\ngini = 0.0155029296875\nsamples = 128", shape="box"] ;
104 -> 106 ;
107 [label="X[0] <= 62.5000\ngini = 0.14201183432\nsamples = 13", shape="box"] ;
106 -> 107 ;
108 [label="gini = 0.0000\nsamples = 9\nvalue = [ 0.  9.]", shape="box"] ;
107 -> 108 ;
109 [label="X[0] <= 71.5000\ngini = 0.375\nsamples = 4", shape="box"] ;
107 -> 109 ;
110 [label="gini = 0.0000\nsamples = 1\nvalue = [ 1.  0.]", shape="box"] ;
109 -> 110 ;
111 [label="gini = 0.0000\nsamples = 3\nvalue = [ 0.  3.]", shape="box"] ;
109 -> 111 ;
112 [label="gini = 0.0000\nsamples = 115\nvalue = [   0.  115.]", shape="box"] ;
106 -> 112 ;
113 [label="X[1] <= 16.5000\ngini = 0.445419084399\nsamples = 227", shape="box"] ;
1 -> 113 ;
114 [label="X[0] <= 94.5000\ngini = 0.454170524367\nsamples = 109", shape="box"] ;
113 -> 114 ;
115 [label="X[1] <= 8.5000\ngini = 0.297520661157\nsamples = 44", shape="box"] ;
114 -> 115 ;
116 [label="X[1] <= 3.0000\ngini = 0.283164782867\nsamples = 41", shape="box"] ;
115 -> 116 ;
117 [label="X[1] <= 1.5000\ngini = 0.30055401662\nsamples = 38", shape="box"] ;
116 -> 117 ;
118 [label="gini = 0.2841\nsamples = 35\nvalue = [ 29.   6.]", shape="box"] ;
117 -> 118 ;
119 [label="gini = 0.4444\nsamples = 3\nvalue = [ 2.  1.]", shape="box"] ;
117 -> 119 ;
120 [label="gini = 0.0000\nsamples = 3\nvalue = [ 3.  0.]", shape="box"] ;
116 -> 120 ;
121 [label="X[1] <= 12.5000\ngini = 0.444444444444\nsamples = 3", shape="box"] ;
115 -> 121 ;
122 [label="gini = 0.0000\nsamples = 1\nvalue = [ 0.  1.]", shape="box"] ;
121 -> 122 ;
123 [label="gini = 0.0000\nsamples = 2\nvalue = [ 2.  0.]", shape="box"] ;
121 -> 123 ;
124 [label="X[1] <= 1.5000\ngini = 0.497041420118\nsamples = 65", shape="box"] ;
114 -> 124 ;
125 [label="X[0] <= 95.5000\ngini = 0.464806330696\nsamples = 49", shape="box"] ;
124 -> 125 ;
126 [label="gini = 0.5000\nsamples = 4\nvalue = [ 2.  2.]", shape="box"] ;
125 -> 126 ;
127 [label="X[0] <= 96.5000\ngini = 0.458271604938\nsamples = 45", shape="box"] ;
125 -> 127 ;
128 [label="gini = 0.4800\nsamples = 5\nvalue = [ 3.  2.]", shape="box"] ;
127 -> 128 ;
129 [label="X[0] <= 97.5000\ngini = 0.455\nsamples = 40", shape="box"] ;
127 -> 129 ;
130 [label="gini = 0.4082\nsamples = 7\nvalue = [ 5.  2.]", shape="box"] ;
129 -> 130 ;
131 [label="X[0] <= 98.5000\ngini = 0.462809917355\nsamples = 33", shape="box"] ;
129 -> 131 ;
132 [label="gini = 0.4592\nsamples = 14\nvalue = [ 9.  5.]", shape="box"] ;
131 -> 132 ;
133 [label="gini = 0.4654\nsamples = 19\nvalue = [ 12.   7.]", shape="box"] ;
131 -> 133 ;
134 [label="X[1] <= 8.5000\ngini = 0.375\nsamples = 16", shape="box"] ;
124 -> 134 ;
135 [label="X[0] <= 98.5000\ngini = 0.165289256198\nsamples = 11", shape="box"] ;
134 -> 135 ;
136 [label="X[1] <= 4.0000\ngini = 0.32\nsamples = 5", shape="box"] ;
135 -> 136 ;
137 [label="gini = 0.0000\nsamples = 2\nvalue = [ 0.  2.]", shape="box"] ;
136 -> 137 ;
138 [label="X[1] <= 6.0000\ngini = 0.444444444444\nsamples = 3", shape="box"] ;
136 -> 138 ;
139 [label="gini = 0.5000\nsamples = 2\nvalue = [ 1.  1.]", shape="box"] ;
138 -> 139 ;
140 [label="gini = 0.0000\nsamples = 1\nvalue = [ 0.  1.]", shape="box"] ;
138 -> 140 ;
141 [label="gini = 0.0000\nsamples = 6\nvalue = [ 0.  6.]", shape="box"] ;
135 -> 141 ;
142 [label="X[1] <= 10.5000\ngini = 0.48\nsamples = 5", shape="box"] ;
134 -> 142 ;
143 [label="gini = 0.0000\nsamples = 3\nvalue = [ 3.  0.]", shape="box"] ;
142 -> 143 ;
144 [label="gini = 0.0000\nsamples = 2\nvalue = [ 0.  2.]", shape="box"] ;
142 -> 144 ;
145 [label="X[1] <= 96.0000\ngini = 0.0811548405631\nsamples = 118", shape="box"] ;
113 -> 145 ;
146 [label="X[1] <= 23.5000\ngini = 0.0503864447087\nsamples = 116", shape="box"] ;
145 -> 146 ;
147 [label="X[1] <= 22.5000\ngini = 0.277777777778\nsamples = 6", shape="box"] ;
146 -> 147 ;
148 [label="gini = 0.0000\nsamples = 5\nvalue = [ 0.  5.]", shape="box"] ;
147 -> 148 ;
149 [label="gini = 0.0000\nsamples = 1\nvalue = [ 1.  0.]", shape="box"] ;
147 -> 149 ;
150 [label="X[0] <= 98.5000\ngini = 0.0357024793388\nsamples = 110", shape="box"] ;
146 -> 150 ;
151 [label="gini = 0.0000\nsamples = 81\nvalue = [  0.  81.]", shape="box"] ;
150 -> 151 ;
152 [label="X[1] <= 55.0000\ngini = 0.128418549346\nsamples = 29", shape="box"] ;
150 -> 152 ;
153 [label="X[1] <= 52.5000\ngini = 0.297520661157\nsamples = 11", shape="box"] ;
152 -> 153 ;
154 [label="X[1] <= 42.5000\ngini = 0.197530864198\nsamples = 9", shape="box"] ;
153 -> 154 ;
155 [label="X[1] <= 40.5000\ngini = 0.375\nsamples = 4", shape="box"] ;
154 -> 155 ;
156 [label="gini = 0.0000\nsamples = 3\nvalue = [ 0.  3.]", shape="box"] ;
155 -> 156 ;
157 [label="gini = 0.0000\nsamples = 1\nvalue = [ 1.  0.]", shape="box"] ;
155 -> 157 ;
158 [label="gini = 0.0000\nsamples = 5\nvalue = [ 0.  5.]", shape="box"] ;
154 -> 158 ;
159 [label="gini = 0.5000\nsamples = 2\nvalue = [ 1.  1.]", shape="box"] ;
153 -> 159 ;
160 [label="gini = 0.0000\nsamples = 18\nvalue = [  0.  18.]", shape="box"] ;
152 -> 160 ;
161 [label="gini = 0.0000\nsamples = 2\nvalue = [ 2.  0.]", shape="box"] ;
145 -> 161 ;
162 [label="X[1] <= 19.5000\ngini = 0.352444622099\nsamples = 1191", shape="box"] ;
0 -> 162 ;
163 [label="X[1] <= 10.5000\ngini = 0.131850555863\nsamples = 916", shape="box"] ;
162 -> 163 ;
164 [label="X[1] <= 1.5000\ngini = 0.122226473082\nsamples = 887", shape="box"] ;
163 -> 164 ;
165 [label="gini = 0.1379\nsamples = 698\nvalue = [ 646.   52.]", shape="box"] ;
164 -> 165 ;
166 [label="X[1] <= 5.5000\ngini = 0.0614764424288\nsamples = 189", shape="box"] ;
164 -> 166 ;
167 [label="X[1] <= 2.5000\ngini = 0.0322493953238\nsamples = 122", shape="box"] ;
166 -> 167 ;
168 [label="gini = 0.0000\nsamples = 41\nvalue = [ 41.   0.]", shape="box"] ;
167 -> 168 ;
169 [label="X[1] <= 3.5000\ngini = 0.0481633897272\nsamples = 81", shape="box"] ;
167 -> 169 ;
170 [label="gini = 0.0768\nsamples = 25\nvalue = [ 24.   1.]", shape="box"] ;
169 -> 170 ;
171 [label="X[1] <= 4.5000\ngini = 0.0350765306122\nsamples = 56", shape="box"] ;
169 -> 171 ;
172 [label="gini = 0.0000\nsamples = 21\nvalue = [ 21.   0.]", shape="box"] ;
171 -> 172 ;
173 [label="gini = 0.0555\nsamples = 35\nvalue = [ 34.   1.]", shape="box"] ;
171 -> 173 ;
174 [label="X[1] <= 7.5000\ngini = 0.112274448652\nsamples = 67", shape="box"] ;
166 -> 174 ;
175 [label="X[1] <= 6.5000\ngini = 0.260355029586\nsamples = 26", shape="box"] ;
174 -> 175 ;
176 [label="gini = 0.3750\nsamples = 8\nvalue = [ 6.  2.]", shape="box"] ;
175 -> 176 ;
177 [label="gini = 0.1975\nsamples = 18\nvalue = [ 16.   2.]", shape="box"] ;
175 -> 177 ;
178 [label="gini = 0.0000\nsamples = 41\nvalue = [ 41.   0.]", shape="box"] ;
174 -> 178 ;
179 [label="X[1] <= 15.5000\ngini = 0.366230677765\nsamples = 29", shape="box"] ;
163 -> 179 ;
180 [label="X[1] <= 14.5000\ngini = 0.408163265306\nsamples = 21", shape="box"] ;
179 -> 180 ;
181 [label="X[1] <= 13.5000\ngini = 0.391111111111\nsamples = 15", shape="box"] ;
180 -> 181 ;
182 [label="X[1] <= 12.5000\ngini = 0.42\nsamples = 10", shape="box"] ;
181 -> 182 ;
183 [label="X[1] <= 11.5000\ngini = 0.408163265306\nsamples = 7", shape="box"] ;
182 -> 183 ;
184 [label="gini = 0.4444\nsamples = 3\nvalue = [ 2.  1.]", shape="box"] ;
183 -> 184 ;
185 [label="gini = 0.3750\nsamples = 4\nvalue = [ 3.  1.]", shape="box"] ;
183 -> 185 ;
186 [label="gini = 0.4444\nsamples = 3\nvalue = [ 2.  1.]", shape="box"] ;
182 -> 186 ;
187 [label="gini = 0.3200\nsamples = 5\nvalue = [ 4.  1.]", shape="box"] ;
181 -> 187 ;
188 [label="gini = 0.4444\nsamples = 6\nvalue = [ 4.  2.]", shape="box"] ;
180 -> 188 ;
189 [label="X[1] <= 17.5000\ngini = 0.21875\nsamples = 8", shape="box"] ;
179 -> 189 ;
190 [label="gini = 0.0000\nsamples = 4\nvalue = [ 4.  0.]", shape="box"] ;
189 -> 190 ;
191 [label="X[1] <= 18.5000\ngini = 0.375\nsamples = 4", shape="box"] ;
189 -> 191 ;
192 [label="gini = 0.4444\nsamples = 3\nvalue = [ 2.  1.]", shape="box"] ;
191 -> 192 ;
193 [label="gini = 0.0000\nsamples = 1\nvalue = [ 1.  0.]", shape="box"] ;
191 -> 193 ;
194 [label="X[1] <= 98.5000\ngini = 0.37225785124\nsamples = 275", shape="box"] ;
162 -> 194 ;
195 [label="X[1] <= 30.5000\ngini = 0.106799572802\nsamples = 212", shape="box"] ;
194 -> 195 ;
196 [label="X[1] <= 29.5000\ngini = 0.384087791495\nsamples = 27", shape="box"] ;
195 -> 196 ;
197 [label="X[1] <= 27.5000\ngini = 0.32\nsamples = 25", shape="box"] ;
196 -> 197 ;
198 [label="X[1] <= 22.5000\ngini = 0.387811634349\nsamples = 19", shape="box"] ;
197 -> 198 ;
199 [label="X[1] <= 20.5000\ngini = 0.197530864198\nsamples = 9", shape="box"] ;
198 -> 199 ;
200 [label="gini = 0.3200\nsamples = 5\nvalue = [ 1.  4.]", shape="box"] ;
199 -> 200 ;
201 [label="gini = 0.0000\nsamples = 4\nvalue = [ 0.  4.]", shape="box"] ;
199 -> 201 ;
202 [label="X[1] <= 24.5000\ngini = 0.48\nsamples = 10", shape="box"] ;
198 -> 202 ;
203 [label="X[1] <= 23.5000\ngini = 0.375\nsamples = 4", shape="box"] ;
202 -> 203 ;
204 [label="gini = 0.4444\nsamples = 3\nvalue = [ 2.  1.]", shape="box"] ;
203 -> 204 ;
205 [label="gini = 0.0000\nsamples = 1\nvalue = [ 1.  0.]", shape="box"] ;
203 -> 205 ;
206 [label="X[1] <= 26.0000\ngini = 0.277777777778\nsamples = 6", shape="box"] ;
202 -> 206 ;
207 [label="gini = 0.0000\nsamples = 3\nvalue = [ 0.  3.]", shape="box"] ;
206 -> 207 ;
208 [label="gini = 0.4444\nsamples = 3\nvalue = [ 1.  2.]", shape="box"] ;
206 -> 208 ;
209 [label="gini = 0.0000\nsamples = 6\nvalue = [ 0.  6.]", shape="box"] ;
197 -> 209 ;
210 [label="gini = 0.0000\nsamples = 2\nvalue = [ 2.  0.]", shape="box"] ;
196 -> 210 ;
211 [label="X[1] <= 88.5000\ngini = 0.0525931336742\nsamples = 185", shape="box"] ;
195 -> 211 ;
212 [label="X[1] <= 56.5000\ngini = 0.0344721452755\nsamples = 171", shape="box"] ;
211 -> 212 ;
213 [label="X[1] <= 55.5000\ngini = 0.0820408163265\nsamples = 70", shape="box"] ;
212 -> 213 ;
214 [label="X[1] <= 36.5000\ngini = 0.0294052127423\nsamples = 67", shape="box"] ;
213 -> 214 ;
215 [label="X[1] <= 35.0000\ngini = 0.165289256198\nsamples = 11", shape="box"] ;
214 -> 215 ;
216 [label="gini = 0.0000\nsamples = 6\nvalue = [ 0.  6.]", shape="box"] ;
215 -> 216 ;
217 [label="gini = 0.3200\nsamples = 5\nvalue = [ 1.  4.]", shape="box"] ;
215 -> 217 ;
218 [label="gini = 0.0000\nsamples = 56\nvalue = [  0.  56.]", shape="box"] ;
214 -> 218 ;
219 [label="gini = 0.4444\nsamples = 3\nvalue = [ 2.  1.]", shape="box"] ;
213 -> 219 ;
220 [label="gini = 0.0000\nsamples = 101\nvalue = [   0.  101.]", shape="box"] ;
212 -> 220 ;
221 [label="X[1] <= 91.5000\ngini = 0.244897959184\nsamples = 14", shape="box"] ;
211 -> 221 ;
222 [label="X[1] <= 89.5000\ngini = 0.408163265306\nsamples = 7", shape="box"] ;
221 -> 222 ;
223 [label="gini = 0.4444\nsamples = 3\nvalue = [ 1.  2.]", shape="box"] ;
222 -> 223 ;
224 [label="X[1] <= 90.5000\ngini = 0.375\nsamples = 4", shape="box"] ;
222 -> 224 ;
225 [label="gini = 0.0000\nsamples = 1\nvalue = [ 0.  1.]", shape="box"] ;
224 -> 225 ;
226 [label="gini = 0.4444\nsamples = 3\nvalue = [ 1.  2.]", shape="box"] ;
224 -> 226 ;
227 [label="gini = 0.0000\nsamples = 7\nvalue = [ 0.  7.]", shape="box"] ;
221 -> 227 ;
228 [label="X[1] <= 99.5000\ngini = 0.197530864198\nsamples = 63", shape="box"] ;
194 -> 228 ;
229 [label="gini = 0.0000\nsamples = 1\nvalue = [ 1.  0.]", shape="box"] ;
228 -> 229 ;
230 [label="gini = 0.2003\nsamples = 62\nvalue = [ 55.   7.]", shape="box"] ;
228 -> 230 ;
}