digraph Tree {
0 [label="X[0] <= 99.5000\nentropy = 0.980479354955\nsamples = 2498", shape="box"] ;
1 [label="X[0] <= 82.5000\nentropy = 0.459886844816\nsamples = 1297", shape="box"] ;
0 -> 1 ;
2 [label="X[0] <= 0.0000\nentropy = 0.180844908883\nsamples = 878", shape="box"] ;
1 -> 2 ;
3 [label="entropy = 0.0000\nsamples = 326\nvalue = [   0.  326.]", shape="box"] ;
2 -> 3 ;
4 [label="X[1] <= 8.5000\nentropy = 0.258018668665\nsamples = 552", shape="box"] ;
2 -> 4 ;
5 [label="X[0] <= 23.0000\nentropy = 0.815800927379\nsamples = 87", shape="box"] ;
4 -> 5 ;
6 [label="X[0] <= 2.5000\nentropy = 0.552495114325\nsamples = 39", shape="box"] ;
5 -> 6 ;
7 [label="X[1] <= 4.0000\nentropy = 0.613619019599\nsamples = 33", shape="box"] ;
6 -> 7 ;
8 [label="entropy = 0.6374\nsamples = 31\nvalue = [  5.  26.]", shape="box"] ;
7 -> 8 ;
9 [label="entropy = 0.0000\nsamples = 2\nvalue = [ 0.  2.]", shape="box"] ;
7 -> 9 ;
10 [label="entropy = 0.0000\nsamples = 6\nvalue = [ 0.  6.]", shape="box"] ;
6 -> 10 ;
11 [label="X[1] <= 6.5000\nentropy = 0.937734293987\nsamples = 48", shape="box"] ;
5 -> 11 ;
12 [label="X[0] <= 73.5000\nentropy = 0.91087837875\nsamples = 46", shape="box"] ;
11 -> 12 ;
13 [label="X[0] <= 55.0000\nentropy = 0.823811633312\nsamples = 31", shape="box"] ;
12 -> 13 ;
14 [label="X[0] <= 53.5000\nentropy = 0.994030211477\nsamples = 11", shape="box"] ;
13 -> 14 ;
15 [label="X[0] <= 49.5000\nentropy = 0.918295834054\nsamples = 9", shape="box"] ;
14 -> 15 ;
16 [label="X[0] <= 42.5000\nentropy = 1.0\nsamples = 6", shape="box"] ;
15 -> 16 ;
17 [label="X[0] <= 32.5000\nentropy = 0.811278124459\nsamples = 4", shape="box"] ;
16 -> 17 ;
18 [label="X[0] <= 27.5000\nentropy = 1.0\nsamples = 2", shape="box"] ;
17 -> 18 ;
19 [label="entropy = 0.0000\nsamples = 1\nvalue = [ 0.  1.]", shape="box"] ;
18 -> 19 ;
20 [label="entropy = 0.0000\nsamples = 1\nvalue = [ 1.  0.]", shape="box"] ;
18 -> 20 ;
21 [label="entropy = 0.0000\nsamples = 2\nvalue = [ 0.  2.]", shape="box"] ;
17 -> 21 ;
22 [label="entropy = 0.0000\nsamples = 2\nvalue = [ 2.  0.]", shape="box"] ;
16 -> 22 ;
23 [label="entropy = 0.0000\nsamples = 3\nvalue = [ 0.  3.]", shape="box"] ;
15 -> 23 ;
24 [label="entropy = 0.0000\nsamples = 2\nvalue = [ 2.  0.]", shape="box"] ;
14 -> 24 ;
25 [label="X[1] <= 3.5000\nentropy = 0.609840304716\nsamples = 20", shape="box"] ;
13 -> 25 ;
26 [label="X[0] <= 66.5000\nentropy = 0.485460760746\nsamples = 19", shape="box"] ;
25 -> 26 ;
27 [label="X[0] <= 65.5000\nentropy = 0.650022421648\nsamples = 12", shape="box"] ;
26 -> 27 ;
28 [label="X[0] <= 59.5000\nentropy = 0.439496986922\nsamples = 11", shape="box"] ;
27 -> 28 ;
29 [label="X[0] <= 58.0000\nentropy = 0.811278124459\nsamples = 4", shape="box"] ;
28 -> 29 ;
30 [label="entropy = 0.0000\nsamples = 2\nvalue = [ 0.  2.]", shape="box"] ;
29 -> 30 ;
31 [label="entropy = 1.0000\nsamples = 2\nvalue = [ 1.  1.]", shape="box"] ;
29 -> 31 ;
32 [label="entropy = 0.0000\nsamples = 7\nvalue = [ 0.  7.]", shape="box"] ;
28 -> 32 ;
33 [label="entropy = 0.0000\nsamples = 1\nvalue = [ 1.  0.]", shape="box"] ;
27 -> 33 ;
34 [label="entropy = 0.0000\nsamples = 7\nvalue = [ 0.  7.]", shape="box"] ;
26 -> 34 ;
35 [label="entropy = 0.0000\nsamples = 1\nvalue = [ 1.  0.]", shape="box"] ;
25 -> 35 ;
36 [label="X[0] <= 78.0000\nentropy = 0.996791631982\nsamples = 15", shape="box"] ;
12 -> 36 ;
37 [label="X[1] <= 1.5000\nentropy = 0.970950594455\nsamples = 10", shape="box"] ;
36 -> 37 ;
38 [label="X[0] <= 74.5000\nentropy = 1.0\nsamples = 8", shape="box"] ;
37 -> 38 ;
39 [label="entropy = 0.9183\nsamples = 3\nvalue = [ 1.  2.]", shape="box"] ;
38 -> 39 ;
40 [label="X[0] <= 75.5000\nentropy = 0.970950594455\nsamples = 5", shape="box"] ;
38 -> 40 ;
41 [label="entropy = 0.0000\nsamples = 1\nvalue = [ 1.  0.]", shape="box"] ;
40 -> 41 ;
42 [label="X[0] <= 76.5000\nentropy = 1.0\nsamples = 4", shape="box"] ;
40 -> 42 ;
43 [label="entropy = 1.0000\nsamples = 2\nvalue = [ 1.  1.]", shape="box"] ;
42 -> 43 ;
44 [label="entropy = 1.0000\nsamples = 2\nvalue = [ 1.  1.]", shape="box"] ;
42 -> 44 ;
45 [label="entropy = 0.0000\nsamples = 2\nvalue = [ 2.  0.]", shape="box"] ;
37 -> 45 ;
46 [label="X[0] <= 79.5000\nentropy = 0.721928094887\nsamples = 5", shape="box"] ;
36 -> 46 ;
47 [label="entropy = 0.0000\nsamples = 3\nvalue = [ 0.  3.]", shape="box"] ;
46 -> 47 ;
48 [label="entropy = 1.0000\nsamples = 2\nvalue = [ 1.  1.]", shape="box"] ;
46 -> 48 ;
49 [label="entropy = 0.0000\nsamples = 2\nvalue = [ 2.  0.]", shape="box"] ;
11 -> 49 ;
50 [label="X[0] <= 25.5000\nentropy = 0.0400029028782\nsamples = 465", shape="box"] ;
4 -> 50 ;
51 [label="entropy = 0.0000\nsamples = 208\nvalue = [   0.  208.]", shape="box"] ;
50 -> 51 ;
52 [label="X[0] <= 26.5000\nentropy = 0.0657018783806\nsamples = 257", shape="box"] ;
50 -> 52 ;
53 [label="X[1] <= 61.0000\nentropy = 1.0\nsamples = 2", shape="box"] ;
52 -> 53 ;
54 [label="entropy = 0.0000\nsamples = 1\nvalue = [ 1.  0.]", shape="box"] ;
53 -> 54 ;
55 [label="entropy = 0.0000\nsamples = 1\nvalue = [ 0.  1.]", shape="box"] ;
53 -> 55 ;
56 [label="X[1] <= 80.5000\nentropy = 0.0369969253289\nsamples = 255", shape="box"] ;
52 -> 56 ;
57 [label="entropy = 0.0000\nsamples = 205\nvalue = [   0.  205.]", shape="box"] ;
56 -> 57 ;
58 [label="X[1] <= 81.5000\nentropy = 0.141440542542\nsamples = 50", shape="box"] ;
56 -> 58 ;
59 [label="X[0] <= 62.5000\nentropy = 0.721928094887\nsamples = 5", shape="box"] ;
58 -> 59 ;
60 [label="entropy = 0.0000\nsamples = 3\nvalue = [ 0.  3.]", shape="box"] ;
59 -> 60 ;
61 [label="X[0] <= 71.5000\nentropy = 1.0\nsamples = 2", shape="box"] ;
59 -> 61 ;
62 [label="entropy = 0.0000\nsamples = 1\nvalue = [ 1.  0.]", shape="box"] ;
61 -> 62 ;
63 [label="entropy = 0.0000\nsamples = 1\nvalue = [ 0.  1.]", shape="box"] ;
61 -> 63 ;
64 [label="entropy = 0.0000\nsamples = 45\nvalue = [  0.  45.]", shape="box"] ;
58 -> 64 ;
65 [label="X[1] <= 23.5000\nentropy = 0.800708921921\nsamples = 419", shape="box"] ;
1 -> 65 ;
66 [label="X[1] <= 10.5000\nentropy = 0.991897741553\nsamples = 170", shape="box"] ;
65 -> 66 ;
67 [label="X[0] <= 94.5000\nentropy = 0.97471700418\nsamples = 150", shape="box"] ;
66 -> 67 ;
68 [label="X[0] <= 93.5000\nentropy = 0.914324246432\nsamples = 85", shape="box"] ;
67 -> 68 ;
69 [label="X[1] <= 4.5000\nentropy = 0.999609836368\nsamples = 43", shape="box"] ;
68 -> 69 ;
70 [label="X[0] <= 85.5000\nentropy = 0.986786720268\nsamples = 37", shape="box"] ;
69 -> 70 ;
71 [label="X[0] <= 83.5000\nentropy = 0.650022421648\nsamples = 6", shape="box"] ;
70 -> 71 ;
72 [label="entropy = 0.0000\nsamples = 1\nvalue = [ 1.  0.]", shape="box"] ;
71 -> 72 ;
73 [label="entropy = 0.0000\nsamples = 5\nvalue = [ 0.  5.]", shape="box"] ;
71 -> 73 ;
74 [label="X[1] <= 3.5000\nentropy = 0.999249247996\nsamples = 31", shape="box"] ;
70 -> 74 ;
75 [label="X[0] <= 87.0000\nentropy = 1.0\nsamples = 28", shape="box"] ;
74 -> 75 ;
76 [label="entropy = 0.0000\nsamples = 1\nvalue = [ 1.  0.]", shape="box"] ;
75 -> 76 ;
77 [label="X[0] <= 92.5000\nentropy = 0.99901027088\nsamples = 27", shape="box"] ;
75 -> 77 ;
78 [label="X[0] <= 88.5000\nentropy = 0.985228136034\nsamples = 21", shape="box"] ;
77 -> 78 ;
79 [label="entropy = 0.9852\nsamples = 7\nvalue = [ 4.  3.]", shape="box"] ;
78 -> 79 ;
80 [label="X[0] <= 89.5000\nentropy = 0.940285958671\nsamples = 14", shape="box"] ;
78 -> 80 ;
81 [label="entropy = 0.0000\nsamples = 2\nvalue = [ 0.  2.]", shape="box"] ;
80 -> 81 ;
82 [label="X[0] <= 90.5000\nentropy = 0.979868756651\nsamples = 12", shape="box"] ;
80 -> 82 ;
83 [label="X[1] <= 2.0000\nentropy = 0.918295834054\nsamples = 3", shape="box"] ;
82 -> 83 ;
84 [label="entropy = 1.0000\nsamples = 2\nvalue = [ 1.  1.]", shape="box"] ;
83 -> 84 ;
85 [label="entropy = 0.0000\nsamples = 1\nvalue = [ 1.  0.]", shape="box"] ;
83 -> 85 ;
86 [label="X[1] <= 2.0000\nentropy = 0.918295834054\nsamples = 9", shape="box"] ;
82 -> 86 ;
87 [label="X[0] <= 91.5000\nentropy = 0.954434002925\nsamples = 8", shape="box"] ;
86 -> 87 ;
88 [label="entropy = 0.9710\nsamples = 5\nvalue = [ 2.  3.]", shape="box"] ;
87 -> 88 ;
89 [label="entropy = 0.9183\nsamples = 3\nvalue = [ 1.  2.]", shape="box"] ;
87 -> 89 ;
90 [label="entropy = 0.0000\nsamples = 1\nvalue = [ 0.  1.]", shape="box"] ;
86 -> 90 ;
91 [label="entropy = 0.9183\nsamples = 6\nvalue = [ 4.  2.]", shape="box"] ;
77 -> 91 ;
92 [label="X[0] <= 88.0000\nentropy = 0.918295834054\nsamples = 3", shape="box"] ;
74 -> 92 ;
93 [label="entropy = 0.0000\nsamples = 1\nvalue = [ 0.  1.]", shape="box"] ;
92 -> 93 ;
94 [label="X[0] <= 91.5000\nentropy = 1.0\nsamples = 2", shape="box"] ;
92 -> 94 ;
95 [label="entropy = 0.0000\nsamples = 1\nvalue = [ 1.  0.]", shape="box"] ;
94 -> 95 ;
96 [label="entropy = 0.0000\nsamples = 1\nvalue = [ 0.  1.]", shape="box"] ;
94 -> 96 ;
97 [label="entropy = 0.0000\nsamples = 6\nvalue = [ 6.  0.]", shape="box"] ;
69 -> 97 ;
98 [label="X[1] <= 3.0000\nentropy = 0.650022421648\nsamples = 42", shape="box"] ;
68 -> 98 ;
99 [label="X[1] <= 1.5000\nentropy = 0.678953899519\nsamples = 39", shape="box"] ;
98 -> 99 ;
100 [label="entropy = 0.6610\nsamples = 35\nvalue = [ 29.   6.]", shape="box"] ;
99 -> 100 ;
101 [label="entropy = 0.8113\nsamples = 4\nvalue = [ 3.  1.]", shape="box"] ;
99 -> 101 ;
102 [label="entropy = 0.0000\nsamples = 3\nvalue = [ 3.  0.]", shape="box"] ;
98 -> 102 ;
103 [label="X[1] <= 8.5000\nentropy = 0.999829260123\nsamples = 65", shape="box"] ;
67 -> 103 ;
104 [label="X[1] <= 1.5000\nentropy = 0.996995426556\nsamples = 62", shape="box"] ;
103 -> 104 ;
105 [label="X[0] <= 95.5000\nentropy = 0.995727452085\nsamples = 52", shape="box"] ;
104 -> 105 ;
106 [label="entropy = 0.9183\nsamples = 3\nvalue = [ 1.  2.]", shape="box"] ;
105 -> 106 ;
107 [label="X[0] <= 98.5000\nentropy = 0.992476003943\nsamples = 49", shape="box"] ;
105 -> 107 ;
108 [label="X[0] <= 96.5000\nentropy = 0.996316519559\nsamples = 28", shape="box"] ;
107 -> 108 ;
109 [label="entropy = 1.0000\nsamples = 4\nvalue = [ 2.  2.]", shape="box"] ;
108 -> 109 ;
110 [label="X[0] <= 97.5000\nentropy = 0.994984828186\nsamples = 24", shape="box"] ;
108 -> 110 ;
111 [label="entropy = 0.9911\nsamples = 9\nvalue = [ 5.  4.]", shape="box"] ;
110 -> 111 ;
112 [label="entropy = 0.9968\nsamples = 15\nvalue = [ 8.  7.]", shape="box"] ;
110 -> 112 ;
113 [label="entropy = 0.9852\nsamples = 21\nvalue = [ 12.   9.]", shape="box"] ;
107 -> 113 ;
114 [label="X[1] <= 4.0000\nentropy = 0.468995593589\nsamples = 10", shape="box"] ;
104 -> 114 ;
115 [label="entropy = 0.0000\nsamples = 4\nvalue = [ 0.  4.]", shape="box"] ;
114 -> 115 ;
116 [label="X[1] <= 5.5000\nentropy = 0.650022421648\nsamples = 6", shape="box"] ;
114 -> 116 ;
117 [label="entropy = 1.0000\nsamples = 2\nvalue = [ 1.  1.]", shape="box"] ;
116 -> 117 ;
118 [label="entropy = 0.0000\nsamples = 4\nvalue = [ 0.  4.]", shape="box"] ;
116 -> 118 ;
119 [label="entropy = 0.0000\nsamples = 3\nvalue = [ 3.  0.]", shape="box"] ;
103 -> 119 ;
120 [label="X[1] <= 22.5000\nentropy = 0.811278124459\nsamples = 20", shape="box"] ;
66 -> 120 ;
121 [label="X[0] <= 94.5000\nentropy = 0.742487569542\nsamples = 19", shape="box"] ;
120 -> 121 ;
122 [label="X[1] <= 12.5000\nentropy = 0.863120568567\nsamples = 14", shape="box"] ;
121 -> 122 ;
123 [label="entropy = 0.0000\nsamples = 3\nvalue = [ 0.  3.]", shape="box"] ;
122 -> 123 ;
124 [label="X[0] <= 84.5000\nentropy = 0.945660304601\nsamples = 11", shape="box"] ;
122 -> 124 ;
125 [label="entropy = 0.0000\nsamples = 3\nvalue = [ 0.  3.]", shape="box"] ;
124 -> 125 ;
126 [label="X[0] <= 86.5000\nentropy = 1.0\nsamples = 8", shape="box"] ;
124 -> 126 ;
127 [label="entropy = 0.0000\nsamples = 1\nvalue = [ 1.  0.]", shape="box"] ;
126 -> 127 ;
128 [label="X[1] <= 16.5000\nentropy = 0.985228136034\nsamples = 7", shape="box"] ;
126 -> 128 ;
129 [label="X[0] <= 93.5000\nentropy = 0.970950594455\nsamples = 5", shape="box"] ;
128 -> 129 ;
130 [label="X[0] <= 91.0000\nentropy = 0.918295834054\nsamples = 3", shape="box"] ;
129 -> 130 ;
131 [label="entropy = 0.0000\nsamples = 1\nvalue = [ 0.  1.]", shape="box"] ;
130 -> 131 ;
132 [label="X[0] <= 92.5000\nentropy = 1.0\nsamples = 2", shape="box"] ;
130 -> 132 ;
133 [label="entropy = 0.0000\nsamples = 1\nvalue = [ 1.  0.]", shape="box"] ;
132 -> 133 ;
134 [label="entropy = 0.0000\nsamples = 1\nvalue = [ 0.  1.]", shape="box"] ;
132 -> 134 ;
135 [label="entropy = 0.0000\nsamples = 2\nvalue = [ 2.  0.]", shape="box"] ;
129 -> 135 ;
136 [label="entropy = 0.0000\nsamples = 2\nvalue = [ 0.  2.]", shape="box"] ;
128 -> 136 ;
137 [label="entropy = 0.0000\nsamples = 5\nvalue = [ 0.  5.]", shape="box"] ;
121 -> 137 ;
138 [label="entropy = 0.0000\nsamples = 1\nvalue = [ 1.  0.]", shape="box"] ;
120 -> 138 ;
139 [label="X[1] <= 96.0000\nentropy = 0.204956429934\nsamples = 249", shape="box"] ;
65 -> 139 ;
140 [label="X[1] <= 53.5000\nentropy = 0.165956542628\nsamples = 245", shape="box"] ;
139 -> 140 ;
141 [label="X[0] <= 98.5000\nentropy = 0.325082197645\nsamples = 101", shape="box"] ;
140 -> 141 ;
142 [label="X[0] <= 89.5000\nentropy = 0.258018668665\nsamples = 92", shape="box"] ;
141 -> 142 ;
143 [label="X[1] <= 30.5000\nentropy = 0.49418293485\nsamples = 37", shape="box"] ;
142 -> 143 ;
144 [label="entropy = 0.0000\nsamples = 9\nvalue = [ 0.  9.]", shape="box"] ;
143 -> 144 ;
145 [label="X[1] <= 38.0000\nentropy = 0.591672778582\nsamples = 28", shape="box"] ;
143 -> 145 ;
146 [label="X[0] <= 84.5000\nentropy = 0.954434002925\nsamples = 8", shape="box"] ;
145 -> 146 ;
147 [label="entropy = 0.0000\nsamples = 1\nvalue = [ 1.  0.]", shape="box"] ;
146 -> 147 ;
148 [label="X[0] <= 88.5000\nentropy = 0.863120568567\nsamples = 7", shape="box"] ;
146 -> 148 ;
149 [label="X[0] <= 87.5000\nentropy = 0.918295834054\nsamples = 6", shape="box"] ;
148 -> 149 ;
150 [label="X[1] <= 34.5000\nentropy = 0.811278124459\nsamples = 4", shape="box"] ;
149 -> 150 ;
151 [label="entropy = 0.0000\nsamples = 3\nvalue = [ 0.  3.]", shape="box"] ;
150 -> 151 ;
152 [label="entropy = 0.0000\nsamples = 1\nvalue = [ 1.  0.]", shape="box"] ;
150 -> 152 ;
153 [label="X[1] <= 33.5000\nentropy = 1.0\nsamples = 2", shape="box"] ;
149 -> 153 ;
154 [label="entropy = 0.0000\nsamples = 1\nvalue = [ 1.  0.]", shape="box"] ;
153 -> 154 ;
155 [label="entropy = 0.0000\nsamples = 1\nvalue = [ 0.  1.]", shape="box"] ;
153 -> 155 ;
156 [label="entropy = 0.0000\nsamples = 1\nvalue = [ 0.  1.]", shape="box"] ;
148 -> 156 ;
157 [label="X[1] <= 52.0000\nentropy = 0.286396957116\nsamples = 20", shape="box"] ;
145 -> 157 ;
158 [label="entropy = 0.0000\nsamples = 16\nvalue = [  0.  16.]", shape="box"] ;
157 -> 158 ;
159 [label="X[0] <= 88.5000\nentropy = 0.811278124459\nsamples = 4", shape="box"] ;
157 -> 159 ;
160 [label="entropy = 0.0000\nsamples = 3\nvalue = [ 0.  3.]", shape="box"] ;
159 -> 160 ;
161 [label="entropy = 0.0000\nsamples = 1\nvalue = [ 1.  0.]", shape="box"] ;
159 -> 161 ;
162 [label="entropy = 0.0000\nsamples = 55\nvalue = [  0.  55.]", shape="box"] ;
142 -> 162 ;
163 [label="X[1] <= 40.5000\nentropy = 0.764204506509\nsamples = 9", shape="box"] ;
141 -> 163 ;
164 [label="entropy = 0.0000\nsamples = 3\nvalue = [ 0.  3.]", shape="box"] ;
163 -> 164 ;
165 [label="X[1] <= 44.0000\nentropy = 0.918295834054\nsamples = 6", shape="box"] ;
163 -> 165 ;
166 [label="entropy = 0.0000\nsamples = 1\nvalue = [ 1.  0.]", shape="box"] ;
165 -> 166 ;
167 [label="X[1] <= 52.5000\nentropy = 0.721928094887\nsamples = 5", shape="box"] ;
165 -> 167 ;
168 [label="entropy = 0.0000\nsamples = 3\nvalue = [ 0.  3.]", shape="box"] ;
167 -> 168 ;
169 [label="entropy = 1.0000\nsamples = 2\nvalue = [ 1.  1.]", shape="box"] ;
167 -> 169 ;
170 [label="entropy = 0.0000\nsamples = 144\nvalue = [   0.  144.]", shape="box"] ;
140 -> 170 ;
171 [label="X[0] <= 92.0000\nentropy = 1.0\nsamples = 4", shape="box"] ;
139 -> 171 ;
172 [label="entropy = 0.0000\nsamples = 2\nvalue = [ 0.  2.]", shape="box"] ;
171 -> 172 ;
173 [label="entropy = 0.0000\nsamples = 2\nvalue = [ 2.  0.]", shape="box"] ;
171 -> 173 ;
174 [label="X[1] <= 19.5000\nentropy = 0.787709113495\nsamples = 1201", shape="box"] ;
0 -> 174 ;
175 [label="X[1] <= 10.5000\nentropy = 0.37382681497\nsamples = 915", shape="box"] ;
174 -> 175 ;
176 [label="X[1] <= 7.5000\nentropy = 0.35221622673\nsamples = 889", shape="box"] ;
175 -> 176 ;
177 [label="X[1] <= 5.5000\nentropy = 0.363114144773\nsamples = 852", shape="box"] ;
176 -> 177 ;
178 [label="X[1] <= 1.5000\nentropy = 0.352745191463\nsamples = 827", shape="box"] ;
177 -> 178 ;
179 [label="entropy = 0.3838\nsamples = 708\nvalue = [ 655.   53.]", shape="box"] ;
178 -> 179 ;
180 [label="X[1] <= 2.5000\nentropy = 0.12311463565\nsamples = 119", shape="box"] ;
178 -> 180 ;
181 [label="entropy = 0.0000\nsamples = 40\nvalue = [ 40.   0.]", shape="box"] ;
180 -> 181 ;
182 [label="X[1] <= 3.5000\nentropy = 0.170330575601\nsamples = 79", shape="box"] ;
180 -> 182 ;
183 [label="entropy = 0.2285\nsamples = 27\nvalue = [ 26.   1.]", shape="box"] ;
182 -> 183 ;
184 [label="X[1] <= 4.5000\nentropy = 0.1370994789\nsamples = 52", shape="box"] ;
182 -> 184 ;
185 [label="entropy = 0.0000\nsamples = 19\nvalue = [ 19.   0.]", shape="box"] ;
184 -> 185 ;
186 [label="entropy = 0.1959\nsamples = 33\nvalue = [ 32.   1.]", shape="box"] ;
184 -> 186 ;
187 [label="X[1] <= 6.5000\nentropy = 0.634309554641\nsamples = 25", shape="box"] ;
177 -> 187 ;
188 [label="entropy = 0.7642\nsamples = 9\nvalue = [ 7.  2.]", shape="box"] ;
187 -> 188 ;
189 [label="entropy = 0.5436\nsamples = 16\nvalue = [ 14.   2.]", shape="box"] ;
187 -> 189 ;
190 [label="entropy = 0.0000\nsamples = 37\nvalue = [ 37.   0.]", shape="box"] ;
176 -> 190 ;
191 [label="X[1] <= 12.5000\nentropy = 0.840358671609\nsamples = 26", shape="box"] ;
175 -> 191 ;
192 [label="X[1] <= 11.5000\nentropy = 0.985228136034\nsamples = 7", shape="box"] ;
191 -> 192 ;
193 [label="entropy = 1.0000\nsamples = 4\nvalue = [ 2.  2.]", shape="box"] ;
192 -> 193 ;
194 [label="entropy = 0.9183\nsamples = 3\nvalue = [ 2.  1.]", shape="box"] ;
192 -> 194 ;
195 [label="X[1] <= 13.5000\nentropy = 0.742487569542\nsamples = 19", shape="box"] ;
191 -> 195 ;
196 [label="entropy = 0.0000\nsamples = 2\nvalue = [ 2.  0.]", shape="box"] ;
195 -> 196 ;
197 [label="X[1] <= 18.5000\nentropy = 0.787126586201\nsamples = 17", shape="box"] ;
195 -> 197 ;
198 [label="X[1] <= 17.5000\nentropy = 0.811278124459\nsamples = 16", shape="box"] ;
197 -> 198 ;
199 [label="X[1] <= 16.5000\nentropy = 0.749595257259\nsamples = 14", shape="box"] ;
198 -> 199 ;
200 [label="X[1] <= 15.5000\nentropy = 0.811278124459\nsamples = 12", shape="box"] ;
199 -> 200 ;
201 [label="X[1] <= 14.5000\nentropy = 0.721928094887\nsamples = 10", shape="box"] ;
200 -> 201 ;
202 [label="entropy = 0.7219\nsamples = 5\nvalue = [ 4.  1.]", shape="box"] ;
201 -> 202 ;
203 [label="entropy = 0.7219\nsamples = 5\nvalue = [ 4.  1.]", shape="box"] ;
201 -> 203 ;
204 [label="entropy = 1.0000\nsamples = 2\nvalue = [ 1.  1.]", shape="box"] ;
200 -> 204 ;
205 [label="entropy = 0.0000\nsamples = 2\nvalue = [ 2.  0.]", shape="box"] ;
199 -> 205 ;
206 [label="entropy = 1.0000\nsamples = 2\nvalue = [ 1.  1.]", shape="box"] ;
198 -> 206 ;
207 [label="entropy = 0.0000\nsamples = 1\nvalue = [ 1.  0.]", shape="box"] ;
197 -> 207 ;
208 [label="X[1] <= 98.5000\nentropy = 0.797127263498\nsamples = 286", shape="box"] ;
174 -> 208 ;
209 [label="X[1] <= 36.5000\nentropy = 0.28448038607\nsamples = 222", shape="box"] ;
208 -> 209 ;
210 [label="X[1] <= 30.5000\nentropy = 0.742487569542\nsamples = 38", shape="box"] ;
209 -> 210 ;
211 [label="X[1] <= 29.5000\nentropy = 0.825626526158\nsamples = 27", shape="box"] ;
210 -> 211 ;
212 [label="X[1] <= 27.5000\nentropy = 0.721928094887\nsamples = 25", shape="box"] ;
211 -> 212 ;
213 [label="X[1] <= 22.5000\nentropy = 0.852405178649\nsamples = 18", shape="box"] ;
212 -> 213 ;
214 [label="X[1] <= 20.5000\nentropy = 0.5435644432\nsamples = 8", shape="box"] ;
213 -> 214 ;
215 [label="entropy = 0.9183\nsamples = 3\nvalue = [ 1.  2.]", shape="box"] ;
214 -> 215 ;
216 [label="entropy = 0.0000\nsamples = 5\nvalue = [ 0.  5.]", shape="box"] ;
214 -> 216 ;
217 [label="X[1] <= 24.0000\nentropy = 0.970950594455\nsamples = 10", shape="box"] ;
213 -> 217 ;
218 [label="entropy = 0.9183\nsamples = 3\nvalue = [ 2.  1.]", shape="box"] ;
217 -> 218 ;
219 [label="X[1] <= 25.5000\nentropy = 0.863120568567\nsamples = 7", shape="box"] ;
217 -> 219 ;
220 [label="entropy = 0.0000\nsamples = 3\nvalue = [ 0.  3.]", shape="box"] ;
219 -> 220 ;
221 [label="X[1] <= 26.5000\nentropy = 1.0\nsamples = 4", shape="box"] ;
219 -> 221 ;
222 [label="entropy = 0.0000\nsamples = 1\nvalue = [ 1.  0.]", shape="box"] ;
221 -> 222 ;
223 [label="entropy = 0.9183\nsamples = 3\nvalue = [ 1.  2.]", shape="box"] ;
221 -> 223 ;
224 [label="entropy = 0.0000\nsamples = 7\nvalue = [ 0.  7.]", shape="box"] ;
212 -> 224 ;
225 [label="entropy = 0.0000\nsamples = 2\nvalue = [ 2.  0.]", shape="box"] ;
211 -> 225 ;
226 [label="X[1] <= 35.5000\nentropy = 0.439496986922\nsamples = 11", shape="box"] ;
210 -> 226 ;
227 [label="entropy = 0.0000\nsamples = 8\nvalue = [ 0.  8.]", shape="box"] ;
226 -> 227 ;
228 [label="entropy = 0.9183\nsamples = 3\nvalue = [ 1.  2.]", shape="box"] ;
226 -> 228 ;
229 [label="X[1] <= 88.5000\nentropy = 0.120154385056\nsamples = 184", shape="box"] ;
209 -> 229 ;
230 [label="X[1] <= 56.5000\nentropy = 0.0525637510932\nsamples = 168", shape="box"] ;
229 -> 230 ;
231 [label="X[1] <= 55.5000\nentropy = 0.120681014014\nsamples = 61", shape="box"] ;
230 -> 231 ;
232 [label="entropy = 0.0000\nsamples = 58\nvalue = [  0.  58.]", shape="box"] ;
231 -> 232 ;
233 [label="entropy = 0.9183\nsamples = 3\nvalue = [ 1.  2.]", shape="box"] ;
231 -> 233 ;
234 [label="entropy = 0.0000\nsamples = 107\nvalue = [   0.  107.]", shape="box"] ;
230 -> 234 ;
235 [label="X[1] <= 91.5000\nentropy = 0.5435644432\nsamples = 16", shape="box"] ;
229 -> 235 ;
236 [label="X[1] <= 89.5000\nentropy = 0.811278124459\nsamples = 8", shape="box"] ;
235 -> 236 ;
237 [label="entropy = 0.9183\nsamples = 3\nvalue = [ 1.  2.]", shape="box"] ;
236 -> 237 ;
238 [label="X[1] <= 90.5000\nentropy = 0.721928094887\nsamples = 5", shape="box"] ;
236 -> 238 ;
239 [label="entropy = 0.0000\nsamples = 1\nvalue = [ 0.  1.]", shape="box"] ;
238 -> 239 ;
240 [label="entropy = 0.8113\nsamples = 4\nvalue = [ 1.  3.]", shape="box"] ;
238 -> 240 ;
241 [label="entropy = 0.0000\nsamples = 8\nvalue = [ 0.  8.]", shape="box"] ;
235 -> 241 ;
242 [label="X[1] <= 99.5000\nentropy = 0.448864488723\nsamples = 64", shape="box"] ;
208 -> 242 ;
243 [label="entropy = 0.0000\nsamples = 1\nvalue = [ 1.  0.]", shape="box"] ;
242 -> 243 ;
244 [label="entropy = 0.4537\nsamples = 63\nvalue = [ 57.   6.]", shape="box"] ;
242 -> 244 ;
}