digraph Tree {
0 [label="X[0] <= 99.5000\ngini = 0.486744138727\nsamples = 2776", shape="box"] ;
1 [label="X[0] <= 93.5000\ngini = 0.176681093936\nsamples = 1450", shape="box"] ;
0 -> 1 ;
2 [label="X[0] <= 82.5000\ngini = 0.0928019036288\nsamples = 1189", shape="box"] ;
1 -> 2 ;
3 [label="X[1] <= 8.5000\ngini = 0.0537972823166\nsamples = 976", shape="box"] ;
2 -> 3 ;
4 [label="X[0] <= 23.0000\ngini = 0.103637657741\nsamples = 456", shape="box"] ;
3 -> 4 ;
5 [label="X[0] <= 0.0000\ngini = 0.0292618370748\nsamples = 404", shape="box"] ;
4 -> 5 ;
6 [label="gini = 0.0000\nsamples = 363\nvalue = [   0.  363.]", shape="box"] ;
5 -> 6 ;
7 [label="X[0] <= 2.5000\ngini = 0.249851279001\nsamples = 41", shape="box"] ;
5 -> 7 ;
8 [label="X[1] <= 4.0000\ngini = 0.284081632653\nsamples = 35", shape="box"] ;
7 -> 8 ;
9 [label="gini = 0.2975\nsamples = 33\nvalue = [  6.  27.]", shape="box"] ;
8 -> 9 ;
10 [label="gini = 0.0000\nsamples = 2\nvalue = [ 0.  2.]", shape="box"] ;
8 -> 10 ;
11 [label="gini = 0.0000\nsamples = 6\nvalue = [ 0.  6.]", shape="box"] ;
7 -> 11 ;
12 [label="X[1] <= 6.0000\ngini = 0.46375739645\nsamples = 52", shape="box"] ;
4 -> 12 ;
13 [label="X[0] <= 73.5000\ngini = 0.439816743024\nsamples = 49", shape="box"] ;
12 -> 13 ;
14 [label="X[0] <= 55.0000\ngini = 0.389273356401\nsamples = 34", shape="box"] ;
13 -> 14 ;
15 [label="X[0] <= 53.5000\ngini = 0.486111111111\nsamples = 12", shape="box"] ;
14 -> 15 ;
16 [label="X[0] <= 49.5000\ngini = 0.42\nsamples = 10", shape="box"] ;
15 -> 16 ;
17 [label="X[0] <= 42.5000\ngini = 0.489795918367\nsamples = 7", shape="box"] ;
16 -> 17 ;
18 [label="X[0] <= 28.0000\ngini = 0.32\nsamples = 5", shape="box"] ;
17 -> 18 ;
19 [label="gini = 0.0000\nsamples = 2\nvalue = [ 0.  2.]", shape="box"] ;
18 -> 19 ;
20 [label="X[0] <= 32.5000\ngini = 0.444444444444\nsamples = 3", shape="box"] ;
18 -> 20 ;
21 [label="gini = 0.0000\nsamples = 1\nvalue = [ 1.  0.]", shape="box"] ;
20 -> 21 ;
22 [label="gini = 0.0000\nsamples = 2\nvalue = [ 0.  2.]", shape="box"] ;
20 -> 22 ;
23 [label="gini = 0.0000\nsamples = 2\nvalue = [ 2.  0.]", shape="box"] ;
17 -> 23 ;
24 [label="gini = 0.0000\nsamples = 3\nvalue = [ 0.  3.]", shape="box"] ;
16 -> 24 ;
25 [label="gini = 0.0000\nsamples = 2\nvalue = [ 2.  0.]", shape="box"] ;
15 -> 25 ;
26 [label="X[1] <= 3.5000\ngini = 0.297520661157\nsamples = 22", shape="box"] ;
14 -> 26 ;
27 [label="X[1] <= 1.5000\ngini = 0.244897959184\nsamples = 21", shape="box"] ;
26 -> 27 ;
28 [label="X[0] <= 59.5000\ngini = 0.277777777778\nsamples = 18", shape="box"] ;
27 -> 28 ;
29 [label="X[0] <= 58.0000\ngini = 0.444444444444\nsamples = 3", shape="box"] ;
28 -> 29 ;
30 [label="gini = 0.0000\nsamples = 1\nvalue = [ 0.  1.]", shape="box"] ;
29 -> 30 ;
31 [label="gini = 0.5000\nsamples = 2\nvalue = [ 1.  1.]", shape="box"] ;
29 -> 31 ;
32 [label="X[0] <= 65.5000\ngini = 0.231111111111\nsamples = 15", shape="box"] ;
28 -> 32 ;
33 [label="gini = 0.0000\nsamples = 6\nvalue = [ 0.  6.]", shape="box"] ;
32 -> 33 ;
34 [label="X[0] <= 66.5000\ngini = 0.345679012346\nsamples = 9", shape="box"] ;
32 -> 34 ;
35 [label="gini = 0.0000\nsamples = 1\nvalue = [ 1.  0.]", shape="box"] ;
34 -> 35 ;
36 [label="X[0] <= 71.5000\ngini = 0.21875\nsamples = 8", shape="box"] ;
34 -> 36 ;
37 [label="gini = 0.0000\nsamples = 4\nvalue = [ 0.  4.]", shape="box"] ;
36 -> 37 ;
38 [label="gini = 0.3750\nsamples = 4\nvalue = [ 1.  3.]", shape="box"] ;
36 -> 38 ;
39 [label="gini = 0.0000\nsamples = 3\nvalue = [ 0.  3.]", shape="box"] ;
27 -> 39 ;
40 [label="gini = 0.0000\nsamples = 1\nvalue = [ 1.  0.]", shape="box"] ;
26 -> 40 ;
41 [label="X[0] <= 78.0000\ngini = 0.497777777778\nsamples = 15", shape="box"] ;
13 -> 41 ;
42 [label="X[1] <= 1.5000\ngini = 0.48\nsamples = 10", shape="box"] ;
41 -> 42 ;
43 [label="X[0] <= 74.5000\ngini = 0.5\nsamples = 8", shape="box"] ;
42 -> 43 ;
44 [label="gini = 0.4444\nsamples = 3\nvalue = [ 1.  2.]", shape="box"] ;
43 -> 44 ;
45 [label="X[0] <= 75.5000\ngini = 0.48\nsamples = 5", shape="box"] ;
43 -> 45 ;
46 [label="gini = 0.0000\nsamples = 1\nvalue = [ 1.  0.]", shape="box"] ;
45 -> 46 ;
47 [label="X[0] <= 76.5000\ngini = 0.5\nsamples = 4", shape="box"] ;
45 -> 47 ;
48 [label="gini = 0.5000\nsamples = 2\nvalue = [ 1.  1.]", shape="box"] ;
47 -> 48 ;
49 [label="gini = 0.5000\nsamples = 2\nvalue = [ 1.  1.]", shape="box"] ;
47 -> 49 ;
50 [label="gini = 0.0000\nsamples = 2\nvalue = [ 2.  0.]", shape="box"] ;
42 -> 50 ;
51 [label="X[0] <= 79.5000\ngini = 0.32\nsamples = 5", shape="box"] ;
41 -> 51 ;
52 [label="gini = 0.0000\nsamples = 3\nvalue = [ 0.  3.]", shape="box"] ;
51 -> 52 ;
53 [label="gini = 0.5000\nsamples = 2\nvalue = [ 1.  1.]", shape="box"] ;
51 -> 53 ;
54 [label="gini = 0.0000\nsamples = 3\nvalue = [ 3.  0.]", shape="box"] ;
12 -> 54 ;
55 [label="X[0] <= 25.5000\ngini = 0.00766272189349\nsamples = 520", shape="box"] ;
3 -> 55 ;
56 [label="gini = 0.0000\nsamples = 236\nvalue = [   0.  236.]", shape="box"] ;
55 -> 56 ;
57 [label="X[0] <= 26.5000\ngini = 0.0139853203729\nsamples = 284", shape="box"] ;
55 -> 57 ;
58 [label="X[1] <= 61.0000\ngini = 0.5\nsamples = 2", shape="box"] ;
57 -> 58 ;
59 [label="gini = 0.0000\nsamples = 1\nvalue = [ 1.  0.]", shape="box"] ;
58 -> 59 ;
60 [label="gini = 0.0000\nsamples = 1\nvalue = [ 0.  1.]", shape="box"] ;
58 -> 60 ;
61 [label="X[1] <= 80.5000\ngini = 0.0070670489412\nsamples = 282", shape="box"] ;
57 -> 61 ;
62 [label="gini = 0.0000\nsamples = 227\nvalue = [   0.  227.]", shape="box"] ;
61 -> 62 ;
63 [label="X[1] <= 81.5000\ngini = 0.0357024793388\nsamples = 55", shape="box"] ;
61 -> 63 ;
64 [label="X[0] <= 62.5000\ngini = 0.244897959184\nsamples = 7", shape="box"] ;
63 -> 64 ;
65 [label="gini = 0.0000\nsamples = 5\nvalue = [ 0.  5.]", shape="box"] ;
64 -> 65 ;
66 [label="X[0] <= 71.5000\ngini = 0.5\nsamples = 2", shape="box"] ;
64 -> 66 ;
67 [label="gini = 0.0000\nsamples = 1\nvalue = [ 1.  0.]", shape="box"] ;
66 -> 67 ;
68 [label="gini = 0.0000\nsamples = 1\nvalue = [ 0.  1.]", shape="box"] ;
66 -> 68 ;
69 [label="gini = 0.0000\nsamples = 48\nvalue = [  0.  48.]", shape="box"] ;
63 -> 69 ;
70 [label="X[1] <= 9.5000\ngini = 0.248716083669\nsamples = 213", shape="box"] ;
2 -> 70 ;
71 [label="X[1] <= 4.5000\ngini = 0.497962879131\nsamples = 47", shape="box"] ;
70 -> 71 ;
72 [label="X[0] <= 85.5000\ngini = 0.497323022011\nsamples = 41", shape="box"] ;
71 -> 72 ;
73 [label="X[0] <= 83.5000\ngini = 0.277777777778\nsamples = 6", shape="box"] ;
72 -> 73 ;
74 [label="gini = 0.0000\nsamples = 1\nvalue = [ 1.  0.]", shape="box"] ;
73 -> 74 ;
75 [label="gini = 0.0000\nsamples = 5\nvalue = [ 0.  5.]", shape="box"] ;
73 -> 75 ;
76 [label="X[1] <= 3.5000\ngini = 0.499591836735\nsamples = 35", shape="box"] ;
72 -> 76 ;
77 [label="X[0] <= 87.5000\ngini = 0.495317377732\nsamples = 31", shape="box"] ;
76 -> 77 ;
78 [label="gini = 0.0000\nsamples = 2\nvalue = [ 2.  0.]", shape="box"] ;
77 -> 78 ;
79 [label="X[0] <= 92.5000\ngini = 0.499405469679\nsamples = 29", shape="box"] ;
77 -> 79 ;
80 [label="X[0] <= 90.5000\ngini = 0.499054820416\nsamples = 23", shape="box"] ;
79 -> 80 ;
81 [label="X[0] <= 89.5000\ngini = 0.497041420118\nsamples = 13", shape="box"] ;
80 -> 81 ;
82 [label="X[0] <= 88.5000\ngini = 0.493827160494\nsamples = 9", shape="box"] ;
81 -> 82 ;
83 [label="gini = 0.4898\nsamples = 7\nvalue = [ 4.  3.]", shape="box"] ;
82 -> 83 ;
84 [label="gini = 0.0000\nsamples = 2\nvalue = [ 0.  2.]", shape="box"] ;
82 -> 84 ;
85 [label="X[1] <= 2.0000\ngini = 0.375\nsamples = 4", shape="box"] ;
81 -> 85 ;
86 [label="gini = 0.4444\nsamples = 3\nvalue = [ 2.  1.]", shape="box"] ;
85 -> 86 ;
87 [label="gini = 0.0000\nsamples = 1\nvalue = [ 1.  0.]", shape="box"] ;
85 -> 87 ;
88 [label="X[1] <= 2.0000\ngini = 0.48\nsamples = 10", shape="box"] ;
80 -> 88 ;
89 [label="X[0] <= 91.5000\ngini = 0.493827160494\nsamples = 9", shape="box"] ;
88 -> 89 ;
90 [label="gini = 0.4800\nsamples = 5\nvalue = [ 2.  3.]", shape="box"] ;
89 -> 90 ;
91 [label="gini = 0.5000\nsamples = 4\nvalue = [ 2.  2.]", shape="box"] ;
89 -> 91 ;
92 [label="gini = 0.0000\nsamples = 1\nvalue = [ 0.  1.]", shape="box"] ;
88 -> 92 ;
93 [label="gini = 0.4444\nsamples = 6\nvalue = [ 4.  2.]", shape="box"] ;
79 -> 93 ;
94 [label="X[0] <= 88.0000\ngini = 0.375\nsamples = 4", shape="box"] ;
76 -> 94 ;
95 [label="gini = 0.0000\nsamples = 1\nvalue = [ 0.  1.]", shape="box"] ;
94 -> 95 ;
96 [label="X[0] <= 91.5000\ngini = 0.444444444444\nsamples = 3", shape="box"] ;
94 -> 96 ;
97 [label="gini = 0.5000\nsamples = 2\nvalue = [ 1.  1.]", shape="box"] ;
96 -> 97 ;
98 [label="gini = 0.0000\nsamples = 1\nvalue = [ 0.  1.]", shape="box"] ;
96 -> 98 ;
99 [label="gini = 0.0000\nsamples = 6\nvalue = [ 6.  0.]", shape="box"] ;
71 -> 99 ;
100 [label="X[1] <= 36.5000\ngini = 0.0696762955436\nsamples = 166", shape="box"] ;
70 -> 100 ;
101 [label="X[0] <= 85.5000\ngini = 0.223537146614\nsamples = 39", shape="box"] ;
100 -> 101 ;
102 [label="X[0] <= 83.5000\ngini = 0.42\nsamples = 10", shape="box"] ;
101 -> 102 ;
103 [label="gini = 0.0000\nsamples = 4\nvalue = [ 0.  4.]", shape="box"] ;
102 -> 103 ;
104 [label="X[1] <= 17.0000\ngini = 0.5\nsamples = 6", shape="box"] ;
102 -> 104 ;
105 [label="gini = 0.0000\nsamples = 1\nvalue = [ 0.  1.]", shape="box"] ;
104 -> 105 ;
106 [label="X[1] <= 26.0000\ngini = 0.48\nsamples = 5", shape="box"] ;
104 -> 106 ;
107 [label="gini = 0.0000\nsamples = 1\nvalue = [ 1.  0.]", shape="box"] ;
106 -> 107 ;
108 [label="X[1] <= 35.5000\ngini = 0.5\nsamples = 4", shape="box"] ;
106 -> 108 ;
109 [label="X[1] <= 34.0000\ngini = 0.444444444444\nsamples = 3", shape="box"] ;
108 -> 109 ;
110 [label="X[0] <= 84.5000\ngini = 0.5\nsamples = 2", shape="box"] ;
109 -> 110 ;
111 [label="gini = 0.0000\nsamples = 1\nvalue = [ 1.  0.]", shape="box"] ;
110 -> 111 ;
112 [label="gini = 0.0000\nsamples = 1\nvalue = [ 0.  1.]", shape="box"] ;
110 -> 112 ;
113 [label="gini = 0.0000\nsamples = 1\nvalue = [ 0.  1.]", shape="box"] ;
109 -> 113 ;
114 [label="gini = 0.0000\nsamples = 1\nvalue = [ 1.  0.]", shape="box"] ;
108 -> 114 ;
115 [label="X[1] <= 17.5000\ngini = 0.128418549346\nsamples = 29", shape="box"] ;
101 -> 115 ;
116 [label="X[1] <= 15.0000\ngini = 0.32\nsamples = 5", shape="box"] ;
115 -> 116 ;
117 [label="gini = 0.0000\nsamples = 3\nvalue = [ 0.  3.]", shape="box"] ;
116 -> 117 ;
118 [label="X[0] <= 91.0000\ngini = 0.5\nsamples = 2", shape="box"] ;
116 -> 118 ;
119 [label="gini = 0.0000\nsamples = 1\nvalue = [ 0.  1.]", shape="box"] ;
118 -> 119 ;
120 [label="gini = 0.0000\nsamples = 1\nvalue = [ 1.  0.]", shape="box"] ;
118 -> 120 ;
121 [label="X[1] <= 30.5000\ngini = 0.0798611111111\nsamples = 24", shape="box"] ;
115 -> 121 ;
122 [label="gini = 0.0000\nsamples = 15\nvalue = [  0.  15.]", shape="box"] ;
121 -> 122 ;
123 [label="X[1] <= 31.5000\ngini = 0.197530864198\nsamples = 9", shape="box"] ;
121 -> 123 ;
124 [label="X[0] <= 87.5000\ngini = 0.5\nsamples = 2", shape="box"] ;
123 -> 124 ;
125 [label="gini = 0.0000\nsamples = 1\nvalue = [ 0.  1.]", shape="box"] ;
124 -> 125 ;
126 [label="gini = 0.0000\nsamples = 1\nvalue = [ 1.  0.]", shape="box"] ;
124 -> 126 ;
127 [label="gini = 0.0000\nsamples = 7\nvalue = [ 0.  7.]", shape="box"] ;
123 -> 127 ;
128 [label="X[1] <= 53.5000\ngini = 0.0156240312481\nsamples = 127", shape="box"] ;
100 -> 128 ;
129 [label="X[1] <= 52.5000\ngini = 0.0475907198096\nsamples = 41", shape="box"] ;
128 -> 129 ;
130 [label="gini = 0.0000\nsamples = 33\nvalue = [  0.  33.]", shape="box"] ;
129 -> 130 ;
131 [label="X[0] <= 90.0000\ngini = 0.21875\nsamples = 8", shape="box"] ;
129 -> 131 ;
132 [label="X[0] <= 88.5000\ngini = 0.375\nsamples = 4", shape="box"] ;
131 -> 132 ;
133 [label="gini = 0.0000\nsamples = 3\nvalue = [ 0.  3.]", shape="box"] ;
132 -> 133 ;
134 [label="gini = 0.0000\nsamples = 1\nvalue = [ 1.  0.]", shape="box"] ;
132 -> 134 ;
135 [label="gini = 0.0000\nsamples = 4\nvalue = [ 0.  4.]", shape="box"] ;
131 -> 135 ;
136 [label="gini = 0.0000\nsamples = 86\nvalue = [  0.  86.]", shape="box"] ;
128 -> 136 ;
137 [label="X[1] <= 16.5000\ngini = 0.436517373497\nsamples = 261", shape="box"] ;
1 -> 137 ;
138 [label="X[0] <= 94.5000\ngini = 0.467750062988\nsamples = 126", shape="box"] ;
137 -> 138 ;
139 [label="X[1] <= 8.5000\ngini = 0.290657439446\nsamples = 51", shape="box"] ;
138 -> 139 ;
140 [label="X[1] <= 3.0000\ngini = 0.277777777778\nsamples = 48", shape="box"] ;
139 -> 140 ;
141 [label="X[1] <= 1.5000\ngini = 0.292345679012\nsamples = 45", shape="box"] ;
140 -> 141 ;
142 [label="gini = 0.2832\nsamples = 41\nvalue = [ 34.   7.]", shape="box"] ;
141 -> 142 ;
143 [label="gini = 0.3750\nsamples = 4\nvalue = [ 3.  1.]", shape="box"] ;
141 -> 143 ;
144 [label="gini = 0.0000\nsamples = 3\nvalue = [ 3.  0.]", shape="box"] ;
140 -> 144 ;
145 [label="X[1] <= 12.5000\ngini = 0.444444444444\nsamples = 3", shape="box"] ;
139 -> 145 ;
146 [label="gini = 0.0000\nsamples = 1\nvalue = [ 0.  1.]", shape="box"] ;
145 -> 146 ;
147 [label="gini = 0.0000\nsamples = 2\nvalue = [ 2.  0.]", shape="box"] ;
145 -> 147 ;
148 [label="X[1] <= 1.5000\ngini = 0.499911111111\nsamples = 75", shape="box"] ;
138 -> 148 ;
149 [label="X[0] <= 95.5000\ngini = 0.490487514863\nsamples = 58", shape="box"] ;
148 -> 149 ;
150 [label="gini = 0.5000\nsamples = 4\nvalue = [ 2.  2.]", shape="box"] ;
149 -> 150 ;
151 [label="X[0] <= 98.5000\ngini = 0.4890260631\nsamples = 54", shape="box"] ;
149 -> 151 ;
152 [label="X[0] <= 96.5000\ngini = 0.4921875\nsamples = 32", shape="box"] ;
151 -> 152 ;
153 [label="gini = 0.4800\nsamples = 5\nvalue = [ 3.  2.]", shape="box"] ;
152 -> 153 ;
154 [label="X[0] <= 97.5000\ngini = 0.493827160494\nsamples = 27", shape="box"] ;
152 -> 154 ;
155 [label="gini = 0.4938\nsamples = 9\nvalue = [ 5.  4.]", shape="box"] ;
154 -> 155 ;
156 [label="gini = 0.4938\nsamples = 18\nvalue = [ 10.   8.]", shape="box"] ;
154 -> 156 ;
157 [label="gini = 0.4835\nsamples = 22\nvalue = [ 13.   9.]", shape="box"] ;
151 -> 157 ;
158 [label="X[1] <= 8.5000\ngini = 0.359861591696\nsamples = 17", shape="box"] ;
148 -> 158 ;
159 [label="X[0] <= 98.5000\ngini = 0.152777777778\nsamples = 12", shape="box"] ;
158 -> 159 ;
160 [label="X[1] <= 4.0000\ngini = 0.277777777778\nsamples = 6", shape="box"] ;
159 -> 160 ;
161 [label="gini = 0.0000\nsamples = 2\nvalue = [ 0.  2.]", shape="box"] ;
160 -> 161 ;
162 [label="X[1] <= 6.0000\ngini = 0.375\nsamples = 4", shape="box"] ;
160 -> 162 ;
163 [label="gini = 0.5000\nsamples = 2\nvalue = [ 1.  1.]", shape="box"] ;
162 -> 163 ;
164 [label="gini = 0.0000\nsamples = 2\nvalue = [ 0.  2.]", shape="box"] ;
162 -> 164 ;
165 [label="gini = 0.0000\nsamples = 6\nvalue = [ 0.  6.]", shape="box"] ;
159 -> 165 ;
166 [label="X[1] <= 10.5000\ngini = 0.48\nsamples = 5", shape="box"] ;
158 -> 166 ;
167 [label="gini = 0.0000\nsamples = 3\nvalue = [ 3.  0.]", shape="box"] ;
166 -> 167 ;
168 [label="gini = 0.0000\nsamples = 2\nvalue = [ 0.  2.]", shape="box"] ;
166 -> 168 ;
169 [label="X[1] <= 96.0000\ngini = 0.0713305898491\nsamples = 135", shape="box"] ;
137 -> 169 ;
170 [label="X[1] <= 23.5000\ngini = 0.044095200407\nsamples = 133", shape="box"] ;
169 -> 170 ;
171 [label="X[1] <= 22.5000\ngini = 0.277777777778\nsamples = 6", shape="box"] ;
170 -> 171 ;
172 [label="gini = 0.0000\nsamples = 5\nvalue = [ 0.  5.]", shape="box"] ;
171 -> 172 ;
173 [label="gini = 0.0000\nsamples = 1\nvalue = [ 1.  0.]", shape="box"] ;
171 -> 173 ;
174 [label="X[0] <= 98.5000\ngini = 0.0310000620001\nsamples = 127", shape="box"] ;
170 -> 174 ;
175 [label="gini = 0.0000\nsamples = 96\nvalue = [  0.  96.]", shape="box"] ;
174 -> 175 ;
176 [label="X[1] <= 55.0000\ngini = 0.120707596254\nsamples = 31", shape="box"] ;
174 -> 176 ;
177 [label="X[1] <= 52.5000\ngini = 0.277777777778\nsamples = 12", shape="box"] ;
176 -> 177 ;
178 [label="X[1] <= 42.5000\ngini = 0.18\nsamples = 10", shape="box"] ;
177 -> 178 ;
179 [label="X[1] <= 40.5000\ngini = 0.32\nsamples = 5", shape="box"] ;
178 -> 179 ;
180 [label="gini = 0.0000\nsamples = 4\nvalue = [ 0.  4.]", shape="box"] ;
179 -> 180 ;
181 [label="gini = 0.0000\nsamples = 1\nvalue = [ 1.  0.]", shape="box"] ;
179 -> 181 ;
182 [label="gini = 0.0000\nsamples = 5\nvalue = [ 0.  5.]", shape="box"] ;
178 -> 182 ;
183 [label="gini = 0.5000\nsamples = 2\nvalue = [ 1.  1.]", shape="box"] ;
177 -> 183 ;
184 [label="gini = 0.0000\nsamples = 19\nvalue = [  0.  19.]", shape="box"] ;
176 -> 184 ;
185 [label="gini = 0.0000\nsamples = 2\nvalue = [ 2.  0.]", shape="box"] ;
169 -> 185 ;
186 [label="X[1] <= 19.5000\ngini = 0.355029585799\nsamples = 1326", shape="box"] ;
0 -> 186 ;
187 [label="X[1] <= 10.5000\ngini = 0.129996822494\nsamples = 1016", shape="box"] ;
186 -> 187 ;
188 [label="X[1] <= 1.5000\ngini = 0.11807621125\nsamples = 984", shape="box"] ;
187 -> 188 ;
189 [label="gini = 0.1312\nsamples = 779\nvalue = [ 724.   55.]", shape="box"] ;
188 -> 189 ;
190 [label="X[1] <= 5.5000\ngini = 0.0659607376562\nsamples = 205", shape="box"] ;
188 -> 190 ;
191 [label="X[1] <= 2.5000\ngini = 0.0294052127423\nsamples = 134", shape="box"] ;
190 -> 191 ;
192 [label="gini = 0.0000\nsamples = 46\nvalue = [ 46.   0.]", shape="box"] ;
191 -> 192 ;
193 [label="X[1] <= 3.5000\ngini = 0.0444214876033\nsamples = 88", shape="box"] ;
191 -> 193 ;
194 [label="gini = 0.0644\nsamples = 30\nvalue = [ 29.   1.]", shape="box"] ;
193 -> 194 ;
195 [label="X[1] <= 4.5000\ngini = 0.0338882282996\nsamples = 58", shape="box"] ;
193 -> 195 ;
196 [label="gini = 0.0000\nsamples = 21\nvalue = [ 21.   0.]", shape="box"] ;
195 -> 196 ;
197 [label="gini = 0.0526\nsamples = 37\nvalue = [ 36.   1.]", shape="box"] ;
195 -> 197 ;
198 [label="X[1] <= 7.5000\ngini = 0.130926403491\nsamples = 71", shape="box"] ;
190 -> 198 ;
199 [label="X[1] <= 6.5000\ngini = 0.293367346939\nsamples = 28", shape="box"] ;
198 -> 199 ;
200 [label="gini = 0.3457\nsamples = 9\nvalue = [ 7.  2.]", shape="box"] ;
199 -> 200 ;
201 [label="gini = 0.2659\nsamples = 19\nvalue = [ 16.   3.]", shape="box"] ;
199 -> 201 ;
202 [label="gini = 0.0000\nsamples = 43\nvalue = [ 43.   0.]", shape="box"] ;
198 -> 202 ;
203 [label="X[1] <= 11.5000\ngini = 0.404296875\nsamples = 32", shape="box"] ;
187 -> 203 ;
204 [label="gini = 0.5000\nsamples = 4\nvalue = [ 2.  2.]", shape="box"] ;
203 -> 204 ;
205 [label="X[1] <= 18.5000\ngini = 0.375\nsamples = 28", shape="box"] ;
203 -> 205 ;
206 [label="X[1] <= 16.5000\ngini = 0.384087791495\nsamples = 27", shape="box"] ;
205 -> 206 ;
207 [label="X[1] <= 14.5000\ngini = 0.396694214876\nsamples = 22", shape="box"] ;
206 -> 207 ;
208 [label="X[1] <= 13.5000\ngini = 0.375\nsamples = 12", shape="box"] ;
207 -> 208 ;
209 [label="X[1] <= 12.5000\ngini = 0.408163265306\nsamples = 7", shape="box"] ;
208 -> 209 ;
210 [label="gini = 0.3750\nsamples = 4\nvalue = [ 3.  1.]", shape="box"] ;
209 -> 210 ;
211 [label="gini = 0.4444\nsamples = 3\nvalue = [ 2.  1.]", shape="box"] ;
209 -> 211 ;
212 [label="gini = 0.3200\nsamples = 5\nvalue = [ 4.  1.]", shape="box"] ;
208 -> 212 ;
213 [label="X[1] <= 15.5000\ngini = 0.42\nsamples = 10", shape="box"] ;
207 -> 213 ;
214 [label="gini = 0.4082\nsamples = 7\nvalue = [ 5.  2.]", shape="box"] ;
213 -> 214 ;
215 [label="gini = 0.4444\nsamples = 3\nvalue = [ 2.  1.]", shape="box"] ;
213 -> 215 ;
216 [label="X[1] <= 17.5000\ngini = 0.32\nsamples = 5", shape="box"] ;
206 -> 216 ;
217 [label="gini = 0.0000\nsamples = 2\nvalue = [ 2.  0.]", shape="box"] ;
216 -> 217 ;
218 [label="gini = 0.4444\nsamples = 3\nvalue = [ 2.  1.]", shape="box"] ;
216 -> 218 ;
219 [label="gini = 0.0000\nsamples = 1\nvalue = [ 1.  0.]", shape="box"] ;
205 -> 219 ;
220 [label="X[1] <= 98.5000\ngini = 0.36680541103\nsamples = 310", shape="box"] ;
186 -> 220 ;
221 [label="X[1] <= 30.5000\ngini = 0.102465277778\nsamples = 240", shape="box"] ;
220 -> 221 ;
222 [label="X[1] <= 29.5000\ngini = 0.382934443288\nsamples = 31", shape="box"] ;
221 -> 222 ;
223 [label="X[1] <= 27.5000\ngini = 0.328180737218\nsamples = 29", shape="box"] ;
222 -> 223 ;
224 [label="X[1] <= 22.5000\ngini = 0.408163265306\nsamples = 21", shape="box"] ;
223 -> 224 ;
225 [label="X[1] <= 20.5000\ngini = 0.18\nsamples = 10", shape="box"] ;
224 -> 225 ;
226 [label="gini = 0.3200\nsamples = 5\nvalue = [ 1.  4.]", shape="box"] ;
225 -> 226 ;
227 [label="gini = 0.0000\nsamples = 5\nvalue = [ 0.  5.]", shape="box"] ;
225 -> 227 ;
228 [label="X[1] <= 24.5000\ngini = 0.495867768595\nsamples = 11", shape="box"] ;
224 -> 228 ;
229 [label="X[1] <= 23.5000\ngini = 0.375\nsamples = 4", shape="box"] ;
228 -> 229 ;
230 [label="gini = 0.4444\nsamples = 3\nvalue = [ 2.  1.]", shape="box"] ;
229 -> 230 ;
231 [label="gini = 0.0000\nsamples = 1\nvalue = [ 1.  0.]", shape="box"] ;
229 -> 231 ;
232 [label="X[1] <= 25.5000\ngini = 0.408163265306\nsamples = 7", shape="box"] ;
228 -> 232 ;
233 [label="gini = 0.0000\nsamples = 3\nvalue = [ 0.  3.]", shape="box"] ;
232 -> 233 ;
234 [label="X[1] <= 26.5000\ngini = 0.5\nsamples = 4", shape="box"] ;
232 -> 234 ;
235 [label="gini = 0.0000\nsamples = 1\nvalue = [ 1.  0.]", shape="box"] ;
234 -> 235 ;
236 [label="gini = 0.4444\nsamples = 3\nvalue = [ 1.  2.]", shape="box"] ;
234 -> 236 ;
237 [label="gini = 0.0000\nsamples = 8\nvalue = [ 0.  8.]", shape="box"] ;
223 -> 237 ;
238 [label="gini = 0.0000\nsamples = 2\nvalue = [ 2.  0.]", shape="box"] ;
222 -> 238 ;
239 [label="X[1] <= 88.5000\ngini = 0.0467022275131\nsamples = 209", shape="box"] ;
221 -> 239 ;
240 [label="X[1] <= 56.5000\ngini = 0.0306048484523\nsamples = 193", shape="box"] ;
239 -> 240 ;
241 [label="X[1] <= 55.5000\ngini = 0.0713305898491\nsamples = 81", shape="box"] ;
240 -> 241 ;
242 [label="X[1] <= 36.5000\ngini = 0.0256367009614\nsamples = 77", shape="box"] ;
241 -> 242 ;
243 [label="X[1] <= 35.5000\ngini = 0.132653061224\nsamples = 14", shape="box"] ;
242 -> 243 ;
244 [label="gini = 0.0000\nsamples = 9\nvalue = [ 0.  9.]", shape="box"] ;
243 -> 244 ;
245 [label="gini = 0.3200\nsamples = 5\nvalue = [ 1.  4.]", shape="box"] ;
243 -> 245 ;
246 [label="gini = 0.0000\nsamples = 63\nvalue = [  0.  63.]", shape="box"] ;
242 -> 246 ;
247 [label="gini = 0.5000\nsamples = 4\nvalue = [ 2.  2.]", shape="box"] ;
241 -> 247 ;
248 [label="gini = 0.0000\nsamples = 112\nvalue = [   0.  112.]", shape="box"] ;
240 -> 248 ;
249 [label="X[1] <= 91.5000\ngini = 0.21875\nsamples = 16", shape="box"] ;
239 -> 249 ;
250 [label="X[1] <= 89.5000\ngini = 0.375\nsamples = 8", shape="box"] ;
249 -> 250 ;
251 [label="gini = 0.4444\nsamples = 3\nvalue = [ 1.  2.]", shape="box"] ;
250 -> 251 ;
252 [label="X[1] <= 90.5000\ngini = 0.32\nsamples = 5", shape="box"] ;
250 -> 252 ;
253 [label="gini = 0.0000\nsamples = 1\nvalue = [ 0.  1.]", shape="box"] ;
252 -> 253 ;
254 [label="gini = 0.3750\nsamples = 4\nvalue = [ 1.  3.]", shape="box"] ;
252 -> 254 ;
255 [label="gini = 0.0000\nsamples = 8\nvalue = [ 0.  8.]", shape="box"] ;
249 -> 255 ;
256 [label="X[1] <= 99.5000\ngini = 0.202448979592\nsamples = 70", shape="box"] ;
220 -> 256 ;
257 [label="gini = 0.0000\nsamples = 1\nvalue = [ 1.  0.]", shape="box"] ;
256 -> 257 ;
258 [label="gini = 0.2050\nsamples = 69\nvalue = [ 61.   8.]", shape="box"] ;
256 -> 258 ;
}