digraph Tree {
0 [label="X[0] <= 99.5000\nentropy = 0.982085633277\nsamples = 2499", shape="box"] ;
1 [label="X[1] <= 23.5000\nentropy = 0.457162390518\nsamples = 1298", shape="box"] ;
0 -> 1 ;
2 [label="X[0] <= 0.0000\nentropy = 0.721928094887\nsamples = 595", shape="box"] ;
1 -> 2 ;
3 [label="entropy = 0.0000\nsamples = 319\nvalue = [   0.  319.]", shape="box"] ;
2 -> 3 ;
4 [label="X[0] <= 86.5000\nentropy = 0.986282531381\nsamples = 276", shape="box"] ;
2 -> 4 ;
5 [label="X[1] <= 8.5000\nentropy = 0.78045243355\nsamples = 121", shape="box"] ;
4 -> 5 ;
6 [label="X[0] <= 23.0000\nentropy = 0.865121422751\nsamples = 94", shape="box"] ;
5 -> 6 ;
7 [label="X[0] <= 2.5000\nentropy = 0.650022421648\nsamples = 36", shape="box"] ;
6 -> 7 ;
8 [label="X[1] <= 4.0000\nentropy = 0.696212260125\nsamples = 32", shape="box"] ;
7 -> 8 ;
9 [label="entropy = 0.7219\nsamples = 30\nvalue = [  6.  24.]", shape="box"] ;
8 -> 9 ;
10 [label="entropy = 0.0000\nsamples = 2\nvalue = [ 0.  2.]", shape="box"] ;
8 -> 10 ;
11 [label="entropy = 0.0000\nsamples = 4\nvalue = [ 0.  4.]", shape="box"] ;
7 -> 11 ;
12 [label="X[1] <= 6.0000\nentropy = 0.944387195013\nsamples = 58", shape="box"] ;
6 -> 12 ;
13 [label="X[0] <= 28.0000\nentropy = 0.898653375691\nsamples = 54", shape="box"] ;
12 -> 13 ;
14 [label="entropy = 0.0000\nsamples = 2\nvalue = [ 0.  2.]", shape="box"] ;
13 -> 14 ;
15 [label="X[0] <= 32.5000\nentropy = 0.911751758635\nsamples = 52", shape="box"] ;
13 -> 15 ;
16 [label="entropy = 0.0000\nsamples = 1\nvalue = [ 1.  0.]", shape="box"] ;
15 -> 16 ;
17 [label="X[0] <= 73.5000\nentropy = 0.897427193088\nsamples = 51", shape="box"] ;
15 -> 17 ;
18 [label="X[0] <= 59.5000\nentropy = 0.797326510147\nsamples = 29", shape="box"] ;
17 -> 18 ;
19 [label="X[1] <= 2.0000\nentropy = 0.979868756651\nsamples = 12", shape="box"] ;
18 -> 19 ;
20 [label="X[0] <= 53.5000\nentropy = 1.0\nsamples = 10", shape="box"] ;
19 -> 20 ;
21 [label="X[0] <= 49.5000\nentropy = 0.918295834054\nsamples = 6", shape="box"] ;
20 -> 21 ;
22 [label="X[0] <= 42.5000\nentropy = 0.918295834054\nsamples = 3", shape="box"] ;
21 -> 22 ;
23 [label="entropy = 0.0000\nsamples = 1\nvalue = [ 0.  1.]", shape="box"] ;
22 -> 23 ;
24 [label="entropy = 0.0000\nsamples = 2\nvalue = [ 2.  0.]", shape="box"] ;
22 -> 24 ;
25 [label="entropy = 0.0000\nsamples = 3\nvalue = [ 0.  3.]", shape="box"] ;
21 -> 25 ;
26 [label="X[0] <= 56.5000\nentropy = 0.811278124459\nsamples = 4", shape="box"] ;
20 -> 26 ;
27 [label="entropy = 0.0000\nsamples = 2\nvalue = [ 2.  0.]", shape="box"] ;
26 -> 27 ;
28 [label="entropy = 1.0000\nsamples = 2\nvalue = [ 1.  1.]", shape="box"] ;
26 -> 28 ;
29 [label="entropy = 0.0000\nsamples = 2\nvalue = [ 0.  2.]", shape="box"] ;
19 -> 29 ;
30 [label="X[1] <= 3.5000\nentropy = 0.522559374537\nsamples = 17", shape="box"] ;
18 -> 30 ;
31 [label="X[0] <= 71.5000\nentropy = 0.337290066617\nsamples = 16", shape="box"] ;
30 -> 31 ;
32 [label="entropy = 0.0000\nsamples = 12\nvalue = [  0.  12.]", shape="box"] ;
31 -> 32 ;
33 [label="entropy = 0.8113\nsamples = 4\nvalue = [ 1.  3.]", shape="box"] ;
31 -> 33 ;
34 [label="entropy = 0.0000\nsamples = 1\nvalue = [ 1.  0.]", shape="box"] ;
30 -> 34 ;
35 [label="X[0] <= 78.0000\nentropy = 0.976020648237\nsamples = 22", shape="box"] ;
17 -> 35 ;
36 [label="X[1] <= 1.5000\nentropy = 0.918295834054\nsamples = 9", shape="box"] ;
35 -> 36 ;
37 [label="X[0] <= 74.5000\nentropy = 0.985228136034\nsamples = 7", shape="box"] ;
36 -> 37 ;
38 [label="entropy = 0.9183\nsamples = 3\nvalue = [ 1.  2.]", shape="box"] ;
37 -> 38 ;
39 [label="X[0] <= 76.5000\nentropy = 0.811278124459\nsamples = 4", shape="box"] ;
37 -> 39 ;
40 [label="entropy = 0.0000\nsamples = 2\nvalue = [ 2.  0.]", shape="box"] ;
39 -> 40 ;
41 [label="entropy = 1.0000\nsamples = 2\nvalue = [ 1.  1.]", shape="box"] ;
39 -> 41 ;
42 [label="entropy = 0.0000\nsamples = 2\nvalue = [ 2.  0.]", shape="box"] ;
36 -> 42 ;
43 [label="X[1] <= 1.5000\nentropy = 0.779349837292\nsamples = 13", shape="box"] ;
35 -> 43 ;
44 [label="X[0] <= 85.5000\nentropy = 0.881290899231\nsamples = 10", shape="box"] ;
43 -> 44 ;
45 [label="X[0] <= 83.5000\nentropy = 0.764204506509\nsamples = 9", shape="box"] ;
44 -> 45 ;
46 [label="X[0] <= 79.5000\nentropy = 0.970950594455\nsamples = 5", shape="box"] ;
45 -> 46 ;
47 [label="entropy = 0.0000\nsamples = 2\nvalue = [ 0.  2.]", shape="box"] ;
46 -> 47 ;
48 [label="X[0] <= 81.5000\nentropy = 0.918295834054\nsamples = 3", shape="box"] ;
46 -> 48 ;
49 [label="entropy = 1.0000\nsamples = 2\nvalue = [ 1.  1.]", shape="box"] ;
48 -> 49 ;
50 [label="entropy = 0.0000\nsamples = 1\nvalue = [ 1.  0.]", shape="box"] ;
48 -> 50 ;
51 [label="entropy = 0.0000\nsamples = 4\nvalue = [ 0.  4.]", shape="box"] ;
45 -> 51 ;
52 [label="entropy = 0.0000\nsamples = 1\nvalue = [ 1.  0.]", shape="box"] ;
44 -> 52 ;
53 [label="entropy = 0.0000\nsamples = 3\nvalue = [ 0.  3.]", shape="box"] ;
43 -> 53 ;
54 [label="entropy = 0.0000\nsamples = 4\nvalue = [ 4.  0.]", shape="box"] ;
12 -> 54 ;
55 [label="X[0] <= 84.0000\nentropy = 0.228538143954\nsamples = 27", shape="box"] ;
5 -> 55 ;
56 [label="entropy = 0.0000\nsamples = 25\nvalue = [  0.  25.]", shape="box"] ;
55 -> 56 ;
57 [label="X[1] <= 15.0000\nentropy = 1.0\nsamples = 2", shape="box"] ;
55 -> 57 ;
58 [label="entropy = 0.0000\nsamples = 1\nvalue = [ 0.  1.]", shape="box"] ;
57 -> 58 ;
59 [label="entropy = 0.0000\nsamples = 1\nvalue = [ 1.  0.]", shape="box"] ;
57 -> 59 ;
60 [label="X[1] <= 10.5000\nentropy = 0.977999810061\nsamples = 155", shape="box"] ;
4 -> 60 ;
61 [label="X[0] <= 94.5000\nentropy = 0.951762675635\nsamples = 140", shape="box"] ;
60 -> 61 ;
62 [label="X[0] <= 93.5000\nentropy = 0.836640741941\nsamples = 75", shape="box"] ;
61 -> 62 ;
63 [label="X[1] <= 4.5000\nentropy = 0.988699408288\nsamples = 32", shape="box"] ;
62 -> 63 ;
64 [label="X[1] <= 3.5000\nentropy = 0.99901027088\nsamples = 27", shape="box"] ;
63 -> 64 ;
65 [label="X[0] <= 88.5000\nentropy = 0.998845535995\nsamples = 25", shape="box"] ;
64 -> 65 ;
66 [label="X[0] <= 87.5000\nentropy = 0.863120568567\nsamples = 7", shape="box"] ;
65 -> 66 ;
67 [label="entropy = 0.0000\nsamples = 1\nvalue = [ 1.  0.]", shape="box"] ;
66 -> 67 ;
68 [label="entropy = 0.9183\nsamples = 6\nvalue = [ 4.  2.]", shape="box"] ;
66 -> 68 ;
69 [label="X[0] <= 89.5000\nentropy = 0.991076059838\nsamples = 18", shape="box"] ;
65 -> 69 ;
70 [label="entropy = 0.0000\nsamples = 2\nvalue = [ 0.  2.]", shape="box"] ;
69 -> 70 ;
71 [label="X[1] <= 2.0000\nentropy = 1.0\nsamples = 16", shape="box"] ;
69 -> 71 ;
72 [label="X[0] <= 91.5000\nentropy = 0.996791631982\nsamples = 15", shape="box"] ;
71 -> 72 ;
73 [label="X[0] <= 90.5000\nentropy = 0.985228136034\nsamples = 7", shape="box"] ;
72 -> 73 ;
74 [label="entropy = 1.0000\nsamples = 2\nvalue = [ 1.  1.]", shape="box"] ;
73 -> 74 ;
75 [label="entropy = 0.9710\nsamples = 5\nvalue = [ 2.  3.]", shape="box"] ;
73 -> 75 ;
76 [label="X[0] <= 92.5000\nentropy = 1.0\nsamples = 8", shape="box"] ;
72 -> 76 ;
77 [label="entropy = 1.0000\nsamples = 4\nvalue = [ 2.  2.]", shape="box"] ;
76 -> 77 ;
78 [label="entropy = 1.0000\nsamples = 4\nvalue = [ 2.  2.]", shape="box"] ;
76 -> 78 ;
79 [label="entropy = 0.0000\nsamples = 1\nvalue = [ 1.  0.]", shape="box"] ;
71 -> 79 ;
80 [label="entropy = 0.0000\nsamples = 2\nvalue = [ 0.  2.]", shape="box"] ;
64 -> 80 ;
81 [label="entropy = 0.0000\nsamples = 5\nvalue = [ 5.  0.]", shape="box"] ;
63 -> 81 ;
82 [label="X[1] <= 1.5000\nentropy = 0.583019416735\nsamples = 43", shape="box"] ;
62 -> 82 ;
83 [label="entropy = 0.6292\nsamples = 38\nvalue = [ 32.   6.]", shape="box"] ;
82 -> 83 ;
84 [label="entropy = 0.0000\nsamples = 5\nvalue = [ 5.  0.]", shape="box"] ;
82 -> 84 ;
85 [label="X[1] <= 1.5000\nentropy = 0.999829260123\nsamples = 65", shape="box"] ;
61 -> 85 ;
86 [label="X[0] <= 98.5000\nentropy = 0.98410952788\nsamples = 54", shape="box"] ;
85 -> 86 ;
87 [label="X[0] <= 97.5000\nentropy = 0.994030211477\nsamples = 33", shape="box"] ;
86 -> 87 ;
88 [label="X[0] <= 95.5000\nentropy = 0.977417817528\nsamples = 17", shape="box"] ;
87 -> 88 ;
89 [label="entropy = 1.0000\nsamples = 4\nvalue = [ 2.  2.]", shape="box"] ;
88 -> 89 ;
90 [label="X[0] <= 96.5000\nentropy = 0.961236604723\nsamples = 13", shape="box"] ;
88 -> 90 ;
91 [label="entropy = 0.9710\nsamples = 5\nvalue = [ 3.  2.]", shape="box"] ;
90 -> 91 ;
92 [label="entropy = 0.9544\nsamples = 8\nvalue = [ 5.  3.]", shape="box"] ;
90 -> 92 ;
93 [label="entropy = 1.0000\nsamples = 16\nvalue = [ 8.  8.]", shape="box"] ;
87 -> 93 ;
94 [label="entropy = 0.9587\nsamples = 21\nvalue = [ 13.   8.]", shape="box"] ;
86 -> 94 ;
95 [label="X[1] <= 9.0000\nentropy = 0.684038435639\nsamples = 11", shape="box"] ;
85 -> 95 ;
96 [label="X[0] <= 98.5000\nentropy = 0.468995593589\nsamples = 10", shape="box"] ;
95 -> 96 ;
97 [label="X[1] <= 6.0000\nentropy = 0.811278124459\nsamples = 4", shape="box"] ;
96 -> 97 ;
98 [label="entropy = 1.0000\nsamples = 2\nvalue = [ 1.  1.]", shape="box"] ;
97 -> 98 ;
99 [label="entropy = 0.0000\nsamples = 2\nvalue = [ 0.  2.]", shape="box"] ;
97 -> 99 ;
100 [label="entropy = 0.0000\nsamples = 6\nvalue = [ 0.  6.]", shape="box"] ;
96 -> 100 ;
101 [label="entropy = 0.0000\nsamples = 1\nvalue = [ 1.  0.]", shape="box"] ;
95 -> 101 ;
102 [label="X[1] <= 22.5000\nentropy = 0.721928094887\nsamples = 15", shape="box"] ;
60 -> 102 ;
103 [label="X[1] <= 16.5000\nentropy = 0.591672778582\nsamples = 14", shape="box"] ;
102 -> 103 ;
104 [label="X[1] <= 15.0000\nentropy = 0.811278124459\nsamples = 8", shape="box"] ;
103 -> 104 ;
105 [label="entropy = 0.0000\nsamples = 4\nvalue = [ 0.  4.]", shape="box"] ;
104 -> 105 ;
106 [label="X[0] <= 91.0000\nentropy = 1.0\nsamples = 4", shape="box"] ;
104 -> 106 ;
107 [label="entropy = 0.0000\nsamples = 1\nvalue = [ 0.  1.]", shape="box"] ;
106 -> 107 ;
108 [label="X[0] <= 96.0000\nentropy = 0.918295834054\nsamples = 3", shape="box"] ;
106 -> 108 ;
109 [label="entropy = 0.0000\nsamples = 2\nvalue = [ 2.  0.]", shape="box"] ;
108 -> 109 ;
110 [label="entropy = 0.0000\nsamples = 1\nvalue = [ 0.  1.]", shape="box"] ;
108 -> 110 ;
111 [label="entropy = 0.0000\nsamples = 6\nvalue = [ 0.  6.]", shape="box"] ;
103 -> 111 ;
112 [label="entropy = 0.0000\nsamples = 1\nvalue = [ 1.  0.]", shape="box"] ;
102 -> 112 ;
113 [label="X[0] <= 97.5000\nentropy = 0.0709155553533\nsamples = 703", shape="box"] ;
1 -> 113 ;
114 [label="X[1] <= 31.5000\nentropy = 0.0422365383528\nsamples = 654", shape="box"] ;
113 -> 114 ;
115 [label="X[1] <= 30.5000\nentropy = 0.183122068301\nsamples = 36", shape="box"] ;
114 -> 115 ;
116 [label="entropy = 0.0000\nsamples = 32\nvalue = [  0.  32.]", shape="box"] ;
115 -> 116 ;
117 [label="X[0] <= 87.5000\nentropy = 0.811278124459\nsamples = 4", shape="box"] ;
115 -> 117 ;
118 [label="entropy = 0.0000\nsamples = 3\nvalue = [ 0.  3.]", shape="box"] ;
117 -> 118 ;
119 [label="entropy = 0.0000\nsamples = 1\nvalue = [ 1.  0.]", shape="box"] ;
117 -> 119 ;
120 [label="X[0] <= 63.5000\nentropy = 0.0314298417101\nsamples = 618", shape="box"] ;
114 -> 120 ;
121 [label="X[0] <= 62.5000\nentropy = 0.0576180136858\nsamples = 301", shape="box"] ;
120 -> 121 ;
122 [label="X[1] <= 53.5000\nentropy = 0.0326003671373\nsamples = 296", shape="box"] ;
121 -> 122 ;
123 [label="X[1] <= 52.5000\nentropy = 0.116115075305\nsamples = 64", shape="box"] ;
122 -> 123 ;
124 [label="entropy = 0.0000\nsamples = 61\nvalue = [  0.  61.]", shape="box"] ;
123 -> 124 ;
125 [label="X[0] <= 13.5000\nentropy = 0.918295834054\nsamples = 3", shape="box"] ;
123 -> 125 ;
126 [label="entropy = 0.0000\nsamples = 2\nvalue = [ 0.  2.]", shape="box"] ;
125 -> 126 ;
127 [label="entropy = 0.0000\nsamples = 1\nvalue = [ 1.  0.]", shape="box"] ;
125 -> 127 ;
128 [label="entropy = 0.0000\nsamples = 232\nvalue = [   0.  232.]", shape="box"] ;
122 -> 128 ;
129 [label="X[1] <= 75.0000\nentropy = 0.721928094887\nsamples = 5", shape="box"] ;
121 -> 129 ;
130 [label="entropy = 0.0000\nsamples = 4\nvalue = [ 0.  4.]", shape="box"] ;
129 -> 130 ;
131 [label="entropy = 0.0000\nsamples = 1\nvalue = [ 1.  0.]", shape="box"] ;
129 -> 131 ;
132 [label="entropy = 0.0000\nsamples = 317\nvalue = [   0.  317.]", shape="box"] ;
120 -> 132 ;
133 [label="X[1] <= 96.0000\nentropy = 0.332286630222\nsamples = 49", shape="box"] ;
113 -> 133 ;
134 [label="X[1] <= 54.0000\nentropy = 0.249882292833\nsamples = 48", shape="box"] ;
133 -> 134 ;
135 [label="X[1] <= 52.5000\nentropy = 0.503258334776\nsamples = 18", shape="box"] ;
134 -> 135 ;
136 [label="X[1] <= 42.5000\nentropy = 0.337290066617\nsamples = 16", shape="box"] ;
135 -> 136 ;
137 [label="X[1] <= 38.5000\nentropy = 0.591672778582\nsamples = 7", shape="box"] ;
136 -> 137 ;
138 [label="entropy = 0.0000\nsamples = 6\nvalue = [ 0.  6.]", shape="box"] ;
137 -> 138 ;
139 [label="entropy = 0.0000\nsamples = 1\nvalue = [ 1.  0.]", shape="box"] ;
137 -> 139 ;
140 [label="entropy = 0.0000\nsamples = 9\nvalue = [ 0.  9.]", shape="box"] ;
136 -> 140 ;
141 [label="entropy = 1.0000\nsamples = 2\nvalue = [ 1.  1.]", shape="box"] ;
135 -> 141 ;
142 [label="entropy = 0.0000\nsamples = 30\nvalue = [  0.  30.]", shape="box"] ;
134 -> 142 ;
143 [label="entropy = 0.0000\nsamples = 1\nvalue = [ 1.  0.]", shape="box"] ;
133 -> 143 ;
144 [label="X[1] <= 19.5000\nentropy = 0.773293489037\nsamples = 1201", shape="box"] ;
0 -> 144 ;
145 [label="X[1] <= 10.5000\nentropy = 0.352253575592\nsamples = 919", shape="box"] ;
144 -> 145 ;
146 [label="X[1] <= 7.5000\nentropy = 0.320905618478\nsamples = 891", shape="box"] ;
145 -> 146 ;
147 [label="X[1] <= 5.5000\nentropy = 0.330967525007\nsamples = 854", shape="box"] ;
146 -> 147 ;
148 [label="X[1] <= 1.5000\nentropy = 0.315017074811\nsamples = 826", shape="box"] ;
147 -> 148 ;
149 [label="entropy = 0.3494\nsamples = 701\nvalue = [ 655.   46.]", shape="box"] ;
148 -> 149 ;
150 [label="X[1] <= 3.5000\nentropy = 0.0672215447583\nsamples = 125", shape="box"] ;
148 -> 150 ;
151 [label="X[1] <= 2.5000\nentropy = 0.106792032376\nsamples = 71", shape="box"] ;
150 -> 151 ;
152 [label="entropy = 0.0000\nsamples = 42\nvalue = [ 42.   0.]", shape="box"] ;
151 -> 152 ;
153 [label="entropy = 0.2164\nsamples = 29\nvalue = [ 28.   1.]", shape="box"] ;
151 -> 153 ;
154 [label="entropy = 0.0000\nsamples = 54\nvalue = [ 54.   0.]", shape="box"] ;
150 -> 154 ;
155 [label="X[1] <= 6.5000\nentropy = 0.676941869781\nsamples = 28", shape="box"] ;
147 -> 155 ;
156 [label="entropy = 0.7642\nsamples = 9\nvalue = [ 7.  2.]", shape="box"] ;
155 -> 156 ;
157 [label="entropy = 0.6292\nsamples = 19\nvalue = [ 16.   3.]", shape="box"] ;
155 -> 157 ;
158 [label="entropy = 0.0000\nsamples = 37\nvalue = [ 37.   0.]", shape="box"] ;
146 -> 158 ;
159 [label="X[1] <= 18.5000\nentropy = 0.905928216043\nsamples = 28", shape="box"] ;
145 -> 159 ;
160 [label="X[1] <= 11.5000\nentropy = 0.918295834054\nsamples = 27", shape="box"] ;
159 -> 160 ;
161 [label="entropy = 1.0000\nsamples = 4\nvalue = [ 2.  2.]", shape="box"] ;
160 -> 161 ;
162 [label="X[1] <= 17.5000\nentropy = 0.886540892822\nsamples = 23", shape="box"] ;
160 -> 162 ;
163 [label="X[1] <= 16.5000\nentropy = 0.863120568567\nsamples = 21", shape="box"] ;
162 -> 163 ;
164 [label="X[1] <= 12.5000\nentropy = 0.899743758698\nsamples = 19", shape="box"] ;
163 -> 164 ;
165 [label="entropy = 0.8113\nsamples = 4\nvalue = [ 3.  1.]", shape="box"] ;
164 -> 165 ;
166 [label="X[1] <= 13.5000\nentropy = 0.918295834054\nsamples = 15", shape="box"] ;
164 -> 166 ;
167 [label="entropy = 1.0000\nsamples = 2\nvalue = [ 1.  1.]", shape="box"] ;
166 -> 167 ;
168 [label="X[1] <= 14.5000\nentropy = 0.890491640219\nsamples = 13", shape="box"] ;
166 -> 168 ;
169 [label="entropy = 0.8113\nsamples = 4\nvalue = [ 3.  1.]", shape="box"] ;
168 -> 169 ;
170 [label="X[1] <= 15.5000\nentropy = 0.918295834054\nsamples = 9", shape="box"] ;
168 -> 170 ;
171 [label="entropy = 0.9183\nsamples = 6\nvalue = [ 4.  2.]", shape="box"] ;
170 -> 171 ;
172 [label="entropy = 0.9183\nsamples = 3\nvalue = [ 2.  1.]", shape="box"] ;
170 -> 172 ;
173 [label="entropy = 0.0000\nsamples = 2\nvalue = [ 2.  0.]", shape="box"] ;
163 -> 173 ;
174 [label="entropy = 1.0000\nsamples = 2\nvalue = [ 1.  1.]", shape="box"] ;
162 -> 174 ;
175 [label="entropy = 0.0000\nsamples = 1\nvalue = [ 1.  0.]", shape="box"] ;
159 -> 175 ;
176 [label="X[1] <= 98.5000\nentropy = 0.808455793698\nsamples = 282", shape="box"] ;
144 -> 176 ;
177 [label="X[1] <= 30.5000\nentropy = 0.325986449848\nsamples = 218", shape="box"] ;
176 -> 177 ;
178 [label="X[1] <= 29.5000\nentropy = 0.849751137253\nsamples = 29", shape="box"] ;
177 -> 178 ;
179 [label="X[1] <= 27.5000\nentropy = 0.764204506509\nsamples = 27", shape="box"] ;
178 -> 179 ;
180 [label="X[1] <= 22.5000\nentropy = 0.881290899231\nsamples = 20", shape="box"] ;
179 -> 180 ;
181 [label="X[1] <= 20.5000\nentropy = 0.468995593589\nsamples = 10", shape="box"] ;
180 -> 181 ;
182 [label="entropy = 0.7219\nsamples = 5\nvalue = [ 1.  4.]", shape="box"] ;
181 -> 182 ;
183 [label="entropy = 0.0000\nsamples = 5\nvalue = [ 0.  5.]", shape="box"] ;
181 -> 183 ;
184 [label="X[1] <= 24.5000\nentropy = 1.0\nsamples = 10", shape="box"] ;
180 -> 184 ;
185 [label="X[1] <= 23.5000\nentropy = 0.811278124459\nsamples = 4", shape="box"] ;
184 -> 185 ;
186 [label="entropy = 0.9183\nsamples = 3\nvalue = [ 2.  1.]", shape="box"] ;
185 -> 186 ;
187 [label="entropy = 0.0000\nsamples = 1\nvalue = [ 1.  0.]", shape="box"] ;
185 -> 187 ;
188 [label="X[1] <= 25.5000\nentropy = 0.918295834054\nsamples = 6", shape="box"] ;
184 -> 188 ;
189 [label="entropy = 0.0000\nsamples = 3\nvalue = [ 0.  3.]", shape="box"] ;
188 -> 189 ;
190 [label="X[1] <= 26.5000\nentropy = 0.918295834054\nsamples = 3", shape="box"] ;
188 -> 190 ;
191 [label="entropy = 0.0000\nsamples = 1\nvalue = [ 1.  0.]", shape="box"] ;
190 -> 191 ;
192 [label="entropy = 1.0000\nsamples = 2\nvalue = [ 1.  1.]", shape="box"] ;
190 -> 192 ;
193 [label="entropy = 0.0000\nsamples = 7\nvalue = [ 0.  7.]", shape="box"] ;
179 -> 193 ;
194 [label="entropy = 0.0000\nsamples = 2\nvalue = [ 2.  0.]", shape="box"] ;
178 -> 194 ;
195 [label="X[1] <= 88.5000\nentropy = 0.176289829571\nsamples = 189", shape="box"] ;
177 -> 195 ;
196 [label="X[1] <= 56.5000\nentropy = 0.125658050173\nsamples = 174", shape="box"] ;
195 -> 196 ;
197 [label="X[1] <= 55.5000\nentropy = 0.247294439862\nsamples = 73", shape="box"] ;
196 -> 197 ;
198 [label="X[1] <= 36.5000\nentropy = 0.109285714676\nsamples = 69", shape="box"] ;
197 -> 198 ;
199 [label="X[1] <= 35.5000\nentropy = 0.371232326641\nsamples = 14", shape="box"] ;
198 -> 199 ;
200 [label="entropy = 0.0000\nsamples = 9\nvalue = [ 0.  9.]", shape="box"] ;
199 -> 200 ;
201 [label="entropy = 0.7219\nsamples = 5\nvalue = [ 1.  4.]", shape="box"] ;
199 -> 201 ;
202 [label="entropy = 0.0000\nsamples = 55\nvalue = [  0.  55.]", shape="box"] ;
198 -> 202 ;
203 [label="entropy = 1.0000\nsamples = 4\nvalue = [ 2.  2.]", shape="box"] ;
197 -> 203 ;
204 [label="entropy = 0.0000\nsamples = 101\nvalue = [   0.  101.]", shape="box"] ;
196 -> 204 ;
205 [label="X[1] <= 91.5000\nentropy = 0.566509506553\nsamples = 15", shape="box"] ;
195 -> 205 ;
206 [label="X[1] <= 89.5000\nentropy = 0.811278124459\nsamples = 8", shape="box"] ;
205 -> 206 ;
207 [label="entropy = 0.9183\nsamples = 3\nvalue = [ 1.  2.]", shape="box"] ;
206 -> 207 ;
208 [label="X[1] <= 90.5000\nentropy = 0.721928094887\nsamples = 5", shape="box"] ;
206 -> 208 ;
209 [label="entropy = 0.0000\nsamples = 1\nvalue = [ 0.  1.]", shape="box"] ;
208 -> 209 ;
210 [label="entropy = 0.8113\nsamples = 4\nvalue = [ 1.  3.]", shape="box"] ;
208 -> 210 ;
211 [label="entropy = 0.0000\nsamples = 7\nvalue = [ 0.  7.]", shape="box"] ;
205 -> 211 ;
212 [label="X[1] <= 99.5000\nentropy = 0.498027886534\nsamples = 64", shape="box"] ;
176 -> 212 ;
213 [label="entropy = 0.0000\nsamples = 1\nvalue = [ 1.  0.]", shape="box"] ;
212 -> 213 ;
214 [label="entropy = 0.5033\nsamples = 63\nvalue = [ 56.   7.]", shape="box"] ;
212 -> 214 ;
}